{"learner":{"attributes":{"best_iteration":"199","best_ntree_limit":"200","scikit_learn":"{\"n_estimators\": 200, \"objective\": \"reg:squarederror\", \"max_depth\": 7, \"max_leaves\": null, \"max_bin\": null, \"grow_policy\": null, \"learning_rate\": 0.05, \"verbosity\": null, \"booster\": null, \"tree_method\": null, \"gamma\": null, \"min_child_weight\": null, \"max_delta_step\": null, \"subsample\": null, \"sampling_method\": null, \"colsample_bytree\": null, \"colsample_bylevel\": null, \"colsample_bynode\": null, \"reg_alpha\": null, \"reg_lambda\": null, \"scale_pos_weight\": null, \"base_score\": null, \"missing\": NaN, \"num_parallel_tree\": null, \"random_state\": 42, \"n_jobs\": null, \"monotone_constraints\": null, \"interaction_constraints\": null, \"importance_type\": null, \"gpu_id\": null, \"validate_parameters\": null, \"predictor\": null, \"enable_categorical\": false, \"feature_types\": null, \"max_cat_to_onehot\": null, \"max_cat_threshold\": null, \"eval_metric\": null, \"early_stopping_rounds\": null, \"callbacks\": null, \"evals_result_\": {\"validation_0\": {\"rmse\": [0.47523900028886523, 0.45162590813374687, 0.42920031420614113, 0.407903324342617, 0.38767897788049627, 0.36847415261844846, 0.3502383609883071, 0.3329236870503326, 0.3164846412878911, 0.30087801194822594, 0.28606277084537296, 0.27199482461935864, 0.2586426034753058, 0.24597532011422465, 0.2339507972438943, 0.22254586058391573, 0.21172243471447583, 0.20145972512786625, 0.19172332745115492, 0.1838579108005909, 0.1766062635232573, 0.16960289512416507, 0.1631573892701045, 0.15738621656929372, 0.15176428354612206, 0.1460147652549452, 0.14097287016587765, 0.13658389660772807, 0.1316086195787928, 0.12757173895090484, 0.12346670159324576, 0.11986112222604606, 0.11580375606357772, 0.11187476509060112, 0.10864195574882486, 0.10594190901602535, 0.10276056495418652, 0.09952248017513407, 0.09662038735634969, 0.09401614317198351, 0.09134867941348525, 0.08898919604432252, 0.0866913012826252, 0.08439369273286966, 0.08230746102675557, 0.0803274662897316, 0.0783955133071127, 0.07667040749862873, 0.07507249092918096, 0.07354620245400253, 0.07210931735247121, 0.07085009831201604, 0.06963714474556751, 0.06851065675843437, 0.06746838621433733, 0.06651767119263036, 0.06555977260976734, 0.06468943443988631, 0.06379816337070796, 0.06307069546813801, 0.06223036778477523, 0.06149311083960952, 0.06097361143363887, 0.06031247497881018, 0.05970803205109938, 0.05927736162539417, 0.05884877776235699, 0.0584258951436851, 0.05811046139128316, 0.05766163504114429, 0.05722231532184143, 0.05683140434093851, 0.05646787863630347, 0.05613622233110793, 0.05583796095692116, 0.05561828321848948, 0.05540103447366155, 0.05510005516427727, 0.05487825570491842, 0.05470827197653648, 0.0545143659621531, 0.05436725707621596, 0.05419214773900613, 0.05401721085144798, 0.05399092226754855, 0.05373647977341987, 0.05368147177672692, 0.05345742185185061, 0.053331690154853, 0.05327035350284447, 0.05329301765623366, 0.05320507350224605, 0.05306587653219609, 0.05289486097523002, 0.05280413187513809, 0.05277713839543348, 0.05284223224372703, 0.05277838341148334, 0.05269513305129005, 0.05266868621189308, 0.05260884187003571, 0.0525459638083997, 0.05249456392420533, 0.05247768224281412, 0.05236071398895472, 0.052316698373635, 0.05238715673660425, 0.05241411424153281, 0.05236144902879104, 0.05232034738000581, 0.0522720069105585, 0.05224155958606747, 0.05221848719464475, 0.05217597216157522, 0.0521261688044149, 0.05210988964018739, 0.05208676212580265, 0.05201845676839524, 0.05200597996359706, 0.051974912309835, 0.05194179115695533, 0.05192538429611578, 0.05190738921578592, 0.05187308582463158, 0.05185700872386195, 0.05183857444671183, 0.05202088953239001, 0.05204681562803463, 0.05205124673486581, 0.05203495051807793, 0.05201166289913518, 0.05199616969685343, 0.05190371918703186, 0.05191561930145479, 0.05191607486011727, 0.05191342477846968, 0.05191661908271046, 0.05209026219804291, 0.05209365071041026, 0.05227254234191919, 0.05227990181774221, 0.05224305388816047, 0.05219014185243659, 0.05217457538530449, 0.05218563262788736, 0.05217896672661622, 0.05219060573611475, 0.05215496004883018, 0.0521583339994792, 0.05215054328853957, 0.05215294918631156, 0.05212792531911912, 0.05212399808263957, 0.0522794753909345, 0.05224952550901988, 0.05221786265721788, 0.05222306912245353, 0.05221544671972638, 0.05221954076449441, 0.05223874495348627, 0.05219985682546945, 0.05217269109166933, 0.05218646519341266, 0.05217542408926382, 0.05232787250872616, 0.05230790079573958, 0.0523111353423546, 0.05229034855750405, 0.05229414566482927, 0.05230138041911023, 0.05230070967205555, 0.05227468399702803, 0.05227932292339367, 0.0522920102574481, 0.05229089386387944, 0.05228275548829203, 0.05229600649370941, 0.05243268064880412, 0.05244406858724857, 0.05241185420948651, 0.05254204237658144, 0.0525411091196085, 0.05255020051759503, 0.05253442729098536, 0.05252976984799156, 0.05254532293460461, 0.05253607460873558, 0.05259255481363503, 0.05259166401649797, 0.05257295123286273, 0.05255792013369454, 0.0526755281919314, 0.05269157662412528, 0.05269909162640826, 0.05271072547707108, 0.05267756936543123, 0.05268483363009192, 0.05266396959731343, 0.05262387563656717, 0.05262777800701322]}}, \"_estimator_type\": \"regressor\"}"},"feature_names":[],"feature_types":[],"gradient_booster":{"model":{"gbtree_model_param":{"num_parallel_tree":"1","num_trees":"200","size_leaf_vector":"0"},"tree_info":[0,0,0,0,0,0,0,0,0,0,0,0,0,0,0,0,0,0,0,0,0,0,0,0,0,0,0,0,0,0,0,0,0,0,0,0,0,0,0,0,0,0,0,0,0,0,0,0,0,0,0,0,0,0,0,0,0,0,0,0,0,0,0,0,0,0,0,0,0,0,0,0,0,0,0,0,0,0,0,0,0,0,0,0,0,0,0,0,0,0,0,0,0,0,0,0,0,0,0,0,0,0,0,0,0,0,0,0,0,0,0,0,0,0,0,0,0,0,0,0,0,0,0,0,0,0,0,0,0,0,0,0,0,0,0,0,0,0,0,0,0,0,0,0,0,0,0,0,0,0,0,0,0,0,0,0,0,0,0,0,0,0,0,0,0,0,0,0,0,0,0,0,0,0,0,0,0,0,0,0,0,0,0,0,0,0,0,0,0,0,0,0,0,0,0,0,0,0,0,0],"trees":[{"base_weights":[-4.9871835E-1],"categories":[],"categories_nodes":[],"categories_segments":[],"categories_sizes":[],"default_left":[0],"id":0,"left_children":[-1],"loss_changes":[0E0],"parents":[2147483647],"right_children":[-1],"split_conditions":[-2.4935918E-2],"split_indices":[0],"split_type":[0],"sum_hessian":[1.178E3],"tree_param":{"num_deleted":"0","num_feature":"20","num_nodes":"1","size_leaf_vector":"0"}},{"base_weights":[-4.7380355E-1],"categories":[],"categories_nodes":[],"categories_segments":[],"categories_sizes":[],"default_left":[0],"id":1,"left_children":[-1],"loss_changes":[0E0],"parents":[2147483647],"right_children":[-1],"split_conditions":[-2.3690177E-2],"split_indices":[0],"split_type":[0],"sum_hessian":[1.178E3],"tree_param":{"num_deleted":"0","num_feature":"20","num_nodes":"1","size_leaf_vector":"0"}},{"base_weights":[-4.501335E-1],"categories":[],"categories_nodes":[],"categories_segments":[],"categories_sizes":[],"default_left":[0],"id":2,"left_children":[-1],"loss_changes":[0E0],"parents":[2147483647],"right_children":[-1],"split_conditions":[-2.2506675E-2],"split_indices":[0],"split_type":[0],"sum_hessian":[1.178E3],"tree_param":{"num_deleted":"0","num_feature":"20","num_nodes":"1","size_leaf_vector":"0"}},{"base_weights":[-4.276459E-1],"categories":[],"categories_nodes":[],"categories_segments":[],"categories_sizes":[],"default_left":[0],"id":3,"left_children":[-1],"loss_changes":[0E0],"parents":[2147483647],"right_children":[-1],"split_conditions":[-2.1382295E-2],"split_indices":[0],"split_type":[0],"sum_hessian":[1.178E3],"tree_param":{"num_deleted":"0","num_feature":"20","num_nodes":"1","size_leaf_vector":"0"}},{"base_weights":[-4.0628174E-1],"categories":[],"categories_nodes":[],"categories_segments":[],"categories_sizes":[],"default_left":[0],"id":4,"left_children":[-1],"loss_changes":[0E0],"parents":[2147483647],"right_children":[-1],"split_conditions":[-2.0314088E-2],"split_indices":[0],"split_type":[0],"sum_hessian":[1.178E3],"tree_param":{"num_deleted":"0","num_feature":"20","num_nodes":"1","size_leaf_vector":"0"}},{"base_weights":[-3.8598487E-1],"categories":[],"categories_nodes":[],"categories_segments":[],"categories_sizes":[],"default_left":[0],"id":5,"left_children":[-1],"loss_changes":[0E0],"parents":[2147483647],"right_children":[-1],"split_conditions":[-1.9299245E-2],"split_indices":[0],"split_type":[0],"sum_hessian":[1.178E3],"tree_param":{"num_deleted":"0","num_feature":"20","num_nodes":"1","size_leaf_vector":"0"}},{"base_weights":[-3.66702E-1],"categories":[],"categories_nodes":[],"categories_segments":[],"categories_sizes":[],"default_left":[0],"id":6,"left_children":[-1],"loss_changes":[0E0],"parents":[2147483647],"right_children":[-1],"split_conditions":[-1.83351E-2],"split_indices":[0],"split_type":[0],"sum_hessian":[1.178E3],"tree_param":{"num_deleted":"0","num_feature":"20","num_nodes":"1","size_leaf_vector":"0"}},{"base_weights":[-3.4838244E-1],"categories":[],"categories_nodes":[],"categories_segments":[],"categories_sizes":[],"default_left":[0],"id":7,"left_children":[-1],"loss_changes":[0E0],"parents":[2147483647],"right_children":[-1],"split_conditions":[-1.7419122E-2],"split_indices":[0],"split_type":[0],"sum_hessian":[1.178E3],"tree_param":{"num_deleted":"0","num_feature":"20","num_nodes":"1","size_leaf_vector":"0"}},{"base_weights":[-3.309781E-1],"categories":[],"categories_nodes":[],"categories_segments":[],"categories_sizes":[],"default_left":[0],"id":8,"left_children":[-1],"loss_changes":[0E0],"parents":[2147483647],"right_children":[-1],"split_conditions":[-1.6548906E-2],"split_indices":[0],"split_type":[0],"sum_hessian":[1.178E3],"tree_param":{"num_deleted":"0","num_feature":"20","num_nodes":"1","size_leaf_vector":"0"}},{"base_weights":[-3.1444323E-1],"categories":[],"categories_nodes":[],"categories_segments":[],"categories_sizes":[],"default_left":[0],"id":9,"left_children":[-1],"loss_changes":[0E0],"parents":[2147483647],"right_children":[-1],"split_conditions":[-1.5722161E-2],"split_indices":[0],"split_type":[0],"sum_hessian":[1.178E3],"tree_param":{"num_deleted":"0","num_feature":"20","num_nodes":"1","size_leaf_vector":"0"}},{"base_weights":[-2.987344E-1],"categories":[],"categories_nodes":[],"categories_segments":[],"categories_sizes":[],"default_left":[0],"id":10,"left_children":[-1],"loss_changes":[0E0],"parents":[2147483647],"right_children":[-1],"split_conditions":[-1.493672E-2],"split_indices":[0],"split_type":[0],"sum_hessian":[1.178E3],"tree_param":{"num_deleted":"0","num_feature":"20","num_nodes":"1","size_leaf_vector":"0"}},{"base_weights":[-2.8381035E-1,-8.080941E-2,-2.839141E-1],"categories":[],"categories_nodes":[],"categories_segments":[],"categories_sizes":[],"default_left":[1,0,0],"id":11,"left_children":[1,-1,-1],"loss_changes":[1.8844604E-3,0E0,0E0],"parents":[2147483647,0,0],"right_children":[2,-1,-1],"split_conditions":[1.7637084E-3,-4.0404703E-3,-1.4195705E-2],"split_indices":[19,0,0],"split_type":[0,0,0],"sum_hessian":[1.178E3,1E0,1.177E3],"tree_param":{"num_deleted":"0","num_feature":"20","num_nodes":"3","size_leaf_vector":"0"}},{"base_weights":[-2.696353E-1,-7.878917E-2,-2.6973042E-1],"categories":[],"categories_nodes":[],"categories_segments":[],"categories_sizes":[],"default_left":[1,0,0],"id":12,"left_children":[1,-1,-1],"loss_changes":[1.5258789E-4,0E0,0E0],"parents":[2147483647,0,0],"right_children":[2,-1,-1],"split_conditions":[1.7637084E-3,-3.9394586E-3,-1.3486521E-2],"split_indices":[19,0,0],"split_type":[0,0,0],"sum_hessian":[1.178E3,1E0,1.177E3],"tree_param":{"num_deleted":"0","num_feature":"20","num_nodes":"3","size_leaf_vector":"0"}},{"base_weights":[-2.561683E-1],"categories":[],"categories_nodes":[],"categories_segments":[],"categories_sizes":[],"default_left":[0],"id":13,"left_children":[-1],"loss_changes":[0E0],"parents":[2147483647],"right_children":[-1],"split_conditions":[-1.2808415E-2],"split_indices":[0],"split_type":[0],"sum_hessian":[1.178E3],"tree_param":{"num_deleted":"0","num_feature":"20","num_nodes":"1","size_leaf_vector":"0"}},{"base_weights":[-2.4337076E-1,-7.0415236E-2,-2.434578E-1],"categories":[],"categories_nodes":[],"categories_segments":[],"categories_sizes":[],"default_left":[1,0,0],"id":14,"left_children":[1,-1,-1],"loss_changes":[6.0272217E-4,0E0,0E0],"parents":[2147483647,0,0],"right_children":[2,-1,-1],"split_conditions":[1.7637084E-3,-3.5207618E-3,-1.217289E-2],"split_indices":[19,0,0],"split_type":[0,0,0],"sum_hessian":[1.178E3,1E0,1.177E3],"tree_param":{"num_deleted":"0","num_feature":"20","num_nodes":"3","size_leaf_vector":"0"}},{"base_weights":[-2.3121552E-1],"categories":[],"categories_nodes":[],"categories_segments":[],"categories_sizes":[],"default_left":[0],"id":15,"left_children":[-1],"loss_changes":[0E0],"parents":[2147483647],"right_children":[-1],"split_conditions":[-1.1560776E-2],"split_indices":[0],"split_type":[0],"sum_hessian":[1.178E3],"tree_param":{"num_deleted":"0","num_feature":"20","num_nodes":"1","size_leaf_vector":"0"}},{"base_weights":[-2.1966454E-1,-6.2874466E-2,-2.1974427E-1],"categories":[],"categories_nodes":[],"categories_segments":[],"categories_sizes":[],"default_left":[1,0,0],"id":16,"left_children":[1,-1,-1],"loss_changes":[9.2315674E-4,0E0,0E0],"parents":[2147483647,0,0],"right_children":[2,-1,-1],"split_conditions":[1.7637084E-3,-3.1437234E-3,-1.0987214E-2],"split_indices":[19,0,0],"split_type":[0,0,0],"sum_hessian":[1.178E3,1E0,1.177E3],"tree_param":{"num_deleted":"0","num_feature":"20","num_nodes":"3","size_leaf_vector":"0"}},{"base_weights":[-2.0869331E-1],"categories":[],"categories_nodes":[],"categories_segments":[],"categories_sizes":[],"default_left":[0],"id":17,"left_children":[-1],"loss_changes":[0E0],"parents":[2147483647],"right_children":[-1],"split_conditions":[-1.0434666E-2],"split_indices":[0],"split_type":[0],"sum_hessian":[1.178E3],"tree_param":{"num_deleted":"0","num_feature":"20","num_nodes":"1","size_leaf_vector":"0"}},{"base_weights":[-1.9826749E-1,-5.6085266E-2,-1.9834058E-1],"categories":[],"categories_nodes":[],"categories_segments":[],"categories_sizes":[],"default_left":[1,0,0],"id":18,"left_children":[1,-1,-1],"loss_changes":[1.1291504E-3,0E0,0E0],"parents":[2147483647,0,0],"right_children":[2,-1,-1],"split_conditions":[1.7637084E-3,-2.8042633E-3,-9.917029E-3],"split_indices":[19,0,0],"split_type":[0,0,0],"sum_hessian":[1.178E3,1E0,1.177E3],"tree_param":{"num_deleted":"0","num_feature":"20","num_nodes":"3","size_leaf_vector":"0"}},{"base_weights":[-1.883649E-1,-1.5288092E-1,-1.8906385E-1,-1.5580982E-2,-1.5738904E-1,-4.8543513E-2,-1.8914376E-1,-3.901704E-2,-1.6044115E-1,-1.8921202E-1,-5.5321064E-2,-1.6999309E-1,-8.632438E-2,-1.6758591E-3,-1.0706754E-1],"categories":[],"categories_nodes":[],"categories_segments":[],"categories_sizes":[],"default_left":[1,1,1,0,1,0,1,0,1,0,0,0,1,0,0],"id":19,"left_children":[1,3,5,-1,7,-1,9,-1,11,-1,-1,-1,13,-1,-1],"loss_changes":[3.3187866E-4,1.487875E-2,3.753662E-3,0E0,3.49468E-3,0E0,4.5776367E-5,0E0,3.7324429E-3,0E0,0E0,0E0,8.599959E-3,0E0,0E0],"parents":[2147483647,0,0,1,1,2,2,4,4,6,6,8,8,12,12],"right_children":[2,4,6,-1,8,-1,10,-1,12,-1,-1,-1,14,-1,-1],"split_conditions":[-9.8904066E-2,1.272065E3,-2.7956507E-1,-7.790491E-4,3.5617628E5,-2.4271756E-3,3.950115E3,-1.950852E-3,3.4354088E1,-9.460601E-3,-2.7660532E-3,-8.499655E-3,2.241305E3,-8.3792955E-5,-5.353377E-3],"split_indices":[11,0,17,0,4,0,2,0,9,0,0,0,0,0,0],"split_type":[0,0,0,0,0,0,0,0,0,0,0,0,0,0,0],"sum_hessian":[1.178E3,2.7E1,1.151E3,1E0,2.6E1,1E0,1.15E3,1E0,2.5E1,1.149E3,1E0,2.1E1,4E0,1E0,3E0],"tree_param":{"num_deleted":"0","num_feature":"20","num_nodes":"15","size_leaf_vector":"0"}},{"base_weights":[-1.7897323E-1,-5.0433308E-2,-1.7903952E-1,-1.7915271E-1,-7.499163E-2,-5.238094E-2,-1.7921603E-1],"categories":[],"categories_nodes":[],"categories_segments":[],"categories_sizes":[],"default_left":[1,0,1,1,0,0,0],"id":20,"left_children":[1,-1,3,5,-1,-1,-1],"loss_changes":[1.0261536E-3,0E0,4.386902E-4,4.9591064E-5,0E0,0E0,0E0],"parents":[2147483647,0,0,2,2,3,3],"right_children":[2,-1,4,6,-1,-1,-1],"split_conditions":[1.7637084E-3,-2.5216655E-3,3.8390269E3,1.3588747E-1,-3.7495815E-3,-2.6190472E-3,-8.960801E-3],"split_indices":[19,0,7,15,0,0,0],"split_type":[0,0,0,0,0,0,0],"sum_hessian":[1.178E3,1E0,1.177E3,1.175E3,2E0,1E0,1.174E3],"tree_param":{"num_deleted":"0","num_feature":"20","num_nodes":"7","size_leaf_vector":"0"}},{"base_weights":[-1.700397E-1,-1.3742132E-1,-1.706849E-1,-1.0711059E-2,-1.4171758E-1,-4.2849526E-2,-1.7075874E-1,-3.356122E-2,-1.4458664E-1,-1.7082122E-1,-4.9457636E-2,-1.5361899E-1,-7.592695E-2,2.8464347E-3,-9.633191E-2],"categories":[],"categories_nodes":[],"categories_segments":[],"categories_sizes":[],"default_left":[1,1,1,0,1,0,1,0,1,0,0,0,1,0,0],"id":21,"left_children":[1,3,5,-1,7,-1,9,-1,11,-1,-1,-1,13,-1,-1],"loss_changes":[1.3542175E-3,1.3724744E-2,3.5591125E-3,0E0,3.525734E-3,0E0,2.746582E-4,0E0,4.460275E-3,0E0,0E0,0E0,8.311041E-3,0E0,0E0],"parents":[2147483647,0,0,1,1,2,2,4,4,6,6,8,8,12,12],"right_children":[2,4,6,-1,8,-1,10,-1,12,-1,-1,-1,14,-1,-1],"split_conditions":[-9.8904066E-2,1.272065E3,-2.7956507E-1,-5.35553E-4,3.5617628E5,-2.1424764E-3,3.950115E3,-1.678061E-3,3.4354088E1,-8.541062E-3,-2.472882E-3,-7.6809498E-3,2.241305E3,1.4232173E-4,-4.8165955E-3],"split_indices":[11,0,17,0,4,0,2,0,9,0,0,0,0,0,0],"split_type":[0,0,0,0,0,0,0,0,0,0,0,0,0,0,0],"sum_hessian":[1.178E3,2.7E1,1.151E3,1E0,2.6E1,1E0,1.15E3,1E0,2.5E1,1.149E3,1E0,2.1E1,4E0,1E0,3E0],"tree_param":{"num_deleted":"0","num_feature":"20","num_nodes":"15","size_leaf_vector":"0"}},{"base_weights":[-1.6156124E-1,-4.5332E-2,-1.6162142E-1,-1.6172588E-1,-6.679787E-2,-4.680089E-2,-1.6178386E-1],"categories":[],"categories_nodes":[],"categories_segments":[],"categories_sizes":[],"default_left":[1,0,1,1,0,0,0],"id":22,"left_children":[1,-1,3,5,-1,-1,-1],"loss_changes":[9.212494E-4,0E0,8.659363E-4,2.6512146E-4,0E0,0E0,0E0],"parents":[2147483647,0,0,2,2,3,3],"right_children":[2,-1,4,6,-1,-1,-1],"split_conditions":[1.7637084E-3,-2.2666E-3,3.8390269E3,1.3588747E-1,-3.3398934E-3,-2.3400446E-3,-8.089193E-3],"split_indices":[19,0,7,15,0,0,0],"split_type":[0,0,0,0,0,0,0],"sum_hessian":[1.178E3,1E0,1.177E3,1.175E3,2E0,1E0,1.174E3],"tree_param":{"num_deleted":"0","num_feature":"20","num_nodes":"7","size_leaf_vector":"0"}},{"base_weights":[-1.5349677E-1,-1.2347822E-1,-1.5409315E-1,-6.3986853E-3,-1.2757751E-1,-3.773369E-2,-1.5416145E-1,-1.3528793E-1,-6.65941E-2,-1.5421867E-1,-4.4176597E-2,-2.8677586E-2,-1.3883032E-1,6.819874E-3,-8.665256E-2,-9.552521E-2,-1.5444301E-1,-1.5454386E-1,-6.457128E-2],"categories":[],"categories_nodes":[],"categories_segments":[],"categories_sizes":[],"default_left":[1,1,1,0,1,0,1,1,1,1,0,0,0,0,0,0,1,0,0],"id":23,"left_children":[1,3,5,-1,7,-1,9,11,13,15,-1,-1,-1,-1,-1,-1,17,-1,-1],"loss_changes":[2.07901E-3,1.2622088E-2,3.3397675E-3,0E0,3.6862195E-3,0E0,4.2915344E-4,4.704803E-3,7.953817E-3,3.8909912E-4,0E0,0E0,0E0,0E0,0E0,0E0,3.8909912E-4,0E0,0E0],"parents":[2147483647,0,0,1,1,2,2,4,4,6,6,7,7,8,8,9,9,16,16],"right_children":[2,4,6,-1,8,-1,10,12,14,16,-1,-1,-1,-1,-1,-1,18,-1,-1],"split_conditions":[-9.8904066E-2,1.272065E3,-2.7956507E-1,-3.1993428E-4,3.4354088E1,-1.8866844E-3,3.950115E3,3.5617628E5,2.241305E3,-2.4926091E2,-2.2088299E-3,-1.4338794E-3,-6.941516E-3,3.4099372E-4,-4.332628E-3,-4.776261E-3,3.8390269E3,-7.727193E-3,-3.2285638E-3],"split_indices":[11,0,17,0,9,0,2,4,0,10,0,0,0,0,0,0,7,0,0],"split_type":[0,0,0,0,0,0,0,0,0,0,0,0,0,0,0,0,0,0,0],"sum_hessian":[1.178E3,2.7E1,1.151E3,1E0,2.6E1,1E0,1.15E3,2.2E1,4E0,1.149E3,1E0,1E0,2.1E1,1E0,3E0,6E0,1.143E3,1.141E3,2E0],"tree_param":{"num_deleted":"0","num_feature":"20","num_nodes":"19","size_leaf_vector":"0"}},{"base_weights":[-1.4584951E-1,-1.1775742E-1,-1.464057E-1,-6.2387213E-3,-1.2165668E-1,-3.679035E-2,-1.4646897E-1,-1.2888768E-1,-6.406272E-2,-4.176727E-2,-1.465237E-1,-2.7960647E-2,-1.3220434E-1,6.649375E-3,-8.3403096E-2,-1.4657778E-1,-4.2188875E-2],"categories":[],"categories_nodes":[],"categories_segments":[],"categories_sizes":[],"default_left":[1,1,1,0,1,0,1,1,1,0,1,0,0,0,0,0,0],"id":24,"left_children":[1,3,5,-1,7,-1,9,11,13,-1,15,-1,-1,-1,-1,-1,-1],"loss_changes":[1.1806488E-3,1.1416525E-2,2.5997162E-3,0E0,2.9875934E-3,0E0,4.749298E-4,4.0024817E-3,7.3925704E-3,0E0,3.0517578E-4,0E0,0E0,0E0,0E0,0E0,0E0],"parents":[2147483647,0,0,1,1,2,2,4,4,6,6,7,7,8,8,10,10],"right_children":[2,4,6,-1,8,-1,10,12,14,-1,16,-1,-1,-1,-1,-1,-1],"split_conditions":[-9.8904066E-2,1.272065E3,-2.7956507E-1,-3.1193608E-4,3.4354088E1,-1.8395175E-3,1.3588747E-1,3.5617628E5,2.241305E3,-2.0883635E-3,3.9416885E3,-1.3980324E-3,-6.610217E-3,3.3246874E-4,-4.1701547E-3,-7.328889E-3,-2.1094438E-3],"split_indices":[11,0,17,0,9,0,15,4,0,0,5,0,0,0,0,0,0],"split_type":[0,0,0,0,0,0,0,0,0,0,0,0,0,0,0,0,0],"sum_hessian":[1.178E3,2.7E1,1.151E3,1E0,2.6E1,1E0,1.15E3,2.2E1,4E0,1E0,1.149E3,1E0,2.1E1,1E0,3E0,1.148E3,1E0],"tree_param":{"num_deleted":"0","num_feature":"20","num_nodes":"17","size_leaf_vector":"0"}},{"base_weights":[-1.3857868E-1,-3.7422836E-2,-1.3863279E-1,-8.514938E-2,-1.3883394E-1,-9.092553E-2,-2.5246225E-2,-1.3889123E-1,-3.587059E-2,-1.3904406E-1,-7.544532E-2,-4.0723085E-2,-1.3909346E-1],"categories":[],"categories_nodes":[],"categories_segments":[],"categories_sizes":[],"default_left":[1,0,1,1,1,0,0,1,0,1,0,0,0],"id":25,"left_children":[1,-1,3,5,7,-1,-1,9,-1,11,-1,-1,-1],"loss_changes":[1.2645721E-3,0E0,8.5258484E-4,1.2654066E-4,1.9302368E-3,0E0,0E0,8.6402893E-4,0E0,1.9073486E-6,0E0,0E0,0E0],"parents":[2147483647,0,0,2,2,3,3,4,4,7,7,9,9],"right_children":[2,-1,4,6,8,-1,-1,10,-1,12,-1,-1,-1],"split_conditions":[1.7637084E-3,-1.8711418E-3,-2.4926091E2,2.118005E3,8.711703E-1,-4.5462768E-3,-1.2623112E-3,3.877005E3,-1.7935295E-3,1.3588747E-1,-3.772266E-3,-2.0361543E-3,-6.954673E-3],"split_indices":[19,0,10,0,18,0,0,2,0,15,0,0,0],"split_type":[0,0,0,0,0,0,0,0,0,0,0,0,0],"sum_hessian":[1.178E3,1E0,1.177E3,6E0,1.171E3,5E0,1E0,1.17E3,1E0,1.166E3,4E0,1E0,1.165E3],"tree_param":{"num_deleted":"0","num_feature":"20","num_nodes":"13","size_leaf_vector":"0"}},{"base_weights":[-1.3166861E-1,-1.0577902E-1,-1.3218358E-1,-2.6054159E-3,-1.09503776E-1,-3.4973823E-2,-1.3223766E-1,-1.1636021E-1,-5.606339E-2,-1.311962E-1,-1.5133785E-1,-2.3784298E-2,-1.1948711E-1,9.960473E-3,-7.505947E-2,-5.8386542E-2,-1.3134223E-1,-1.5944238E-1,-1.0589856E-1,-5.2240923E-2,-1.3143909E-1,-1.3153158E-1,-5.395734E-2,-1.3158336E-1,-3.7521612E-2],"categories":[],"categories_nodes":[],"categories_segments":[],"categories_sizes":[],"default_left":[1,1,1,0,1,0,1,1,1,1,1,0,0,0,0,0,1,0,0,0,1,1,0,0,0],"id":26,"left_children":[1,3,5,-1,7,-1,9,11,13,15,17,-1,-1,-1,-1,-1,19,-1,-1,-1,21,23,-1,-1,-1],"loss_changes":[1.7356873E-3,1.047498E-2,1.4305115E-3,0E0,3.36954E-3,0E0,3.0403137E-3,3.8160086E-3,7.0186015E-3,4.016876E-3,2.6333332E-3,0E0,0E0,0E0,0E0,0E0,1.531601E-3,0E0,0E0,0E0,7.4386597E-4,3.7574768E-4,0E0,0E0,0E0],"parents":[2147483647,0,0,1,1,2,2,4,4,6,6,7,7,8,8,9,9,10,10,16,16,20,20,21,21],"right_children":[2,4,6,-1,8,-1,10,12,14,16,18,-1,-1,-1,-1,-1,20,-1,-1,-1,22,24,-1,-1,-1],"split_conditions":[-9.8904066E-2,1.272065E3,-2.7956507E-1,-1.302708E-4,3.4354088E1,-1.7486912E-3,1.216223E6,3.5617628E5,2.241305E3,-2.4926091E2,1.2323824E0,-1.189215E-3,-5.9743556E-3,4.9802364E-4,-3.7529736E-3,-2.9193272E-3,1.4446907E1,-7.972119E-3,-5.294928E-3,-2.6120462E-3,3.8390269E3,3.950115E3,-2.697867E-3,-6.579168E-3,-1.8760806E-3],"split_indices":[11,0,17,0,9,0,4,4,0,10,15,0,0,0,0,0,9,0,0,0,7,2,0,0,0],"split_type":[0,0,0,0,0,0,0,0,0,0,0,0,0,0,0,0,0,0,0,0,0,0,0,0,0],"sum_hessian":[1.178E3,2.7E1,1.151E3,1E0,2.6E1,1E0,1.15E3,2.2E1,4E0,1.098E3,5.2E1,1E0,2.1E1,1E0,3E0,3E0,1.095E3,4.2E1,1E1,2E0,1.093E3,1.091E3,2E0,1.09E3,1E0],"tree_param":{"num_deleted":"0","num_feature":"20","num_nodes":"25","size_leaf_vector":"0"}},{"base_weights":[-1.2512103E-1,-3.350009E-2,-1.2517036E-1,-1.2521832E-1,-3.4367234E-2,-1.2529828E-1,-5.2158758E-2,-7.74364E-2,-1.2547769E-1,-8.2624E-2,-2.3155406E-2,-1.2552673E-1,-3.4099475E-2,-1.5258898E-1,-1.24898225E-1,-6.1868228E-2,-1.2506467E-1],"categories":[],"categories_nodes":[],"categories_segments":[],"categories_sizes":[],"default_left":[1,0,1,1,0,1,0,1,1,0,0,1,0,0,1,0,0],"id":27,"left_children":[1,-1,3,5,-1,7,-1,9,11,-1,-1,13,-1,-1,15,-1,-1],"loss_changes":[1.1348724E-3,0E0,8.2588196E-4,3.414154E-4,0E0,3.7384033E-4,0E0,5.792454E-5,9.5558167E-4,0E0,0E0,8.087158E-4,0E0,0E0,4.2972565E-3,0E0,0E0],"parents":[2147483647,0,0,2,2,3,3,5,5,7,7,8,8,11,11,14,14],"right_children":[2,-1,4,6,-1,8,-1,10,12,-1,-1,14,-1,-1,16,-1,-1],"split_conditions":[1.7637084E-3,-1.6750045E-3,3.9416885E3,3.8390269E3,-1.7183617E-3,-2.4926091E2,-2.607938E-3,2.118005E3,8.711703E-1,-4.1312003E-3,-1.1577703E-3,1.200845E3,-1.7049738E-3,-7.629449E-3,1.4446907E1,-3.0934114E-3,-6.2532336E-3],"split_indices":[19,0,5,7,0,10,0,0,18,0,0,1,0,0,9,0,0],"split_type":[0,0,0,0,0,0,0,0,0,0,0,0,0,0,0,0,0],"sum_hessian":[1.178E3,1E0,1.177E3,1.176E3,1E0,1.174E3,2E0,6E0,1.168E3,5E0,1E0,1.167E3,1E0,2.1E1,1.146E3,4E0,1.142E3],"tree_param":{"num_deleted":"0","num_feature":"20","num_nodes":"17","size_leaf_vector":"0"}},{"base_weights":[-1.188904E-1,-9.5226124E-2,-1.1936236E-1,-9.935796E-4,-9.8679416E-2,-1.1837291E-1,-1.3568617E-1,-1.0520875E-1,-4.890863E-2,-5.3842E-2,-1.18501E-1,-1.4273466E-1,-9.618504E-2,-2.0063076E-2,-1.08167045E-1,1.2838073E-2,-6.7554824E-2,-6.346029E-2,-1.1864516E-1,-1.4960553E-1,-8.9679606E-2,-9.98225E-2,-2.8086513E-2,-4.8437294E-2,-1.18729934E-1,-3.3246987E-2,-1.5168332E-1,-1.4920048E-2,-5.773589E-2,-1.1897496E-1,-8.0492005E-2,-6.417407E-2,-1.5460028E-1,-3.3288814E-2,-1.190237E-1],"categories":[],"categories_nodes":[],"categories_segments":[],"categories_sizes":[],"default_left":[1,1,1,0,1,1,1,1,1,0,1,1,1,0,0,0,0,0,1,1,0,0,0,1,1,0,1,0,0,1,0,0,0,0,0],"id":28,"left_children":[1,3,5,-1,7,9,11,13,15,-1,17,19,21,-1,-1,-1,-1,-1,23,25,-1,-1,-1,27,29,-1,31,-1,-1,33,-1,-1,-1,-1,-1],"loss_changes":[1.8024445E-3,9.013504E-3,2.5463104E-3,0E0,3.6285818E-3,2.661705E-3,2.6980639E-3,3.6232173E-3,6.6239797E-3,0E0,1.1281967E-3,4.0810704E-3,1.6880035E-4,0E0,0E0,0E0,0E0,0E0,7.171631E-4,4.869461E-3,0E0,0E0,0E0,7.3567964E-5,5.893707E-4,0E0,2.8914213E-4,0E0,0E0,5.311966E-4,0E0,0E0,0E0,0E0,0E0],"parents":[2147483647,0,0,1,1,2,2,4,4,5,5,6,6,7,7,8,8,10,10,11,11,12,12,18,18,19,19,23,23,24,24,26,26,29,29],"right_children":[2,4,6,-1,8,10,12,14,16,-1,18,20,22,-1,-1,-1,-1,-1,24,26,-1,-1,-1,28,30,-1,32,-1,-1,34,-1,-1,-1,-1,-1],"split_conditions":[-9.8904066E-2,1.272065E3,1.1959552E6,-4.9678983E-5,3.4354088E1,-2.4926091E2,1.2323824E0,3.5617628E5,2.241305E3,-2.6921001E-3,1.1603623E3,2.18602E3,1.5301466E3,-1.0031539E-3,-5.4083522E-3,6.4190367E-4,-3.3777412E-3,-3.1730146E-3,1.4446907E1,-2.7956507E-1,-4.4839806E-3,-4.991125E-3,-1.4043257E-3,1.6103E3,4.008575E3,-1.6623493E-3,1.4465864E-2,-7.460024E-4,-2.8867945E-3,1.3588747E-1,-4.0246E-3,-3.2087036E-3,-7.730014E-3,-1.6644407E-3,-5.9511852E-3],"split_indices":[11,0,4,0,9,10,15,4,0,0,6,2,6,0,0,0,0,0,9,17,0,0,0,0,1,0,18,0,0,15,0,0,0,0,0],"split_type":[0,0,0,0,0,0,0,0,0,0,0,0,0,0,0,0,0,0,0,0,0,0,0,0,0,0,0,0,0,0,0,0,0,0,0],"sum_hessian":[1.178E3,2.7E1,1.151E3,1E0,2.6E1,1.093E3,5.8E1,2.2E1,4E0,3E0,1.09E3,4.7E1,1.1E1,1E0,2.1E1,1E0,3E0,4E0,1.086E3,4E1,7E0,1E1,1E0,2E0,1.084E3,1E0,3.9E1,1E0,1E0,1.075E3,9E0,2E0,3.7E1,1E0,1.074E3],"tree_param":{"num_deleted":"0","num_feature":"20","num_nodes":"35","size_leaf_vector":"0"}},{"base_weights":[-1.1299152E-1,-9.079328E-2,-1.1343297E-1,-9.687394E-4,-9.408424E-2,-1.1256708E-1,-1.3139568E-1,-1.00227065E-1,-4.701037E-2,-5.1822923E-2,-1.1268531E-1,-1.3988924E-1,-9.0881385E-2,-1.9561496E-2,-1.0300452E-1,1.2517124E-2,-6.502152E-2,-3.0303173E-2,-1.1273257E-1,-3.2415815E-2,-1.4197417E-1,-2.9958412E-2,-1.0505632E-1,-1.1277784E-1,-3.1444658E-2,-1.4976938E-1,-8.828414E-2,-1.128231E-1,-3.1495757E-2,-2.4961784E-2,-9.467757E-2,-3.245659E-2,-1.1286669E-1],"categories":[],"categories_nodes":[],"categories_segments":[],"categories_sizes":[],"default_left":[1,1,1,0,1,1,1,1,1,0,1,1,0,0,1,0,0,0,1,0,1,0,0,1,0,0,1,1,0,0,0,0,0],"id":29,"left_children":[1,3,5,-1,7,9,11,13,15,-1,17,19,-1,-1,21,-1,-1,-1,23,-1,25,-1,-1,27,-1,-1,29,31,-1,-1,-1,-1,-1],"loss_changes":[1.2550354E-3,8.185893E-3,3.127098E-3,0E0,3.0958056E-3,2.1028519E-3,3.4598708E-3,3.13811E-3,6.174677E-3,0E0,8.792877E-4,3.6885142E-3,0E0,0E0,1.4995039E-4,0E0,0E0,0E0,5.083084E-4,0E0,1.844585E-3,0E0,0E0,4.97818E-4,0E0,0E0,4.7060475E-4,1.8978119E-4,0E0,0E0,0E0,0E0,0E0],"parents":[2147483647,0,0,1,1,2,2,4,4,5,5,6,6,7,7,8,8,10,10,11,11,14,14,18,18,20,20,23,23,26,26,27,27],"right_children":[2,4,6,-1,8,10,12,14,16,-1,18,20,-1,-1,22,-1,-1,-1,24,-1,26,-1,-1,28,-1,-1,30,32,-1,-1,-1,-1,-1],"split_conditions":[-9.8904066E-2,1.272065E3,1.259586E6,-4.843697E-5,3.4354088E1,-2.4926091E2,1.2323824E0,3.5617628E5,2.241305E3,-2.5911462E-3,1.1369192E3,-2.7956507E-1,-4.5440695E-3,-9.780749E-4,2.3260438E-3,6.258562E-4,-3.2510762E-3,-1.5151587E-3,3.950115E3,-1.6207908E-3,2.18602E3,-1.4979206E-3,-5.2528162E-3,3.9416885E3,-1.5722329E-3,-7.488469E-3,2.37126E3,1.3588747E-1,-1.5747879E-3,-1.2480892E-3,-4.7338787E-3,-1.6228296E-3,-5.6433347E-3],"split_indices":[11,0,4,0,9,10,15,4,0,0,6,17,0,0,19,0,0,0,2,0,2,0,0,5,0,0,0,15,0,0,0,0,0],"split_type":[0,0,0,0,0,0,0,0,0,0,0,0,0,0,0,0,0,0,0,0,0,0,0,0,0,0,0,0,0,0,0,0,0],"sum_hessian":[1.178E3,2.7E1,1.151E3,1E0,2.6E1,1.105E3,4.6E1,2.2E1,4E0,3E0,1.102E3,3.6E1,1E1,1E0,2.1E1,1E0,3E0,1E0,1.101E3,1E0,3.5E1,1E0,2E1,1.1E3,1E0,2.9E1,6E0,1.099E3,1E0,1E0,5E0,1E0,1.098E3],"tree_param":{"num_deleted":"0","num_feature":"20","num_nodes":"33","size_leaf_vector":"0"}},{"base_weights":[-1.0737973E-1,-1.074998E-1,-5.7687394E-2,-8.662514E-2,-1.079153E-1,-9.4451755E-4,-8.976351E-2,-1.0707832E-1,-1.2524368E-1,-9.555175E-2,-4.5184895E-2,-4.9879562E-2,-1.07189074E-1,-1.3330264E-1,-8.675041E-2,-1.9072462E-2,-9.816115E-2,1.2204193E-2,-6.2583216E-2,-2.9545594E-2,-1.07232876E-1,-3.1605422E-2,-1.3524964E-1,-9.040299E-2,-2.5112312E-2,-1.07274644E-1,-3.0708367E-2,-1.4354187E-1,-8.8284135E-2,-2.4337739E-2,-9.3942516E-2],"categories":[],"categories_nodes":[],"categories_segments":[],"categories_sizes":[],"default_left":[1,1,0,1,1,0,1,1,1,1,1,0,1,1,1,0,0,0,0,0,1,0,1,0,0,0,0,0,1,0,0],"id":30,"left_children":[1,3,-1,5,7,-1,9,11,13,15,17,-1,19,21,23,-1,-1,-1,-1,-1,25,-1,27,-1,-1,-1,-1,-1,29,-1,-1],"loss_changes":[8.31604E-4,8.4400177E-4,0E0,7.444367E-3,3.238678E-3,0E0,2.649352E-3,1.6345978E-3,3.0161142E-3,2.7178228E-3,5.756147E-3,0E0,5.6934357E-4,3.0515194E-3,2.0629168E-4,0E0,0E0,0E0,0E0,0E0,2.155304E-4,0E0,1.3477206E-3,0E0,0E0,0E0,0E0,0E0,6.083138E-4,0E0,0E0],"parents":[2147483647,0,0,1,1,3,3,4,4,6,6,7,7,8,8,9,9,10,10,12,12,13,13,14,14,20,20,22,22,28,28],"right_children":[2,4,-1,6,8,-1,10,12,14,16,18,-1,20,22,24,-1,-1,-1,-1,-1,26,-1,28,-1,-1,-1,-1,-1,30,-1,-1],"split_conditions":[3.877005E3,-9.8904066E-2,-2.8843698E-3,1.272065E3,1.259586E6,-4.722588E-5,3.4354088E1,-2.4926091E2,1.2323824E0,3.5617628E5,2.241305E3,-2.4939782E-3,1.1369192E3,-2.7956507E-1,1.5301466E3,-9.536231E-4,-4.908058E-3,6.1020965E-4,-3.1291607E-3,-1.4772797E-3,3.9325293E3,-1.5802712E-3,2.148525E3,-4.5201494E-3,-1.2556156E-3,-5.363732E-3,-1.5354183E-3,-7.1770935E-3,2.495415E3,-1.2168869E-3,-4.697126E-3],"split_indices":[2,11,0,0,4,0,9,10,15,4,0,0,6,17,6,0,0,0,0,0,5,0,2,0,0,0,0,0,1,0,0],"split_type":[0,0,0,0,0,0,0,0,0,0,0,0,0,0,0,0,0,0,0,0,0,0,0,0,0,0,0,0,0,0,0],"sum_hessian":[1.178E3,1.174E3,4E0,2.7E1,1.147E3,1E0,2.6E1,1.101E3,4.6E1,2.2E1,4E0,3E0,1.098E3,3.6E1,1E1,1E0,2.1E1,1E0,3E0,1E0,1.097E3,1E0,3.5E1,9E0,1E0,1.096E3,1E0,2.8E1,7E0,1E0,6E0],"tree_param":{"num_deleted":"0","num_feature":"20","num_nodes":"31","size_leaf_vector":"0"}},{"base_weights":[-1.020469E-1,-1.2766539E-1,-1.0158468E-1,-1.0172802E-1,-4.8040956E-2,-5.11212E-2,-1.01859026E-1,-7.8559056E-2,-6.6429474E-3,-4.800908E-2,-1.0195758E-1,-9.2090666E-4,-9.043515E-3,-2.6755422E-2,-1.0199968E-1,-1.0206959E-1,-4.1225474E-2,-1.0210865E-1,-2.8609606E-2],"categories":[],"categories_nodes":[],"categories_segments":[],"categories_sizes":[],"default_left":[1,0,1,1,0,1,1,0,1,0,1,0,0,0,1,1,0,0,0],"id":31,"left_children":[1,-1,3,5,-1,7,9,-1,11,-1,13,-1,-1,-1,15,17,-1,-1,-1],"loss_changes":[9.918213E-4,0E0,4.0388107E-3,2.4766922E-3,0E0,5.580075E-3,1.2350082E-3,0E0,3.2880198E-5,0E0,9.174347E-4,0E0,0E0,0E0,6.8187714E-4,3.7670135E-4,0E0,0E0,0E0],"parents":[2147483647,0,0,2,2,3,3,5,5,6,6,8,8,10,10,14,14,15,15],"right_children":[2,-1,4,6,-1,8,10,-1,12,-1,14,-1,-1,-1,16,18,-1,-1,-1],"split_conditions":[1.128385E3,-6.3832696E-3,1.241074E1,1.4446907E1,-2.4020479E-3,1.0658218E1,-2.4926091E2,-3.927953E-3,1.3811951E3,-2.400454E-3,1.7637084E-3,-4.6045334E-5,-4.5217574E-4,-1.3377712E-3,3.8390269E3,5.2731752E0,-2.0612737E-3,-5.1054326E-3,-1.4304803E-3],"split_indices":[0,0,12,9,0,9,10,0,0,0,19,0,0,0,7,13,0,0,0],"split_type":[0,0,0,0,0,0,0,0,0,0,0,0,0,0,0,0,0,0,0],"sum_hessian":[1.178E3,1.6E1,1.162E3,1.158E3,4E0,4E0,1.154E3,2E0,2E0,3E0,1.151E3,1E0,1E0,1E0,1.15E3,1.148E3,2E0,1.147E3,1E0],"tree_param":{"num_deleted":"0","num_feature":"20","num_nodes":"19","size_leaf_vector":"0"}},{"base_weights":[-9.696622E-2,-1.1510072E-1,-9.637626E-2,-1.0008553E-1,-9.307858E-2,-3.458856E-2,-1.0026916E-1,-6.358631E-2,-9.3852215E-2,-2.3217658E-2,-1.003719E-1,-8.9788437E-4,-6.701911E-2,-2.5621125E-2,-9.403633E-2,-1.0058502E-1,-4.7518965E-2,-7.1962796E-2,-1.8313104E-2,-9.309901E-2,-1.2081475E-1,-2.6410595E-2,-1.0067688E-1,-7.955661E-2,-3.9345093E-2,-5.4524466E-2,-9.3404055E-2,-5.0377563E-2,-1.3231003E-1,1.4451809E-2,-5.6407273E-2,-4.620874E-2,-9.356935E-2,-1.4459659E-1,-6.54445E-2],"categories":[],"categories_nodes":[],"categories_segments":[],"categories_sizes":[],"default_left":[1,0,1,1,1,0,1,1,1,0,1,0,1,0,1,1,0,1,0,1,1,0,0,0,1,0,1,0,1,0,0,0,0,0,0],"id":32,"left_children":[1,-1,3,5,7,-1,9,11,13,-1,15,-1,17,-1,19,21,-1,23,-1,25,27,-1,-1,-1,29,-1,31,-1,33,-1,-1,-1,-1,-1,-1],"loss_changes":[1.5211105E-3,0E0,4.7254562E-3,2.8700829E-3,8.2240105E-3,0E0,1.8253326E-3,4.0285736E-3,5.1789284E-3,0E0,1.1229515E-3,0E0,3.016308E-3,0E0,3.862381E-3,8.9120865E-4,0E0,8.3292276E-4,0E0,1.8024445E-3,7.09939E-3,0E0,0E0,0E0,5.404649E-3,0E0,2.0122528E-4,0E0,2.038598E-3,0E0,0E0,0E0,0E0,0E0,0E0],"parents":[2147483647,0,0,2,2,3,3,4,4,6,6,7,7,8,8,10,10,12,12,14,14,15,15,17,17,19,19,20,20,24,24,26,26,28,28],"right_children":[2,-1,4,6,8,-1,10,12,14,-1,16,-1,18,-1,20,22,-1,24,-1,26,28,-1,-1,-1,30,-1,32,-1,34,-1,-1,-1,-1,-1,-1],"split_conditions":[1.2152151E3,-5.755036E-3,5.6283224E-1,2.9430568E-1,-9.8904066E-2,-1.7294281E-3,-7.732845E-2,1.272065E3,1.4446907E1,-1.1608829E-3,3.942585E3,-4.489422E-5,2.8555E3,-1.2810563E-3,1.4079946E6,1.3588747E-1,-2.3759482E-3,3.414775E1,-9.156552E-4,1.2121688E3,7.166765E0,-1.3205297E-3,-5.033844E-3,-3.9778305E-3,2.241305E3,-2.7262233E-3,-2.4926091E2,-2.518878E-3,1.2565782E0,7.225905E-4,-2.8203637E-3,-2.310437E-3,-4.6784678E-3,-7.2298297E-3,-3.272225E-3],"split_indices":[1,0,15,13,11,0,16,0,9,0,0,0,2,0,4,15,0,9,0,6,12,0,0,0,0,0,10,0,15,0,0,0,0,0,0],"split_type":[0,0,0,0,0,0,0,0,0,0,0,0,0,0,0,0,0,0,0,0,0,0,0,0,0,0,0,0,0,0,0,0,0,0,0],"sum_hessian":[1.178E3,3.1E1,1.147E3,5.26E2,6.21E2,2E0,5.24E2,1.8E1,6.03E2,1E0,5.23E2,1E0,1.7E1,2E0,6.01E2,5.2E2,3E0,1.5E1,2E0,5.85E2,1.6E1,1E0,5.19E2,1.1E1,4E0,6E0,5.79E2,3E0,1.3E1,1E0,3E0,3E0,5.76E2,1E1,3E0],"tree_param":{"num_deleted":"0","num_feature":"20","num_nodes":"35","size_leaf_vector":"0"}},{"base_weights":[-9.215899E-2,-1.1638714E-1,-9.1725595E-2,-9.1857344E-2,-4.2840715E-2,-9.509973E-2,-8.897409E-2,-3.343561E-2,-9.5269665E-2,-6.0777318E-2,-8.9705296E-2,-2.2637216E-2,-9.536435E-2,-8.7543577E-4,-6.405656E-2,-8.872728E-2,-1.18659094E-1,-9.5607616E-2,-5.079704E-2,-6.8744384E-2,-1.7702667E-2,-8.1769E-3,-8.884912E-2,-4.8488405E-2,-1.3023221E-1,-2.5750332E-2,-9.569195E-2,-7.591026E-2,-3.7797395E-2,-9.506191E-2,-8.619666E-2],"categories":[],"categories_nodes":[],"categories_segments":[],"categories_sizes":[],"default_left":[1,0,1,1,0,1,1,0,1,1,1,0,1,0,1,1,1,1,0,1,0,0,1,0,0,0,0,0,0,0,0],"id":33,"left_children":[1,-1,3,5,-1,7,9,-1,11,13,15,-1,17,-1,19,21,23,25,-1,27,-1,-1,29,-1,-1,-1,-1,-1,-1,-1,-1],"loss_changes":[1.704216E-3,0E0,3.5552979E-3,2.374649E-3,0E0,2.3784637E-3,7.516384E-3,0E0,1.4791489E-3,3.6761537E-3,6.773472E-3,0E0,8.678436E-4,0E0,2.6944205E-3,5.113125E-3,7.4908286E-3,6.227493E-4,0E0,6.789863E-4,0E0,0E0,1.5945435E-3,0E0,0E0,0E0,0E0,0E0,0E0,0E0,0E0],"parents":[2147483647,0,0,2,2,3,3,5,5,6,6,8,8,9,9,10,10,12,12,14,14,15,15,16,16,17,17,19,19,22,22],"right_children":[2,-1,4,6,-1,8,10,-1,12,14,16,-1,18,-1,20,22,24,26,-1,28,-1,-1,30,-1,-1,-1,-1,-1,-1,-1,-1],"split_conditions":[1.128385E3,-5.819357E-3,1.241074E1,5.6283224E-1,-2.1420359E-3,2.9430568E-1,-9.8904066E-2,-1.6717805E-3,-7.732845E-2,1.272065E3,1.3982799E6,-1.1318609E-3,3.8942852E3,-4.377179E-5,2.8555E3,1.4446907E1,7.166765E0,1.3588747E-1,-2.5398522E-3,3.414775E1,-8.8513334E-4,-4.0884502E-4,-3.835562E-2,-2.4244203E-3,-6.511611E-3,-1.2875166E-3,-4.7845975E-3,-3.7955132E-3,-1.8898698E-3,-4.7530956E-3,-4.309833E-3],"split_indices":[0,0,12,15,0,13,11,0,16,0,4,0,0,0,2,9,12,15,0,9,0,0,17,0,0,0,0,0,0,0,0],"split_type":[0,0,0,0,0,0,0,0,0,0,0,0,0,0,0,0,0,0,0,0,0,0,0,0,0,0,0,0,0,0,0],"sum_hessian":[1.178E3,1.6E1,1.162E3,1.158E3,4E0,5.3E2,6.28E2,2E0,5.28E2,1.8E1,6.1E2,1E0,5.27E2,1E0,1.7E1,5.94E2,1.6E1,5.23E2,4E0,1.5E1,2E0,1E0,5.93E2,3E0,1.3E1,1E0,5.22E2,1.1E1,4E0,1.67E2,4.26E2],"tree_param":{"num_deleted":"0","num_feature":"20","num_nodes":"31","size_leaf_vector":"0"}},{"base_weights":[-8.75887E-2,-9.4721526E-2,-8.634288E-2,-8.941942E-2,-1.14755824E-1,-3.5793263E-2,-8.655769E-2,-9.007399E-2,-8.535534E-4,-3.9888512E-2,-1.2436993E-1,-4.7053117E-2,1.0252997E-2,-5.8874972E-2,-8.694405E-2,-1.04499266E-1,-8.471784E-2,-5.3034365E-2,6.3474514E-3,-4.6114303E-2,-1.287858E-1,1.8047078E-2,-7.033438E-2,-2.7200874E-2,-8.703708E-2,-5.1665857E-2,-1.08183205E-1,-4.400595E-2,-8.591826E-2,-6.1198976E-2,-7.972479E-3,-4.7220014E-2,-9.0005085E-2,-8.715905E-2,-4.5528237E-2,-8.7583676E-2,-5.151794E-2,-8.7197706E-2,-2.4502192E-2,-8.552811E-2,-9.2233546E-2],"categories":[],"categories_nodes":[],"categories_segments":[],"categories_sizes":[],"default_left":[1,1,1,1,1,1,1,1,0,1,1,0,0,1,1,1,1,0,0,1,0,0,1,0,1,0,0,0,1,0,0,0,0,1,0,0,0,1,0,0,0],"id":34,"left_children":[1,3,5,7,9,11,13,15,-1,17,19,-1,-1,21,23,25,27,-1,-1,29,-1,-1,31,-1,33,-1,-1,-1,35,-1,-1,-1,-1,37,-1,-1,-1,39,-1,-1,-1],"loss_changes":[2.298355E-3,7.2654486E-3,7.923126E-3,7.7494383E-3,1.7352313E-2,3.59328E-3,5.6843758E-3,1.5003681E-3,0E0,3.3756886E-3,3.3914745E-3,0E0,0E0,1.6254514E-2,3.156662E-3,6.389916E-4,1.25283E-3,0E0,0E0,1.2381631E-3,0E0,0E0,2.5701001E-3,0E0,1.0538101E-3,0E0,0E0,0E0,1.159668E-3,0E0,0E0,0E0,0E0,2.5701523E-4,0E0,0E0,0E0,4.0960312E-4,0E0,0E0,0E0],"parents":[2147483647,0,0,1,1,2,2,3,3,4,4,5,5,6,6,7,7,9,9,10,10,13,13,14,14,15,15,16,16,19,19,22,22,24,24,28,28,33,33,37,37],"right_children":[2,4,6,8,10,12,14,16,-1,18,20,-1,-1,22,24,26,28,-1,-1,30,-1,-1,32,-1,34,-1,-1,-1,36,-1,-1,-1,-1,38,-1,-1,-1,40,-1,-1,-1],"split_conditions":[1.476715E3,1.362845E3,1.489E3,1.5004792E3,2.0095626E-2,1.487425E3,-7.780452E-2,1.2152151E3,-4.267767E-5,3.924704E1,1.495026E1,-2.3526559E-3,5.126499E-4,1.7611951E3,-2.4926091E2,-2.500016E2,1.1430906E3,-2.6517182E-3,3.1737259E-4,1.49394E3,-6.4392905E-3,9.023539E-4,8.2715106E-1,-1.3600438E-3,3.877005E3,-2.583293E-3,-5.40916E-3,-2.2002975E-3,1.0979965E1,-3.0599488E-3,-3.9862396E-4,-2.3610007E-3,-4.5002545E-3,3.087756E-1,-2.276412E-3,-4.379184E-3,-2.5758971E-3,4.5470975E-2,-1.2251096E-3,-4.2764056E-3,-4.6116775E-3],"split_indices":[2,0,2,5,19,2,16,1,0,9,9,0,0,0,10,10,6,0,0,0,0,0,15,0,2,0,0,0,12,0,0,0,0,17,0,0,0,17,0,0,0],"split_type":[0,0,0,0,0,0,0,0,0,0,0,0,0,0,0,0,0,0,0,0,0,0,0,0,0,0,0,0,0,0,0,0,0,0,0,0,0,0,0,0,0],"sum_hessian":[1.178E3,1.64E2,1.014E3,1.34E2,3E1,5E0,1.009E3,1.33E2,1E0,4E0,2.6E1,4E0,1E0,1.6E1,9.93E2,3.1E1,1.02E2,3E0,1E0,2E0,2.4E1,2E0,1.4E1,2E0,9.91E2,3E0,2.8E1,4E0,9.8E1,1E0,1E0,8E0,6E0,9.87E2,4E0,9.2E1,6E0,9.86E2,1E0,7.54E2,2.32E2],"tree_param":{"num_deleted":"0","num_feature":"20","num_nodes":"41","size_leaf_vector":"0"}},{"base_weights":[-8.32525E-2,-9.016377E-2,-8.204696E-2,-8.507578E-2,-1.0941262E-1,-3.431027E-2,-8.224931E-2,-8.5698254E-2,-8.3221495E-4,-3.8360953E-2,-1.1851802E-1,-4.5170993E-2,9.996671E-3,-5.6281745E-2,-8.261068E-2,-9.709491E-2,-7.96299E-2,-5.1045574E-2,6.188765E-3,-4.496145E-2,-1.2260409E-1,1.7445507E-2,-6.727508E-2,-1.34975165E-2,-8.266669E-2,-7.452976E-2,-9.9516205E-2,-5.9669003E-2,-7.7731684E-3,-1.3810624E-1,-9.031894E-2,-4.5121346E-2,-8.6147726E-2,-8.273764E-2,-3.1674817E-2,-7.552707E-2,1.1317693E-3,-1.0874042E-1,-4.4658452E-2,-8.277872E-2,-2.1031275E-2,-7.623601E-2,-1.0824008E-2,-8.281633E-2,-2.2791842E-2],"categories":[],"categories_nodes":[],"categories_segments":[],"categories_sizes":[],"default_left":[1,1,1,1,1,1,1,1,0,1,1,0,0,1,1,0,1,0,0,1,1,0,1,0,1,1,1,0,0,0,0,0,0,1,0,1,0,0,0,1,0,0,0,0,0],"id":35,"left_children":[1,3,5,7,9,11,13,15,-1,17,19,-1,-1,21,23,-1,25,-1,-1,27,29,-1,31,-1,33,35,37,-1,-1,-1,-1,-1,-1,39,-1,41,-1,-1,-1,43,-1,-1,-1,-1,-1],"loss_changes":[2.4251938E-3,6.8514347E-3,6.9823265E-3,7.008016E-3,1.5509069E-2,3.338792E-3,4.828453E-3,1.5356541E-3,0E0,3.1413902E-3,2.6025772E-3,0E0,0E0,1.4952298E-2,2.7318E-3,0E0,2.0154119E-3,0E0,0E0,1.1770288E-3,3.862381E-5,0E0,2.384387E-3,0E0,9.717941E-4,5.971223E-3,3.2401383E-3,0E0,0E0,0E0,0E0,0E0,0E0,7.710457E-4,0E0,2.7068257E-3,0E0,0E0,0E0,3.4618378E-4,0E0,0E0,0E0,0E0,0E0],"parents":[2147483647,0,0,1,1,2,2,3,3,4,4,5,5,6,6,7,7,9,9,10,10,13,13,14,14,16,16,19,19,20,20,22,22,24,24,25,25,26,26,33,33,35,35,39,39],"right_children":[2,4,6,8,10,12,14,16,-1,18,20,-1,-1,22,24,-1,26,-1,-1,28,30,-1,32,-1,34,36,38,-1,-1,-1,-1,-1,-1,40,-1,42,-1,-1,-1,44,-1,-1,-1,-1,-1],"split_conditions":[1.476715E3,1.362845E3,1.489E3,1.5004792E3,2.0095626E-2,1.487425E3,-7.780452E-2,1.228105E3,-4.1610747E-5,3.924704E1,1.495026E1,-2.2585497E-3,4.9983355E-4,1.7611951E3,-2.5074477E2,-4.8547457E-3,9.3698037E-1,-2.5522788E-3,3.0943827E-4,1.49394E3,2.1727424E-2,8.722753E-4,8.2715106E-1,-6.7487586E-4,3.8390269E3,4.994507E0,1.33714E3,-2.9834502E-3,-3.8865843E-4,-6.905312E-3,-4.5159473E-3,-2.2560672E-3,-4.3073865E-3,3.950115E3,-1.5837409E-3,1.368735E3,5.6588466E-5,-5.437021E-3,-2.2329227E-3,3.9416885E3,-1.0515638E-3,-3.8118006E-3,-5.412004E-4,-4.1408166E-3,-1.1395921E-3],"split_indices":[2,0,2,5,19,2,16,1,0,9,9,0,0,0,10,0,11,0,0,0,16,0,15,0,7,10,0,0,0,0,0,0,0,2,0,3,0,0,0,5,0,0,0,0,0],"split_type":[0,0,0,0,0,0,0,0,0,0,0,0,0,0,0,0,0,0,0,0,0,0,0,0,0,0,0,0,0,0,0,0,0,0,0,0,0,0,0,0,0,0,0,0,0],"sum_hessian":[1.178E3,1.64E2,1.014E3,1.34E2,3E1,5E0,1.009E3,1.33E2,1E0,4E0,2.6E1,4E0,1E0,1.6E1,9.93E2,4.1E1,9.2E1,3E0,1E0,2E0,2.4E1,2E0,1.4E1,1E0,9.92E2,7.7E1,1.5E1,1E0,1E0,1.4E1,1E1,8E0,6E0,9.9E2,2E0,7.6E1,1E0,1.2E1,3E0,9.89E2,1E0,7.5E1,1E0,9.88E2,1E0],"tree_param":{"num_deleted":"0","num_feature":"20","num_nodes":"45","size_leaf_vector":"0"}},{"base_weights":[-7.913223E-2,-7.845772E-2,-9.1731526E-2,-8.173792E-2,-7.5424805E-2,-1.02748364E-1,-7.241543E-2,-2.6709607E-2,-8.1896074E-2,-3.796396E-2,-7.599733E-2,-1.0814468E-1,-5.1979348E-2,-7.7669054E-2,-2.8043404E-2,-1.9762753E-2,-8.197663E-2,1.4148138E-2,-4.458998E-2,-1.3136841E-1,-7.558417E-2,-2.6369503E-2,-1.1019674E-1,-8.674361E-2,-4.8424374E-2,-8.219326E-2,-4.2964574E-2,-5.1424567E-2,-1.1501093E-2,-7.5788386E-3,-7.568747E-2,-7.743322E-2,-1.249145E-1,-1.0951559E-2,-6.1223187E-2,-2.0897962E-2,-8.22708E-2,-8.111727E-2,-7.3416196E-2,-1.5615925E-2,-8.1141293E-4,-8.234633E-2,-2.1498257E-2,-8.206758E-2,-3.0783738E-3,-1.5816007E-2,-7.378997E-2],"categories":[],"categories_nodes":[],"categories_segments":[],"categories_sizes":[],"default_left":[1,1,1,1,1,1,1,0,1,1,1,1,0,1,0,0,1,0,1,0,1,0,1,0,1,1,0,0,0,0,1,0,0,1,0,0,1,1,1,0,0,0,0,0,0,0,0],"id":36,"left_children":[1,3,5,7,9,11,13,-1,15,17,19,21,-1,23,-1,-1,25,-1,27,-1,29,-1,31,-1,33,35,-1,-1,-1,-1,37,-1,-1,39,-1,-1,41,43,45,-1,-1,-1,-1,-1,-1,-1,-1],"loss_changes":[2.822876E-3,5.036831E-3,4.0507317E-3,2.4166107E-3,9.940386E-3,3.1456351E-3,3.1835288E-3,0E0,1.0173321E-3,4.4291224E-3,3.522396E-3,1.7927289E-3,0E0,1.1071414E-3,0E0,0E0,9.1409683E-4,0E0,1.6700495E-3,0E0,3.5426617E-3,0E0,3.347069E-3,0E0,2.6867632E-3,7.6150894E-4,0E0,0E0,0E0,0E0,1.2593269E-3,0E0,0E0,1.292211E-4,0E0,0E0,6.210804E-4,1.1835456E-2,7.9398155E-3,0E0,0E0,0E0,0E0,0E0,0E0,0E0,0E0],"parents":[2147483647,0,0,1,1,2,2,3,3,4,4,5,5,6,6,8,8,9,9,10,10,11,11,13,13,16,16,18,18,20,20,22,22,24,24,25,25,30,30,33,33,36,36,37,37,38,38],"right_children":[2,4,6,8,10,12,14,-1,16,18,20,22,-1,24,-1,-1,26,-1,28,-1,30,-1,32,-1,34,36,-1,-1,-1,-1,38,-1,-1,40,-1,-1,42,44,46,-1,-1,-1,-1,-1,-1,-1,-1],"split_conditions":[1.260472E6,5.6283224E-1,3.5630897E-1,2.9430568E-1,-1.0766289E-1,1.2565782E0,2.454355E3,-1.3354804E-3,-7.732845E-2,1.7344651E3,-2.2400169E-1,1.060308E0,-2.5989674E-3,-1.4393937E-3,-1.4021703E-3,-9.881377E-4,3.8942852E3,7.0740696E-4,2.8555E3,-6.5684207E-3,1.4592019E1,-1.3184751E-3,6.9353495E0,-4.3371804E-3,1.17087215E-2,1.3588747E-1,-2.1482287E-3,-2.5712284E-3,-5.7505467E-4,-3.7894194E-4,-3.835562E-2,-3.8716611E-3,-6.245725E-3,1.16894E3,-3.0611593E-3,-1.0448982E-3,9.717453E1,2.0030115E2,-7.4284375E-2,-7.807963E-4,-4.057065E-5,-4.1173166E-3,-1.0749128E-3,-4.103379E-3,-1.5391869E-4,-7.908004E-4,-3.6894984E-3],"split_indices":[4,15,18,13,11,15,1,0,16,0,17,13,0,16,0,0,0,0,2,0,9,0,12,0,16,15,0,0,0,0,17,0,0,0,0,0,9,10,16,0,0,0,0,0,0,0,0],"split_type":[0,0,0,0,0,0,0,0,0,0,0,0,0,0,0,0,0,0,0,0,0,0,0,0,0,0,0,0,0,0,0,0,0,0,0,0,0,0,0,0,0,0,0,0,0,0,0],"sum_hessian":[1.178E3,1.125E3,5.3E1,5.28E2,5.97E2,3.1E1,2.2E1,2E0,5.26E2,1E1,5.87E2,2.7E1,4E0,1.9E1,3E0,1E0,5.25E2,1E0,9E0,2E0,5.85E2,1E0,2.6E1,1.3E1,6E0,5.21E2,4E0,7E0,2E0,1E0,5.84E2,1E1,1.6E1,2E0,4E0,1E0,5.2E2,1.62E2,4.22E2,1E0,1E0,5.19E2,1E0,1.6E2,2E0,3E0,4.19E2],"tree_param":{"num_deleted":"0","num_feature":"20","num_nodes":"47","size_leaf_vector":"0"}},{"base_weights":[-7.522014E-2,-7.456044E-2,-8.7583035E-2,-7.767127E-2,-7.1683876E-2,-5.367215E-2,-9.23138E-2,-2.5819287E-2,-7.781906E-2,-3.628748E-2,-7.222414E-2,-1.3320913E-2,-6.329809E-2,-1.00116596E-1,-5.8385216E-2,-7.5823955E-2,-8.485723E-2,1.3794437E-2,-4.2675115E-2,-1.2698945E-1,-7.182052E-2,-7.91125E-4,-1.9190244E-2,-1.08218335E-1,-6.3787095E-2,-6.1178632E-2,-1.5225526E-2,-7.668319E-2,-4.7512326E-2,-2.095758E-2,-8.586518E-2,-4.9174745E-2,-1.1117724E-2,-7.3893666E-3,-7.1918026E-2,-1.1266641E-1,-5.3363267E-2,-1.3795234E-2,-6.831168E-2,-1.9268682E-2,-7.677738E-2,2.3387201E-2,-5.4247092E-2,6.5472387E-3,-3.7983608E-2,-8.6283684E-2,-2.0960802E-2,-3.2121714E-2,-7.2067976E-2,-2.0375513E-2,-7.686656E-2,-5.980654E-2,-1.3926923E-2,-8.670505E-2,-2.1230988E-2,-4.1476414E-3,-4.0063858E-2,-7.708753E-2,-6.9948316E-2],"categories":[],"categories_nodes":[],"categories_segments":[],"categories_sizes":[],"default_left":[1,1,1,1,1,1,1,0,1,1,1,1,0,1,1,1,1,0,1,0,1,0,0,1,1,0,0,1,1,1,1,0,0,0,1,0,0,0,0,0,1,0,1,0,0,1,0,1,1,0,0,0,0,0,0,0,0,0,0],"id":37,"left_children":[1,3,5,7,9,11,13,-1,15,17,19,21,-1,23,25,27,29,-1,31,-1,33,-1,-1,35,37,-1,-1,39,41,43,45,-1,-1,-1,47,-1,-1,-1,-1,-1,49,-1,51,-1,-1,53,-1,55,57,-1,-1,-1,-1,-1,-1,-1,-1,-1,-1],"loss_changes":[3.0856133E-3,4.5084953E-3,3.7082434E-3,2.0446777E-3,8.81505E-3,2.652578E-3,6.332606E-3,0E0,9.6583366E-4,4.1076345E-3,3.876686E-3,2.0544254E-4,0E0,3.6929846E-3,3.9472058E-4,6.573677E-3,5.1564574E-3,0E0,1.5044026E-3,0E0,3.1502247E-3,0E0,0E0,8.197725E-4,1.0933541E-3,0E0,0E0,7.162094E-4,8.431066E-3,1.6535812E-3,1.0706782E-3,0E0,0E0,0E0,1.1758804E-3,0E0,0E0,0E0,0E0,0E0,4.708767E-4,0E0,2.3052916E-3,0E0,0E0,1.0372996E-3,0E0,7.225261E-4,8.0037117E-4,0E0,0E0,0E0,0E0,0E0,0E0,0E0,0E0,0E0,0E0],"parents":[2147483647,0,0,1,1,2,2,3,3,4,4,5,5,6,6,8,8,9,9,10,10,11,11,13,13,14,14,15,15,16,16,18,18,20,20,23,23,24,24,27,27,28,28,29,29,30,30,34,34,40,40,42,42,45,45,47,47,48,48],"right_children":[2,4,6,8,10,12,14,-1,16,18,20,22,-1,24,26,28,30,-1,32,-1,34,-1,-1,36,38,-1,-1,40,42,44,46,-1,-1,-1,48,-1,-1,-1,-1,-1,50,-1,52,-1,-1,54,-1,56,58,-1,-1,-1,-1,-1,-1,-1,-1,-1,-1],"split_conditions":[1.260472E6,5.6283224E-1,-2.3394293E-1,2.9430568E-1,-1.0766289E-1,1.7487025E-1,1.2323824E0,-1.2909643E-3,4.55048E-2,1.7344651E3,-2.2400169E-1,1.86453E3,-3.1649047E-3,2.454355E3,1.5301466E3,2.2776675E-1,-1.8827453E-2,6.8972184E-4,2.8555E3,-6.349473E-3,1.4592019E1,-3.955625E-5,-9.5951225E-4,3.2009235E-1,2.495415E3,-3.0589316E-3,-7.612763E-4,-7.732845E-2,6.3984005E1,2.205995E3,9.717453E1,-2.4587372E-3,-5.558862E-4,-3.6946833E-4,5.636904E-1,-5.6333207E-3,-2.6681635E-3,-6.897617E-4,-3.4155839E-3,-9.634341E-4,1.3588747E-1,1.1693601E-3,8.424537E1,3.2736195E-4,-1.8991804E-3,1.0487138E6,-1.0480401E-3,1.6287E3,-3.835562E-2,-1.0187756E-3,-3.843328E-3,-2.990327E-3,-6.9634616E-4,-4.3352526E-3,-1.0615494E-3,-2.0738207E-4,-2.003193E-3,-3.8543765E-3,-3.497416E-3],"split_indices":[4,15,17,13,11,14,15,0,17,0,17,0,0,1,6,19,16,0,2,0,9,0,0,19,1,0,0,16,9,0,9,0,0,0,15,0,0,0,0,0,15,0,9,0,0,4,0,0,17,0,0,0,0,0,0,0,0,0,0],"split_type":[0,0,0,0,0,0,0,0,0,0,0,0,0,0,0,0,0,0,0,0,0,0,0,0,0,0,0,0,0,0,0,0,0,0,0,0,0,0,0,0,0,0,0,0,0,0,0,0,0,0,0,0,0,0,0,0,0,0,0],"sum_hessian":[1.178E3,1.125E3,5.3E1,5.28E2,5.97E2,8E0,4.5E1,2E0,5.26E2,1E1,5.87E2,2E0,6E0,3.5E1,1E1,4.19E2,1.07E2,1E0,9E0,2E0,5.85E2,1E0,1E0,2.7E1,8E0,9E0,1E0,4.05E2,1.4E1,2E0,1.05E2,7E0,2E0,1E0,5.84E2,2.4E1,3E0,1E0,7E0,1E0,4.04E2,1E0,1.3E1,1E0,1E0,1.04E2,1E0,3E0,5.81E2,1E0,4.03E2,1.1E1,2E0,1.03E2,1E0,1E0,2E0,1.62E2,4.19E2],"tree_param":{"num_deleted":"0","num_feature":"20","num_nodes":"59","size_leaf_vector":"0"}},{"base_weights":[-7.150718E-2,-7.805587E-2,-7.037216E-2,-7.327104E-2,-9.637511E-2,-2.7174734E-2,-7.05591E-2,-7.428344E-2,-2.154404E-2,-3.012272E-2,-1.05074614E-1,-3.7945762E-2,1.3340209E-2,-4.8344325E-2,-7.0868045E-2,-8.9246795E-2,-7.01319E-2,-4.897248E-3,-3.5742205E-2,-4.265986E-2,1.0012925E-2,-4.1087247E-2,-1.0855012E-1,1.782769E-2,-5.835577E-2,-1.9640725E-2,-7.095153E-2,-4.103556E-2,-9.395581E-2,-3.3238154E-2,-7.123129E-2,-7.713437E-4,-6.5745283E-3,-5.4426238E-2,-7.204633E-3,-1.2312183E-1,-7.8811415E-2,-3.9091934E-2,-7.478702E-2,-6.94464E-2,-7.547879E-2,-2.4301097E-2,-9.61155E-2,-3.7973203E-2,-7.1489774E-3,-7.2735965E-2,-3.998994E-2,-4.098936E-2,-6.992743E-2,-7.730057E-2,-4.746291E-2,-9.996797E-2,-3.9677996E-2,-7.305901E-2,-2.0700213E-2,-6.572939E-2,7.988051E-2,-7.016265E-2,-2.9341724E-2,-7.7487096E-2,-1.8225774E-2,-2.3408234E-4,-5.3744484E-2],"categories":[],"categories_nodes":[],"categories_segments":[],"categories_sizes":[],"default_left":[1,1,1,1,1,1,1,1,1,1,1,0,0,1,1,1,1,1,0,0,0,1,1,0,1,0,1,0,1,1,1,0,0,0,0,0,0,0,0,1,1,0,1,0,0,1,0,1,1,1,1,0,0,0,0,0,0,0,0,0,0,0,0],"id":38,"left_children":[1,3,5,7,9,11,13,15,17,19,21,-1,-1,23,25,27,29,31,-1,-1,-1,33,35,-1,37,-1,39,-1,41,43,45,-1,-1,-1,-1,-1,-1,-1,-1,47,49,-1,51,-1,-1,53,-1,55,57,59,61,-1,-1,-1,-1,-1,-1,-1,-1,-1,-1,-1,-1],"loss_changes":[3.270626E-3,7.401347E-3,6.2794685E-3,5.469382E-3,1.4702141E-2,3.12453E-3,3.50523E-3,1.940906E-3,7.703771E-4,2.9430818E-3,1.5444458E-3,0E0,0E0,1.2302473E-2,2.857685E-3,1.820147E-3,2.012968E-3,1.5689671E-5,0E0,0E0,0E0,9.637587E-4,1.1301935E-3,0E0,1.8243641E-3,0E0,1.5177727E-3,0E0,9.738058E-4,3.461982E-4,1.980126E-3,0E0,0E0,0E0,0E0,0E0,0E0,0E0,0E0,7.496357E-3,8.376002E-3,0E0,5.993843E-4,0E0,0E0,1.3500452E-4,0E0,5.010535E-2,5.03397E-3,1.0119677E-3,5.0308295E-3,0E0,0E0,0E0,0E0,0E0,0E0,0E0,0E0,0E0,0E0,0E0,0E0],"parents":[2147483647,0,0,1,1,2,2,3,3,4,4,5,5,6,6,7,7,8,8,9,9,10,10,13,13,14,14,15,15,16,16,17,17,21,21,22,22,24,24,26,26,28,28,29,29,30,30,39,39,40,40,42,42,45,45,47,47,48,48,49,49,50,50],"right_children":[2,4,6,8,10,12,14,16,18,20,22,-1,-1,24,26,28,30,32,-1,-1,-1,34,36,-1,38,-1,40,-1,42,44,46,-1,-1,-1,-1,-1,-1,-1,-1,48,50,-1,52,-1,-1,54,-1,56,58,60,62,-1,-1,-1,-1,-1,-1,-1,-1,-1,-1,-1,-1],"split_conditions":[1.476715E3,1.362845E3,1.489E3,1.4602637E3,2.0095626E-2,1.487425E3,-7.780452E-2,1.200845E3,1.334645E3,3.924704E1,1.495026E1,-1.8972881E-3,6.6701043E-4,1.7611951E3,-2.4926091E2,-2.500016E2,1.1410304E3,1.2719299E3,-1.7871102E-3,-2.132993E-3,5.0064625E-4,1.49394E3,2.1727424E-2,8.913845E-4,8.2715106E-1,-9.820362E-4,4.5470975E-2,-2.051778E-3,1.1298229E3,1.19891E3,1.0979965E1,-3.8567185E-5,-3.2872643E-4,-2.721312E-3,-3.6023167E-4,-6.1560916E-3,-3.9405706E-3,-1.9545967E-3,-3.7393512E-3,1.5551824E3,3.3930747E3,-1.2150549E-3,1.18379E3,-1.8986602E-3,-3.5744888E-4,1.3125509E0,-1.9994972E-3,1.4361238E3,8.3375454E-2,3.087756E-1,2.1986269E5,-4.9983985E-3,-1.9838999E-3,-3.6529505E-3,-1.0350107E-3,-3.2864695E-3,3.9940258E-3,-3.5081324E-3,-1.4670863E-3,-3.8743548E-3,-9.112887E-4,-1.1704117E-5,-2.6872242E-3],"split_indices":[2,0,2,5,19,2,16,1,0,9,9,0,0,0,10,10,6,0,0,0,0,0,16,0,15,0,17,0,7,2,12,0,0,0,0,0,0,0,0,7,6,0,3,0,0,11,0,6,16,17,4,0,0,0,0,0,0,0,0,0,0,0,0],"split_type":[0,0,0,0,0,0,0,0,0,0,0,0,0,0,0,0,0,0,0,0,0,0,0,0,0,0,0,0,0,0,0,0,0,0,0,0,0,0,0,0,0,0,0,0,0,0,0,0,0,0,0,0,0,0,0,0,0,0,0,0,0,0,0],"sum_hessian":[1.178E3,1.64E2,1.014E3,1.34E2,3E1,5E0,1.009E3,1.31E2,3E0,4E0,2.6E1,4E0,1E0,1.6E1,9.93E2,2.4E1,1.07E2,2E0,1E0,3E0,1E0,2E0,2.4E1,2E0,1.4E1,2E0,9.91E2,3E0,2.1E1,4E0,1.03E2,1E0,1E0,1E0,1E0,1.4E1,1E1,8E0,6E0,7.56E2,2.35E2,1E0,2E1,3E0,1E0,9.7E1,6E0,1.4E1,7.42E2,2.19E2,1.6E1,1.8E1,2E0,9.6E1,1E0,1.2E1,2E0,7.37E2,5E0,2.18E2,1E0,2E0,1.4E1],"tree_param":{"num_deleted":"0","num_feature":"20","num_nodes":"63","size_leaf_vector":"0"}},{"base_weights":[-6.7978404E-2,-6.7341186E-2,-8.0006644E-2,-7.02277E-2,-6.467512E-2,-8.9789934E-2,-6.2916555E-2,-2.2619888E-2,-7.036545E-2,-3.2318894E-2,-6.517044E-2,-9.468335E-2,-4.4428863E-2,-6.756726E-2,-2.3933899E-2,-7.056227E-2,-3.5704993E-2,1.3003886E-2,-3.815156E-2,-1.1992096E-1,-6.477893E-2,-6.6513605E-2,-1.06638E-1,-7.5425036E-2,-4.2199243E-2,-6.871451E-2,-7.710392E-2,-4.4536307E-2,-8.408375E-3,-1.6635695E-2,-6.491532E-2,-2.3427537E-2,-1.1015464E-1,-9.71404E-3,-5.3250514E-2,-6.933982E-2,-4.1831758E-2,-1.7850736E-2,-7.806254E-2,-6.996743E-2,-6.2827006E-2,-1.17864266E-1,-5.5632323E-2,-1.3818998E-2,-7.520616E-4,-7.125559E-2,-6.231815E-2,2.4556588E-2,-5.009948E-2,8.320734E-3,-3.509684E-2,-3.9349683E-2,-7.9206124E-2,-7.087825E-2,1.9325837E-3,-1.145701E-2,-6.3166656E-2,-5.0642893E-2,-1.2484758E-1],"categories":[],"categories_nodes":[],"categories_segments":[],"categories_sizes":[],"default_left":[1,1,1,1,1,1,1,0,1,1,1,1,0,1,0,1,0,0,1,0,1,0,1,0,1,1,1,0,0,0,1,0,1,1,0,1,1,1,1,1,1,1,0,0,0,0,0,0,0,0,0,0,0,0,0,0,0,0,0],"id":39,"left_children":[1,3,5,7,9,11,13,-1,15,17,19,21,-1,23,-1,25,-1,-1,27,-1,29,-1,31,-1,33,35,37,-1,-1,-1,39,-1,41,43,-1,45,47,49,51,53,55,57,-1,-1,-1,-1,-1,-1,-1,-1,-1,-1,-1,-1,-1,-1,-1,-1,-1],"loss_changes":[3.648281E-3,4.1236877E-3,3.3794045E-3,1.8773079E-3,7.4777603E-3,2.8963685E-3,2.5526881E-3,0E0,1.0755062E-3,3.403999E-3,4.835367E-3,2.336353E-3,0E0,8.0384314E-4,0E0,1.0237694E-3,0E0,0E0,1.5245508E-3,0E0,2.7678013E-3,0E0,2.6865304E-3,0E0,1.9957423E-3,4.109144E-3,4.6842694E-3,0E0,0E0,0E0,1.7654896E-3,0E0,5.888343E-4,9.997291E-5,0E0,1.0209084E-3,7.816834E-3,1.6460989E-3,1.5317798E-3,1.0746181E-2,6.6566467E-3,2.4935603E-4,0E0,0E0,0E0,0E0,0E0,0E0,0E0,0E0,0E0,0E0,0E0,0E0,0E0,0E0,0E0,0E0,0E0],"parents":[2147483647,0,0,1,1,2,2,3,3,4,4,5,5,6,6,8,8,9,9,10,10,11,11,13,13,15,15,18,18,20,20,22,22,24,24,25,25,26,26,30,30,32,32,33,33,35,35,36,36,37,37,38,38,39,39,40,40,41,41],"right_children":[2,4,6,8,10,12,14,-1,16,18,20,22,-1,24,-1,26,-1,-1,28,-1,30,-1,32,-1,34,36,38,-1,-1,-1,40,-1,42,44,-1,46,48,50,52,54,56,58,-1,-1,-1,-1,-1,-1,-1,-1,-1,-1,-1,-1,-1,-1,-1,-1,-1],"split_conditions":[1.260472E6,5.6283224E-1,3.5630897E-1,2.9430568E-1,-1.0766289E-1,1.2565782E0,2.454355E3,-1.1309944E-3,3.8942852E3,1.7344651E3,-2.2400169E-1,6.9353495E0,-2.2214432E-3,-1.4393937E-3,-1.1966949E-3,4.55048E-2,-1.7852497E-3,6.501943E-4,2.8555E3,-5.996048E-3,1.6298508E1,-3.3256803E-3,1.060308E0,-3.7712518E-3,1.17087215E-2,2.2776675E-1,-1.8827453E-2,-2.2268153E-3,-4.2041877E-4,-8.317848E-4,-3.835562E-2,-1.1713769E-3,2.43238E3,1.16894E3,-2.6625257E-3,2.5472617E3,6.3984005E1,2.205995E3,1.7392807E-2,2.0030115E2,-7.4284375E-2,3.67388E-2,-2.7816163E-3,-6.909499E-4,-3.760308E-5,-3.5627794E-3,-3.1159075E-3,1.2278295E-3,-2.5049741E-3,4.160367E-4,-1.754842E-3,-1.9674841E-3,-3.9603063E-3,-3.5439127E-3,9.662919E-5,-5.728505E-4,-3.1583328E-3,-2.5321448E-3,-6.242379E-3],"split_indices":[4,15,18,13,11,15,1,0,0,0,17,12,0,16,0,17,0,0,2,0,9,0,13,0,16,19,16,0,0,0,17,0,1,0,0,7,9,0,14,10,16,19,0,0,0,0,0,0,0,0,0,0,0,0,0,0,0,0,0],"split_type":[0,0,0,0,0,0,0,0,0,0,0,0,0,0,0,0,0,0,0,0,0,0,0,0,0,0,0,0,0,0,0,0,0,0,0,0,0,0,0,0,0,0,0,0,0,0,0,0,0,0,0,0,0,0,0,0,0,0,0],"sum_hessian":[1.178E3,1.125E3,5.3E1,5.28E2,5.97E2,3.1E1,2.2E1,2E0,5.26E2,1E1,5.87E2,2.7E1,4E0,1.9E1,3E0,5.22E2,4E0,1E0,9E0,2E0,5.85E2,1E1,1.7E1,1.3E1,6E0,4.16E2,1.06E2,7E0,2E0,2E0,5.83E2,1E0,1.6E1,2E0,4E0,4.05E2,1.1E1,2E0,1.04E2,1.61E2,4.22E2,1.3E1,3E0,1E0,1E0,3.11E2,9.4E1,1E0,1E1,1E0,1E0,4E0,1E2,1.59E2,2E0,3E0,4.19E2,2E0,1.1E1],"tree_param":{"num_deleted":"0","num_feature":"20","num_nodes":"59","size_leaf_vector":"0"}},{"base_weights":[-6.463103E-2,-6.400445E-2,-7.649953E-2,-1.159236E-1,-6.380893E-2,-8.5871525E-2,-6.0134165E-2,-6.67506E-2,-6.1090894E-2,-9.0522505E-2,-4.2651705E-2,-6.454702E-2,-2.3036376E-2,-2.186589E-2,-6.687945E-2,-3.0884499E-2,-6.1553657E-2,-6.3490264E-2,-1.02013186E-1,-7.192316E-2,-4.057372E-2,-6.5126166E-2,-7.3078535E-2,1.2678787E-2,-3.6508705E-2,-1.6081173E-2,-6.1681848E-2,-2.2841847E-2,-1.0532668E-1,-9.47119E-3,-5.1120497E-2,-6.5889284E-2,-4.0129427E-2,-1.7404467E-2,-7.39648E-2,-1.2861221E-2,-4.4806022E-2,-4.273773E-2,-6.207216E-2,-1.125978E-1,-5.354611E-2,-1.3473522E-2,-7.332638E-4,-6.770423E-2,-5.923504E-2,2.3942675E-2,-4.6416197E-2,8.112717E-3,-3.4219418E-2,-3.7775695E-2,-7.501362E-2,-1.462298E-2,-3.787972E-3,-7.933664E-3,-5.9346396E-2,-6.870758E-2,-6.05489E-2],"categories":[],"categories_nodes":[],"categories_segments":[],"categories_sizes":[],"default_left":[1,1,1,0,1,1,1,1,1,1,0,1,0,0,1,1,1,0,1,0,1,1,1,0,1,0,1,0,1,1,0,1,1,1,1,1,0,1,1,0,0,0,0,0,0,0,0,0,0,0,0,0,0,0,0,0,0],"id":40,"left_children":[1,3,5,-1,7,9,11,13,15,17,-1,19,-1,-1,21,23,25,-1,27,-1,29,31,33,-1,35,-1,37,-1,39,41,-1,43,45,47,49,51,-1,53,55,-1,-1,-1,-1,-1,-1,-1,-1,-1,-1,-1,-1,-1,-1,-1,-1,-1,-1],"loss_changes":[3.871441E-3,4.0330887E-3,3.1184852E-3,0E0,4.9085617E-3,2.571538E-3,2.2783354E-3,1.5969276E-3,6.430149E-3,2.2204816E-3,0E0,6.1842054E-4,0E0,0E0,9.6845627E-4,3.1579845E-3,2.4240017E-3,0E0,2.316162E-3,0E0,1.8120473E-3,5.3675175E-3,4.0415525E-3,0E0,1.385848E-3,0E0,1.6653538E-3,0E0,3.7136674E-4,9.503661E-5,0E0,8.928776E-4,7.153429E-3,1.5648231E-3,1.1897087E-3,8.548086E-6,0E0,8.199902E-3,1.6012192E-3,0E0,0E0,0E0,0E0,0E0,0E0,0E0,0E0,0E0,0E0,0E0,0E0,0E0,0E0,0E0,0E0,0E0,0E0],"parents":[2147483647,0,0,1,1,2,2,4,4,5,5,6,6,7,7,8,8,9,9,11,11,14,14,15,15,16,16,18,18,20,20,21,21,22,22,24,24,26,26,28,28,29,29,31,31,32,32,33,33,34,34,35,35,37,37,38,38],"right_children":[2,4,6,-1,8,10,12,14,16,18,-1,20,-1,-1,22,24,26,-1,28,-1,30,32,34,-1,36,-1,38,-1,40,42,-1,44,46,48,50,52,-1,54,56,-1,-1,-1,-1,-1,-1,-1,-1,-1,-1,-1,-1,-1,-1,-1,-1,-1,-1],"split_conditions":[1.260472E6,-2.2400169E-1,3.5630897E-1,-5.79618E-3,5.6283224E-1,1.2565782E0,2.454355E3,2.9430568E-1,-1.0766289E-1,6.9353495E0,-2.1325853E-3,-1.4393937E-3,-1.1518188E-3,-1.0932945E-3,4.55048E-2,1.7344651E3,1.6298508E1,-3.1745133E-3,1.060308E0,-3.596158E-3,1.17087215E-2,2.2776675E-1,-1.8827453E-2,6.3393934E-4,2.5431482E1,-8.040587E-4,1.5585053E5,-1.1420924E-3,2.43238E3,1.16894E3,-2.5560248E-3,2.5472617E3,6.3984005E1,2.205995E3,1.7392807E-2,3.096505E3,-2.240301E-3,-5.427519E-3,-6.938453E-2,-5.62989E-3,-2.6773054E-3,-6.736761E-4,-3.666319E-5,-3.3852116E-3,-2.961752E-3,1.1971338E-3,-2.32081E-3,4.056359E-4,-1.7109709E-3,-1.8887848E-3,-3.7506812E-3,-7.31149E-4,-1.893986E-4,-3.966832E-4,-2.96732E-3,-3.435379E-3,-3.0274452E-3],"split_indices":[4,17,18,0,15,15,1,13,11,12,0,16,0,0,17,0,9,0,13,0,16,19,16,0,9,0,4,0,1,0,0,7,9,0,14,0,0,16,17,0,0,0,0,0,0,0,0,0,0,0,0,0,0,0,0,0,0],"split_type":[0,0,0,0,0,0,0,0,0,0,0,0,0,0,0,0,0,0,0,0,0,0,0,0,0,0,0,0,0,0,0,0,0,0,0,0,0,0,0,0,0,0,0,0,0,0,0,0,0,0,0,0,0,0,0,0,0],"sum_hessian":[1.178E3,1.125E3,5.3E1,2E0,1.123E3,3.1E1,2.2E1,5.28E2,5.95E2,2.7E1,4E0,1.9E1,3E0,2E0,5.26E2,1E1,5.85E2,1E1,1.7E1,1.3E1,6E0,4.19E2,1.07E2,1E0,9E0,2E0,5.83E2,1E0,1.6E1,2E0,4E0,4.05E2,1.4E1,2E0,1.05E2,3E0,6E0,1.4E1,5.69E2,1.3E1,3E0,1E0,1E0,3.11E2,9.4E1,1E0,1.3E1,1E0,1E0,4E0,1.01E2,2E0,1E0,5E0,9E0,9.8E1,4.71E2],"tree_param":{"num_deleted":"0","num_feature":"20","num_nodes":"57","size_leaf_vector":"0"}},{"base_weights":[-6.1448023E-2,-6.0834832E-2,-7.309623E-2,-1.1205948E-1,-6.064399E-2,-7.817225E-2,-4.881582E-2,-6.344239E-2,-5.8058422E-2,-4.295684E-2,-8.3826445E-2,-5.0865132E-2,-1.3136685E-2,-6.1745934E-2,-7.0019975E-2,-4.1892536E-2,-5.893157E-2,-1.1326204E-2,-5.1612686E-2,-9.069226E-2,-5.3152077E-2,-6.299079E-2,-3.5852928E-2,-2.21245E-3,-7.136747E-2,-1.7852034E-2,-5.116558E-2,-6.867165E-2,-5.719988E-2,-7.1493536E-4,-1.627437E-2,-6.050753E-2,-2.2548664E-2,-9.456181E-2,-4.383451E-2,-1.0522027E-2,-5.716558E-2,-6.325487E-2,-2.9054623E-2,1.8398685E-2,-4.2198025E-2,-7.5644087E-3,4.245734E-3,-9.692914E-2,-6.7734316E-2,-3.0703202E-2,5.5329822E-2,3.477805E-2,-5.6414347E-2,-7.012149E-2,2.293272E-2,-1.7993852E-2,-5.7737507E-2,-4.645083E-2,-9.9011E-2,-1.4638063E-2,-6.333919E-2,2.3344107E-2,4.253922E-3,-6.466992E-4,-4.677891E-2,-1.4493933E-1,-5.5647727E-2,-1.4335671E-2,-6.817323E-2,-3.686174E-2,1.2361817E-2,-1.6766462E-2,-5.9391934E-2,-2.2839546E-2,-7.168736E-2,-3.2854393E-2,4.301496E-2,-5.828454E-2,-3.1682905E-2,-6.417357E-2,-1.10990226E-1],"categories":[],"categories_nodes":[],"categories_segments":[],"categories_sizes":[],"default_left":[1,1,1,0,1,1,1,1,1,1,1,0,0,1,1,1,1,1,1,1,1,1,1,1,1,1,1,1,1,0,0,0,0,1,0,0,0,1,0,1,1,0,0,1,1,1,0,0,1,1,0,1,1,0,1,0,0,0,0,0,0,0,0,0,0,0,0,0,0,0,0,0,0,0,0,0,0],"id":41,"left_children":[1,3,5,-1,7,9,11,13,15,17,19,-1,-1,21,23,25,27,29,31,33,35,37,39,41,43,45,47,49,51,-1,-1,-1,-1,53,-1,-1,-1,55,-1,57,59,-1,-1,61,63,65,-1,-1,67,69,-1,71,73,-1,75,-1,-1,-1,-1,-1,-1,-1,-1,-1,-1,-1,-1,-1,-1,-1,-1,-1,-1,-1,-1,-1,-1],"loss_changes":[3.973961E-3,4.2123795E-3,2.8393269E-3,0E0,4.4493675E-3,4.961014E-3,2.092123E-4,1.5795231E-3,5.943775E-3,1.6057435E-3,2.7613044E-3,0E0,0E0,1.15695E-2,9.070516E-3,6.666161E-3,5.5680275E-3,1.4588382E-4,1.8675625E-4,9.318292E-4,9.3836524E-4,1.8187761E-3,8.349486E-3,1.3580827E-4,2.628684E-3,1.2043999E-2,1.278834E-2,1.2232959E-2,9.162903E-3,0E0,0E0,0E0,0E0,7.522404E-4,0E0,0E0,0E0,7.287264E-4,0E0,1.10551366E-4,3.7765838E-3,0E0,0E0,1.1753745E-2,1.132071E-3,3.1078532E-3,0E0,0E0,1.7194748E-3,4.211664E-3,0E0,8.666221E-3,4.9518347E-3,0E0,2.058521E-3,0E0,0E0,0E0,0E0,0E0,0E0,0E0,0E0,0E0,0E0,0E0,0E0,0E0,0E0,0E0,0E0,0E0,0E0,0E0,0E0,0E0,0E0],"parents":[2147483647,0,0,1,1,2,2,4,4,5,5,6,6,7,7,8,8,9,9,10,10,13,13,14,14,15,15,16,16,17,17,18,18,19,19,20,20,21,21,22,22,23,23,24,24,25,25,26,26,27,27,28,28,33,33,37,37,39,39,40,40,43,43,44,44,45,45,48,48,49,49,51,51,52,52,54,54],"right_children":[2,4,6,-1,8,10,12,14,16,18,20,-1,-1,22,24,26,28,30,32,34,36,38,40,42,44,46,48,50,52,-1,-1,-1,-1,54,-1,-1,-1,56,-1,58,60,-1,-1,62,64,66,-1,-1,68,70,-1,72,74,-1,76,-1,-1,-1,-1,-1,-1,-1,-1,-1,-1,-1,-1,-1,-1,-1,-1,-1,-1,-1,-1,-1,-1],"split_conditions":[1.260472E6,-2.2400169E-1,1.2316645E0,-5.602974E-3,5.6283224E-1,-2.3394293E-1,1.5301466E3,5.196629E-1,3.395752E-2,1.20936E3,2.454355E3,-2.5432566E-3,-6.568343E-4,5.121771E-1,1.4189538E-2,2.2869849E3,-6.938453E-2,1.22344E3,2.30235E3,3.2009235E-1,2.495415E3,3.7299878E3,-7.434726E1,2.72302E3,3.8529134E0,2.098905E3,4.5614652E-2,3.635755E3,-6.328784E-2,-3.574677E-5,-8.1371854E-4,-3.0253765E-3,-1.1274333E-3,1.09165E3,-2.1917257E-3,-5.261013E-4,-2.858279E-3,1.3588747E-1,-1.4527312E-3,2.75977E3,3.8020568E0,-3.7822043E-4,2.122867E-4,6.297892E-2,-7.732845E-2,1.206296E6,2.7664911E-3,1.7389025E-3,2.1777142E1,-1.7695475E-1,1.146636E-3,1.0536565E2,4.7057456E-1,-2.3225415E-3,6.560607E-2,-7.319031E-4,-3.1669594E-3,1.1672054E-3,2.126961E-4,-3.2334963E-5,-2.3389456E-3,-7.246967E-3,-2.7823865E-3,-7.167836E-4,-3.4086616E-3,-1.843087E-3,6.1809085E-4,-8.3832315E-4,-2.9695968E-3,-1.1419774E-3,-3.5843682E-3,-1.6427197E-3,2.150748E-3,-2.914227E-3,-1.5841452E-3,-3.2086787E-3,-5.5495114E-3],"split_indices":[4,17,15,0,15,17,6,15,11,3,1,0,0,15,19,0,17,0,0,19,1,7,10,0,12,0,14,3,17,0,0,0,0,0,0,0,0,15,0,0,12,0,0,17,16,4,0,0,9,17,0,10,18,0,19,0,0,0,0,0,0,0,0,0,0,0,0,0,0,0,0,0,0,0,0,0,0],"split_type":[0,0,0,0,0,0,0,0,0,0,0,0,0,0,0,0,0,0,0,0,0,0,0,0,0,0,0,0,0,0,0,0,0,0,0,0,0,0,0,0,0,0,0,0,0,0,0,0,0,0,0,0,0,0,0,0,0,0,0,0,0,0,0,0,0,0,0,0,0,0,0,0,0,0,0,0,0],"sum_hessian":[1.178E3,1.125E3,5.3E1,2E0,1.123E3,4.2E1,1.1E1,5.28E2,5.95E2,7E0,3.5E1,1E1,1E0,4.28E2,1E2,3.3E1,5.62E2,2E0,5E0,2.7E1,8E0,4.07E2,2.1E1,2E0,9.8E1,1E1,2.3E1,7.9E1,4.83E2,1E0,1E0,3E0,2E0,2.4E1,3E0,1E0,7E0,4.03E2,4E0,2E0,1.9E1,1E0,1E0,9E0,8.9E1,9E0,1E0,1E0,2.2E1,7.8E1,1E0,7E0,4.76E2,3E0,2.1E1,1E0,4.02E2,1E0,1E0,2E0,1.7E1,3E0,6E0,1E0,8.8E1,8E0,1E0,2E0,2E1,3E0,7.5E1,6E0,1E0,4.65E2,1.1E1,7E0,1.4E1],"tree_param":{"num_deleted":"0","num_feature":"20","num_nodes":"77","size_leaf_vector":"0"}},{"base_weights":[-5.8425855E-2,-5.782361E-2,-6.990178E-2,-1.0832416E-1,-5.763738E-2,-7.4767336E-2,-4.6641704E-2,-6.0309332E-2,-5.5169087E-2,-4.1434284E-2,-8.009781E-2,-4.8553083E-2,-1.2808267E-2,-5.8673427E-2,-6.666076E-2,-2.749267E-2,-5.5594467E-2,-1.1043049E-2,-4.9724188E-2,-8.663166E-2,-5.087052E-2,-5.9854366E-2,-3.4105342E-2,-2.157138E-3,-6.7942075E-2,-5.0810887E-3,-3.957342E-2,-5.292755E-2,-5.9090346E-2,-6.970614E-4,-1.5867513E-2,-5.82385E-2,-2.179704E-2,-9.027695E-2,-4.219072E-2,-1.0258976E-2,-5.466459E-2,-6.010178E-2,-2.7892439E-2,1.7938718E-2,-4.0206686E-2,-7.375298E-3,4.139591E-3,-9.308562E-2,-6.439344E-2,1.2052774E-2,-1.2377748E-2,-5.3544942E-2,-1.5731595E-2,-6.703768E-2,-5.5259116E-2,-4.4708926E-2,-9.445854E-2,-6.01861E-2,-1.3060631E-2,2.2760503E-2,4.1475743E-3,-6.251422E-4,-4.4569906E-2,-1.395041E-1,-5.3262826E-2,-2.2525651E-2,-6.5089E-2,-1.503135E-2,-2.2084713E-3,-5.3901836E-2,-1.0447296E-2,1.259395E-2,-2.9580604E-2,-3.3648793E-2,-6.9979936E-2,-3.445867E-2,-5.8099058E-2,-6.1365977E-2,-1.0581068E-1],"categories":[],"categories_nodes":[],"categories_segments":[],"categories_sizes":[],"default_left":[1,1,1,0,1,1,1,1,1,1,1,0,0,1,1,1,1,1,1,1,1,1,1,1,1,1,0,1,1,0,0,0,0,1,0,0,0,1,0,1,1,0,0,1,1,0,1,1,1,1,1,0,1,0,0,0,0,0,0,0,0,0,0,0,0,0,0,0,0,0,0,0,0,0,0],"id":42,"left_children":[1,3,5,-1,7,9,11,13,15,17,19,-1,-1,21,23,25,27,29,31,33,35,37,39,41,43,45,-1,47,49,-1,-1,-1,-1,51,-1,-1,-1,53,-1,55,57,-1,-1,59,61,-1,63,65,67,69,71,-1,73,-1,-1,-1,-1,-1,-1,-1,-1,-1,-1,-1,-1,-1,-1,-1,-1,-1,-1,-1,-1,-1,-1],"loss_changes":[4.1065216E-3,4.3461323E-3,2.6240647E-3,0E0,4.0860176E-3,4.3214858E-3,1.5413947E-4,1.5851259E-3,5.4882765E-3,1.4664168E-3,2.467826E-3,0E0,0E0,1.04055405E-2,8.200973E-3,2.7771592E-3,2.335906E-3,1.3868089E-4,1.5725475E-4,7.2713196E-4,8.259453E-4,1.5499592E-3,7.707106E-3,1.2910273E-4,2.8392076E-3,7.7428605E-4,0E0,7.011533E-3,3.755331E-3,0E0,0E0,0E0,0E0,5.405396E-4,0E0,0E0,0E0,8.163452E-4,0E0,1.05092826E-4,3.426198E-3,0E0,0E0,1.1054754E-2,1.1548102E-3,0E0,7.4744574E-5,4.6049953E-3,3.1185013E-3,5.013168E-3,8.099258E-3,0E0,1.7715842E-3,0E0,0E0,0E0,0E0,0E0,0E0,0E0,0E0,0E0,0E0,0E0,0E0,0E0,0E0,0E0,0E0,0E0,0E0,0E0,0E0,0E0,0E0],"parents":[2147483647,0,0,1,1,2,2,4,4,5,5,6,6,7,7,8,8,9,9,10,10,13,13,14,14,15,15,16,16,17,17,18,18,19,19,20,20,21,21,22,22,23,23,24,24,25,25,27,27,28,28,33,33,37,37,39,39,40,40,43,43,44,44,46,46,47,47,48,48,49,49,50,50,52,52],"right_children":[2,4,6,-1,8,10,12,14,16,18,20,-1,-1,22,24,26,28,30,32,34,36,38,40,42,44,46,-1,48,50,-1,-1,-1,-1,52,-1,-1,-1,54,-1,56,58,-1,-1,60,62,-1,64,66,68,70,72,-1,74,-1,-1,-1,-1,-1,-1,-1,-1,-1,-1,-1,-1,-1,-1,-1,-1,-1,-1,-1,-1,-1,-1],"split_conditions":[1.260472E6,-2.2400169E-1,1.2316645E0,-5.4162084E-3,5.6283224E-1,-2.3394293E-1,1.5301466E3,5.196629E-1,-1.0766289E-1,1.20936E3,2.454355E3,-2.427654E-3,-6.404134E-4,5.121771E-1,1.4189538E-2,2.5474744E-2,8.151574E-1,1.22344E3,2.30235E3,3.2009235E-1,2.495415E3,3.7299878E3,-7.434726E1,2.72302E3,3.8529134E0,2.241305E3,-1.978671E-3,7.989051E-1,-3.7955508E-2,-3.485307E-5,-7.9337566E-4,-2.911925E-3,-1.0898521E-3,1.09165E3,-2.109536E-3,-5.1294884E-4,-2.7332294E-3,9.717453E1,-1.3946219E-3,2.75977E3,3.8020568E0,-3.6876492E-4,2.0697956E-4,6.297892E-2,3.729136E-1,6.0263876E-4,3.096505E3,2.6879817E-1,-6.9960236E1,2.0243019E-2,-1.9407919E-2,-2.2354464E-3,6.560607E-2,-3.009305E-3,-6.530316E-4,1.1380252E-3,2.0737872E-4,-3.125711E-5,-2.2284954E-3,-6.975205E-3,-2.6631413E-3,-1.1262826E-3,-3.2544502E-3,-7.515675E-4,-1.1042356E-4,-2.6950918E-3,-5.223648E-4,6.296975E-4,-1.4790302E-3,-1.6824397E-3,-3.4989968E-3,-1.7229336E-3,-2.904953E-3,-3.0682988E-3,-5.290534E-3],"split_indices":[4,17,15,0,15,17,6,15,11,3,1,0,0,15,19,19,15,0,0,19,1,7,10,0,12,0,0,15,17,0,0,0,0,0,0,0,0,9,0,0,12,0,0,17,13,0,0,19,10,19,17,0,19,0,0,0,0,0,0,0,0,0,0,0,0,0,0,0,0,0,0,0,0,0,0],"split_type":[0,0,0,0,0,0,0,0,0,0,0,0,0,0,0,0,0,0,0,0,0,0,0,0,0,0,0,0,0,0,0,0,0,0,0,0,0,0,0,0,0,0,0,0,0,0,0,0,0,0,0,0,0,0,0,0,0,0,0,0,0,0,0,0,0,0,0,0,0,0,0,0,0,0,0],"sum_hessian":[1.178E3,1.125E3,5.3E1,2E0,1.123E3,4.2E1,1.1E1,5.28E2,5.95E2,7E0,3.5E1,1E1,1E0,4.28E2,1E2,1E1,5.85E2,2E0,5E0,2.7E1,8E0,4.07E2,2.1E1,2E0,9.8E1,4E0,6E0,3.41E2,2.44E2,1E0,1E0,3E0,2E0,2.4E1,3E0,1E0,7E0,4.03E2,4E0,2E0,1.9E1,1E0,1E0,9E0,8.9E1,1E0,3E0,3.35E2,6E0,7.4E1,1.7E2,3E0,2.1E1,4.02E2,1E0,1E0,1E0,2E0,1.7E1,3E0,6E0,2E0,8.7E1,2E0,1E0,3.32E2,3E0,2E0,4E0,7E0,6.7E1,2.2E1,1.48E2,7E0,1.4E1],"tree_param":{"num_deleted":"0","num_feature":"20","num_nodes":"75","size_leaf_vector":"0"}},{"base_weights":[-5.556014E-2,-5.496945E-2,-6.684832E-2,-1.0471336E-1,-5.4787774E-2,-7.151223E-2,-4.456529E-2,-5.4986194E-2,-2.9712496E-2,-7.757176E-2,-4.3758586E-2,-4.6346124E-2,-1.248806E-2,-5.733196E-2,-5.277477E-2,1.1751458E-2,-3.5034038E-2,-3.5734262E-2,-8.195895E-2,-2.0804103E-2,-5.062421E-2,-5.5662837E-2,-6.332306E-2,-4.9934007E-2,-5.6690294E-2,-3.76279E-2,-5.8446415E-3,-6.796345E-4,-4.432801E-2,-4.424961E-2,-8.605848E-2,-5.633636E-2,-3.363211E-2,-1.2851848E-2,-6.41541E-2,-5.0501667E-2,-1.506635E-2,-6.51811E-2,-5.2713934E-2,-8.9687355E-2,-4.367784E-2,-5.3164624E-2,-6.013599E-2,2.2191491E-2,-3.9204616E-2,1.0998029E-2,-3.0275801E-2,-7.263957E-2,-5.7450518E-2,-5.301353E-2,-4.3099716E-2,1.2174151E-2,-2.839738E-2,-3.217666E-2,-6.82404E-2,-1.12966215E-2,-5.3915102E-2,-5.8681216E-2,-9.958497E-2],"categories":[],"categories_nodes":[],"categories_segments":[],"categories_sizes":[],"default_left":[1,1,1,0,1,1,1,1,1,1,1,0,0,1,1,0,1,1,1,0,0,1,1,1,1,0,0,0,0,0,1,1,1,1,1,1,1,1,1,1,0,0,0,0,0,0,0,0,0,0,0,0,0,0,0,0,0,0,0],"id":43,"left_children":[1,3,5,-1,7,9,11,13,15,17,19,-1,-1,21,23,-1,25,27,29,-1,-1,31,33,35,37,-1,-1,-1,-1,-1,39,41,43,45,47,49,51,53,55,57,-1,-1,-1,-1,-1,-1,-1,-1,-1,-1,-1,-1,-1,-1,-1,-1,-1,-1,-1],"loss_changes":[4.1866302E-3,4.438877E-3,2.4250448E-3,0E0,3.958702E-3,3.837064E-3,1.0671653E-4,2.7532578E-3,2.8388752E-3,3.3119172E-3,5.2277744E-4,0E0,0E0,1.765132E-3,3.6872625E-3,0E0,5.372111E-4,1.4761263E-3,8.2965195E-4,0E0,0E0,4.367113E-3,3.7054121E-3,6.127E-3,4.6333075E-3,0E0,0E0,0E0,0E0,0E0,8.1300735E-5,1.7199516E-3,5.536167E-3,1.5796516E-3,1.8564165E-3,4.0738583E-3,2.8877214E-3,5.0741136E-3,7.748753E-3,1.2146384E-3,0E0,0E0,0E0,0E0,0E0,0E0,0E0,0E0,0E0,0E0,0E0,0E0,0E0,0E0,0E0,0E0,0E0,0E0,0E0],"parents":[2147483647,0,0,1,1,2,2,4,4,5,5,6,6,7,7,8,8,9,9,10,10,13,13,14,14,16,16,17,17,18,18,21,21,22,22,23,23,24,24,30,30,31,31,32,32,33,33,34,34,35,35,36,36,37,37,38,38,39,39],"right_children":[2,4,6,-1,8,10,12,14,16,18,20,-1,-1,22,24,-1,26,28,30,-1,-1,32,34,36,38,-1,-1,-1,-1,-1,40,42,44,46,48,50,52,54,56,58,-1,-1,-1,-1,-1,-1,-1,-1,-1,-1,-1,-1,-1,-1,-1,-1,-1,-1,-1],"split_conditions":[1.260472E6,-2.2400169E-1,1.2316645E0,-5.235668E-3,1.2062948E6,2.5414941E3,1.5301466E3,5.6283224E-1,-1.4073479E-1,1.3423536E1,2.457645E3,-2.3173064E-3,-6.24403E-4,4.55048E-2,8.151574E-1,5.875729E-4,3.01927E3,1.7621708E-1,4.8450008E-2,-1.0402052E-3,-2.5312107E-3,2.2776675E-1,-1.8827453E-2,7.989051E-1,-3.7955508E-2,-1.8813949E-3,-2.922321E-4,-3.3981727E-5,-2.2164006E-3,-2.2124804E-3,1.171453E-1,3.467556E-2,6.3984005E1,2.205995E3,9.2017674E-1,5.8168497E0,-6.9960236E1,2.0243019E-2,-5.0401848E-2,6.560607E-2,-2.183892E-3,-2.6582312E-3,-3.0067996E-3,1.1095746E-3,-1.9602308E-3,5.4990145E-4,-1.5137901E-3,-3.6319785E-3,-2.872526E-3,-2.6506765E-3,-2.154986E-3,6.0870755E-4,-1.419869E-3,-1.608833E-3,-3.41202E-3,-5.648311E-4,-2.695755E-3,-2.9340608E-3,-4.9792486E-3],"split_indices":[4,17,15,0,4,5,6,15,11,9,3,0,0,17,15,0,0,14,18,0,0,19,16,15,17,0,0,0,0,0,16,14,9,0,11,12,10,19,16,19,0,0,0,0,0,0,0,0,0,0,0,0,0,0,0,0,0,0,0],"split_type":[0,0,0,0,0,0,0,0,0,0,0,0,0,0,0,0,0,0,0,0,0,0,0,0,0,0,0,0,0,0,0,0,0,0,0,0,0,0,0,0,0,0,0,0,0,0,0,0,0,0,0,0,0,0,0,0,0,0,0],"sum_hessian":[1.178E3,1.125E3,5.3E1,2E0,1.123E3,4.2E1,1.1E1,1.113E3,1E1,3.3E1,9E0,1E1,1E0,5.28E2,5.85E2,1E0,9E0,4E0,2.9E1,3E0,6E0,4.21E2,1.07E2,3.47E2,2.38E2,8E0,1E0,1E0,3E0,4E0,2.5E1,4.07E2,1.4E1,2E0,1.05E2,3.41E2,6E0,7.1E1,1.67E2,2.2E1,3E0,2.3E2,1.77E2,1E0,1.3E1,1E0,1E0,4.2E1,6.3E1,2.5E2,9.1E1,2E0,4E0,7E0,6.4E1,5E0,1.62E2,7E0,1.5E1],"tree_param":{"num_deleted":"0","num_feature":"20","num_nodes":"59","size_leaf_vector":"0"}},{"base_weights":[-5.2829444E-2,-5.2251797E-2,-6.389615E-2,-1.0122291E-1,-5.2074604E-2,-6.610234E-2,-2.905497E-2,-4.666416E-2,-5.3097714E-2,-3.9807394E-2,-7.016311E-2,-5.8192577E-2,-3.958748E-2,-1.5502076E-2,-5.3323112E-2,-4.6888E-2,-1.0016848E-2,-3.2149598E-2,-7.2262876E-2,-6.1470207E-2,-2.9511692E-2,-2.8830105E-2,-4.6705786E-2,-2.383489E-2,1.7247405E-2,-1.5520186E-2,-5.351027E-2,-5.3417E-2,-2.0377E-2,-6.626472E-4,-1.4362626E-2,-8.356776E-2,-5.7344846E-2,-2.1933587E-2,-6.2438674E-2,-3.6553048E-2,1.3409572E-2,9.909097E-3,-3.6444932E-2,7.4565504E-4,-4.8841607E-2,-1.947529E-2,2.127668E-3,-5.2165084E-2,-5.907158E-2,-6.328137E-2,-1.1220229E-1,-2.2322882E-2,-6.345461E-2,-4.4885866E-2,-1.699876E-2,-1.9772286E-2,2.804517E-2,5.6371614E-2,-4.008367E-2,-1.3430261E-2,2.1636702E-2,-5.2518784E-3,-5.010203E-2,-5.3660605E-2,-3.5179682E-2,-6.342998E-2,-4.3492593E-2,-1.5931932E-2,-6.569811E-2,-1.2154366E-1,-2.807701E-2],"categories":[],"categories_nodes":[],"categories_segments":[],"categories_sizes":[],"default_left":[1,1,1,0,1,1,0,1,1,1,1,1,1,1,1,1,1,0,1,1,1,1,1,0,0,1,1,0,0,0,0,1,0,0,1,1,0,1,1,1,1,0,0,1,1,1,1,0,0,0,0,0,0,0,0,0,0,0,0,0,0,0,0,0,0,0,0],"id":44,"left_children":[1,3,5,-1,7,9,-1,11,13,15,17,19,21,23,25,27,29,-1,31,33,35,37,39,-1,-1,41,43,-1,-1,-1,-1,45,-1,-1,47,49,-1,51,53,55,57,-1,-1,59,61,63,65,-1,-1,-1,-1,-1,-1,-1,-1,-1,-1,-1,-1,-1,-1,-1,-1,-1,-1,-1,-1],"loss_changes":[4.198551E-3,4.499674E-3,2.2301823E-3,0E0,3.7441254E-3,2.5458932E-3,0E0,1.2952328E-2,7.12204E-3,1.4287448E-3,1.0291934E-3,4.672289E-3,7.7657998E-3,2.3213574E-3,5.7635307E-3,1.2315437E-4,1.1243648E-4,0E0,1.7850399E-3,9.661764E-4,3.210174E-3,1.51107535E-2,7.130757E-3,0E0,0E0,4.6023168E-4,3.8535595E-3,0E0,0E0,0E0,0E0,4.5175105E-3,0E0,0E0,9.880811E-4,5.4053403E-4,0E0,5.3992504E-3,1.6444448E-2,1.4751855E-3,3.417939E-3,0E0,0E0,1.7290592E-2,8.987844E-3,5.5533275E-4,2.0883456E-3,0E0,0E0,0E0,0E0,0E0,0E0,0E0,0E0,0E0,0E0,0E0,0E0,0E0,0E0,0E0,0E0,0E0,0E0,0E0,0E0],"parents":[2147483647,0,0,1,1,2,2,4,4,5,5,7,7,8,8,9,9,10,10,11,11,12,12,13,13,14,14,15,15,16,16,18,18,19,19,20,20,21,21,22,22,25,25,26,26,31,31,34,34,35,35,37,37,38,38,39,39,40,40,43,43,44,44,45,45,46,46],"right_children":[2,4,6,-1,8,10,-1,12,14,16,18,20,22,24,26,28,30,-1,32,34,36,38,40,-1,-1,42,44,-1,-1,-1,-1,46,-1,-1,48,50,-1,52,54,56,58,-1,-1,60,62,64,66,-1,-1,-1,-1,-1,-1,-1,-1,-1,-1,-1,-1,-1,-1,-1,-1,-1,-1,-1,-1],"split_conditions":[1.260472E6,-2.2400169E-1,1.358256E0,-5.0611454E-3,-7.84756E1,-2.3394293E-1,-1.4527485E-3,6.7491984E-1,-7.9717316E-2,1.0857048E1,-2.4924689E2,4.793613E-1,6.930304E-2,5.2983612E1,2.9598844E-1,2.30235E3,1.22344E3,-1.6074799E-3,1.56704E3,3.980818E-2,1.97724E3,1.8413401E3,6.9486654E-1,-1.1917445E-3,8.6237025E-4,5.747801E-1,1.421862E-1,-2.6708501E-3,-1.01885E-3,-3.313236E-5,-7.181313E-4,1.1042827E-1,-2.8672423E-3,-1.0966794E-3,9.806678E-2,3.6954742E1,6.704786E-4,3.250668E1,7.395208E-1,2.7682349E3,4.2273936E0,-9.737645E-4,1.063834E-4,5.8168497E0,1.3449792E-2,5.1721487E-2,1.61805E3,-1.1161441E-3,-3.1727308E-3,-2.2442935E-3,-8.49938E-4,-9.886143E-4,1.4022585E-3,2.8185807E-3,-2.0041836E-3,-6.715131E-4,1.0818351E-3,-2.6259394E-4,-2.5051015E-3,-2.6830302E-3,-1.7589842E-3,-3.1714991E-3,-2.1746296E-3,-7.9659664E-4,-3.2849056E-3,-6.077183E-3,-1.4038505E-3],"split_indices":[4,17,15,0,10,17,0,13,16,12,10,18,19,9,13,0,0,0,3,19,3,1,13,0,0,11,18,0,0,0,0,14,0,0,18,9,0,9,13,1,12,0,0,12,16,18,0,0,0,0,0,0,0,0,0,0,0,0,0,0,0,0,0,0,0,0,0],"split_type":[0,0,0,0,0,0,0,0,0,0,0,0,0,0,0,0,0,0,0,0,0,0,0,0,0,0,0,0,0,0,0,0,0,0,0,0,0,0,0,0,0,0,0,0,0,0,0,0,0,0,0,0,0,0,0,0,0,0,0,0,0,0,0,0,0,0,0],"sum_hessian":[1.178E3,1.125E3,5.3E1,2E0,1.123E3,4.9E1,4E0,1.86E2,9.37E2,8E0,4.1E1,6.8E1,1.18E2,6E0,9.31E2,6E0,2E0,3E0,3.8E1,6E1,8E0,4.9E1,6.9E1,5E0,1E0,5E0,9.26E2,4E0,2E0,1E0,1E0,1.9E1,1.9E1,2E0,5.8E1,7E0,1E0,8E0,4.1E1,3E0,6.6E1,4E0,1E0,7.54E2,1.72E2,1.3E1,6E0,2E0,5.6E1,4E0,3E0,3E0,5E0,1E0,4E1,2E0,1E0,2E0,6.4E1,6.91E2,6.3E1,1.32E2,4E1,1E0,1.2E1,5E0,1E0],"tree_param":{"num_deleted":"0","num_feature":"20","num_nodes":"67","size_leaf_vector":"0"}},{"base_weights":[-5.0227765E-2,-4.9661398E-2,-6.1107468E-2,-9.784882E-2,-4.94886E-2,-6.545339E-2,-4.044229E-2,-4.966991E-2,-2.6627796E-2,-7.109783E-2,-3.971696E-2,-4.2051207E-2,-1.1372119E-2,-4.8406787E-2,-5.3632606E-2,1.0756545E-2,-3.1441886E-2,-3.339171E-2,-7.501225E-2,-8.048777E-3,-4.2341337E-2,-4.9802743E-2,-4.151377E-2,-5.511137E-2,-2.9253144E-2,-3.3910714E-2,-4.611211E-3,-6.4608455E-4,-4.1416597E-2,-7.813116E-2,-3.5206556E-2,-5.0153106E-2,-2.040226E-2,-4.2317662E-2,1.1982906E-2,-5.838773E-2,-4.577273E-2,1.0400981E-2,-3.523376E-2,-3.9795212E-2,-8.1265025E-2,-5.0292168E-2,-1.2190578E-3,4.2020977E-3,-3.1547286E-2,-4.4670057E-2,-2.681441E-2,-5.885769E-2,-1.1510936E-2,-4.860752E-3,-4.9653556E-2,-6.927736E-4,1.6294245E-2,-3.6980733E-3,-3.980094E-2,-4.4301655E-2,-8.644261E-2],"categories":[],"categories_nodes":[],"categories_segments":[],"categories_sizes":[],"default_left":[1,1,1,0,1,1,1,1,1,1,1,0,0,1,1,0,1,1,1,0,0,1,1,1,1,0,0,0,0,1,0,1,1,1,0,1,1,1,1,0,1,0,0,0,0,0,0,0,0,0,0,0,0,0,0,0,0],"id":45,"left_children":[1,3,5,-1,7,9,11,13,15,17,19,-1,-1,21,23,-1,25,27,29,-1,-1,31,33,35,37,-1,-1,-1,-1,39,-1,41,43,45,-1,47,49,51,53,-1,55,-1,-1,-1,-1,-1,-1,-1,-1,-1,-1,-1,-1,-1,-1,-1,-1],"loss_changes":[4.2300224E-3,4.5335293E-3,2.20263E-3,0E0,3.3361912E-3,3.4227222E-3,8.3046034E-5,2.9799938E-3,2.3178929E-3,2.5135279E-3,4.902985E-4,0E0,0E0,6.159544E-3,7.76124E-3,0E0,5.060341E-4,1.2871413E-3,9.737909E-4,0E0,0E0,6.2491894E-3,6.957948E-3,4.793048E-3,4.3981196E-3,0E0,0E0,0E0,0E0,9.790063E-6,0E0,4.681587E-3,2.8747264E-3,4.1997135E-3,0E0,3.2218695E-3,1.0555163E-2,2.0742344E-4,2.0132493E-3,0E0,7.6361E-4,0E0,0E0,0E0,0E0,0E0,0E0,0E0,0E0,0E0,0E0,0E0,0E0,0E0,0E0,0E0,0E0],"parents":[2147483647,0,0,1,1,2,2,4,4,5,5,6,6,7,7,8,8,9,9,10,10,13,13,14,14,16,16,17,17,18,18,21,21,22,22,23,23,24,24,29,29,31,31,32,32,33,33,35,35,36,36,37,37,38,38,40,40],"right_children":[2,4,6,-1,8,10,12,14,16,18,20,-1,-1,22,24,-1,26,28,30,-1,-1,32,34,36,38,-1,-1,-1,-1,40,-1,42,44,46,-1,48,50,52,54,-1,56,-1,-1,-1,-1,-1,-1,-1,-1,-1,-1,-1,-1,-1,-1,-1,-1],"split_conditions":[1.260472E6,-2.2400169E-1,1.2316645E0,-4.892441E-3,1.2062948E6,2.5414941E3,1.5301466E3,4.5470975E-2,-1.4073479E-1,1.3423536E1,2.37126E3,-2.1025604E-3,-5.6860596E-4,2.0958398E-2,3.3930747E3,5.3782726E-4,3.01927E3,1.7621708E-1,3.2009235E-1,-4.0243883E-4,-2.1170669E-3,8.541975E-1,8.3375454E-2,7.7788377E-1,2.1986269E5,-1.6955357E-3,-2.3056054E-4,-3.230423E-5,-2.07083E-3,4.8450008E-2,-1.7603278E-3,3.4641725E-1,8.679453E-1,6.318159E5,5.991453E-4,1.3058729E0,7.842876E-1,3.5042349E3,1.0600691E-1,-1.9897607E-3,3.638486E-2,-2.5146084E-3,-6.095289E-5,2.1010489E-4,-1.5773643E-3,-2.233503E-3,-1.3407206E-3,-2.9428846E-3,-5.755468E-4,-2.4303759E-4,-2.4826778E-3,-3.463868E-5,8.1471226E-4,-1.8490366E-4,-1.990047E-3,-2.2150828E-3,-4.3221307E-3],"split_indices":[4,17,15,0,4,5,6,17,11,9,0,0,0,17,6,0,0,14,19,0,0,11,16,15,4,0,0,0,0,18,0,19,11,4,0,11,15,0,19,0,19,0,0,0,0,0,0,0,0,0,0,0,0,0,0,0,0],"split_type":[0,0,0,0,0,0,0,0,0,0,0,0,0,0,0,0,0,0,0,0,0,0,0,0,0,0,0,0,0,0,0,0,0,0,0,0,0,0,0,0,0,0,0,0,0,0,0,0,0,0,0,0,0,0,0,0,0],"sum_hessian":[1.178E3,1.125E3,5.3E1,2E0,1.123E3,4.2E1,1.1E1,1.113E3,1E1,3.3E1,9E0,1E1,1E0,8.54E2,2.59E2,1E0,9E0,4E0,2.9E1,1E0,8E0,7.05E2,1.49E2,2.43E2,1.6E1,8E0,1E0,1E0,3E0,2.6E1,3E0,6.96E2,9E0,1.47E2,2E0,1.76E2,6.7E1,2E0,1.4E1,3E0,2.3E1,6.94E2,2E0,3E0,6E0,1.26E2,2.1E1,1.74E2,2E0,6E0,6.1E1,1E0,1E0,2E0,1.2E1,4E0,1.9E1],"tree_param":{"num_deleted":"0","num_feature":"20","num_nodes":"57","size_leaf_vector":"0"}},{"base_weights":[-4.7748964E-2,-5.2981786E-2,-4.6664547E-2,-5.0172742E-2,-7.007637E-2,3.7573747E-2,-4.704633E-2,-5.2015696E-2,-3.3657648E-2,-9.92214E-2,-5.3229894E-2,8.897565E-2,-2.6352737E-2,-4.034953E-2,-4.7661077E-2,-4.878973E-2,-6.645202E-2,-3.7605524E-2,2.0676017E-2,-5.5071894E-2,-1.09579405E-2,1.8311925E-2,-4.1224226E-2,-5.5212166E-2,-4.665003E-2,-6.360357E-2,-4.475958E-2,-2.2579568E-2,-7.3733464E-2,-6.2342994E-3,-3.900202E-2,-6.214482E-2,-3.6089886E-2,-2.4315244E-2,-4.4930387E-2,-5.5611327E-2,-7.847559E-3,-4.6844427E-2,-1.8102173E-2,-1.2651597E-2,-6.519942E-2,-5.0657447E-2,-3.5901096E-2,-3.0560356E-2,4.6717953E-3,-9.4762824E-2,-5.6450006E-2,-4.0298034E-2,-8.484894E-3,-6.4905975E-3,-3.9941333E-2,1.0781865E-2,-3.8643505E-2,-4.593012E-2,-6.9597214E-3,-4.8872698E-2,-6.3250646E-2,-1.8657813E-2,-4.7036834E-2,-3.0460933E-2,8.529819E-3,-7.285831E-2,-4.0774345E-2,-5.1668435E-2,-1.422581E-2,-2.602534E-2,-4.8045535E-2,-1.0173531E-2,-5.9227157E-2,3.0933142E-2,-7.0270593E-3,-6.2133046E-3,-4.7751237E-2,-5.2811638E-2,-3.522376E-2,-5.1753268E-2,5.621963E-2,-8.424742E-3,-6.435543E-2,-2.7791956E-2,1.8073525E-2,2.2290066E-2,-4.715414E-2,-1.3329114E-2,-3.7439108E-2,1.4331637E-2,-1.5369095E-3],"categories":[],"categories_nodes":[],"categories_segments":[],"categories_sizes":[],"default_left":[1,1,1,1,1,1,1,1,1,0,1,0,0,1,1,1,1,1,0,1,0,0,1,1,1,1,1,1,1,0,1,0,1,1,1,1,0,1,1,0,1,1,1,0,0,0,1,0,0,0,0,1,1,1,0,1,1,1,1,1,1,0,0,0,0,0,0,0,0,0,0,0,0,0,0,0,0,0,0,0,0,0,0,0,0,0,0],"id":46,"left_children":[1,3,5,7,9,11,13,15,17,-1,19,-1,-1,21,23,25,27,29,-1,31,-1,-1,33,35,37,39,41,43,45,-1,47,-1,49,51,53,55,-1,57,59,-1,61,63,65,-1,-1,-1,67,-1,-1,-1,-1,69,71,73,-1,75,77,79,81,83,85,-1,-1,-1,-1,-1,-1,-1,-1,-1,-1,-1,-1,-1,-1,-1,-1,-1,-1,-1,-1,-1,-1,-1,-1,-1,-1],"loss_changes":[4.2181015E-3,5.8478713E-3,3.3445597E-2,3.4539104E-3,6.993234E-3,1.8774468E-2,2.115488E-3,3.8366318E-3,5.067587E-3,0E0,7.9809874E-4,0E0,0E0,5.321592E-3,4.2419434E-3,4.795015E-3,6.3214973E-3,5.892366E-4,0E0,3.958866E-5,0E0,0E0,4.4222176E-3,1.4542043E-3,3.5585165E-3,1.2079179E-3,3.6149323E-3,1.2302087E-3,2.283305E-3,0E0,3.6998466E-4,0E0,5.38758E-4,9.468501E-3,2.375558E-3,2.0051599E-3,0E0,3.3957958E-3,2.5637953E-3,0E0,1.5189052E-3,1.4748871E-3,4.1467026E-3,0E0,0E0,0E0,1.1966862E-3,0E0,0E0,0E0,0E0,2.370604E-3,3.5430565E-3,3.2234192E-3,0E0,2.0164922E-2,2.0623654E-3,2.8508636E-3,7.410884E-3,9.871414E-5,1.9724244E-4,0E0,0E0,0E0,0E0,0E0,0E0,0E0,0E0,0E0,0E0,0E0,0E0,0E0,0E0,0E0,0E0,0E0,0E0,0E0,0E0,0E0,0E0,0E0,0E0,0E0,0E0],"parents":[2147483647,0,0,1,1,2,2,3,3,4,4,5,5,6,6,7,7,8,8,10,10,13,13,14,14,15,15,16,16,17,17,19,19,22,22,23,23,24,24,25,25,26,26,27,27,28,28,30,30,32,32,33,33,34,34,35,35,37,37,38,38,40,40,41,41,42,42,46,46,51,51,52,52,53,53,55,55,56,56,57,57,58,58,59,59,60,60],"right_children":[2,4,6,8,10,12,14,16,18,-1,20,-1,-1,22,24,26,28,30,-1,32,-1,-1,34,36,38,40,42,44,46,-1,48,-1,50,52,54,56,-1,58,60,-1,62,64,66,-1,-1,-1,68,-1,-1,-1,-1,70,72,74,-1,76,78,80,82,84,86,-1,-1,-1,-1,-1,-1,-1,-1,-1,-1,-1,-1,-1,-1,-1,-1,-1,-1,-1,-1,-1,-1,-1,-1,-1,-1],"split_conditions":[1.5741458E3,1.5627E3,1.5773785E3,1.476715E3,-2.4997016E-2,1.644385E3,2.676988E-2,1.34113E3,8.260625E0,-4.96107E-3,2.091511E0,4.4487827E-3,-1.3176369E-3,1.48191E3,1.6142544E-1,1.200845E3,-4.623607E1,4.1303524E-1,1.0338009E-3,1.58831E3,-5.47897E-4,9.1559626E-4,-7.839349E1,5.0090782E-2,4.7057456E-1,1.1298229E3,1.0595806E-1,1.3886699E3,1.4590549E3,-3.1171498E-4,9.716844E1,-3.1072411E-3,1.5949299E3,4.886672E-2,1.0638916E6,6.9254357E-1,-3.9237793E-4,-7.4284375E-2,1.97724E3,-6.3257985E-4,1.3529608E6,1.565498E3,5.6407494E1,-1.5280178E-3,2.3358977E-4,-4.7381413E-3,1.3355049E3,-2.0149017E-3,-4.2424473E-4,-3.245299E-4,-1.9970667E-3,-5.1837057E-2,1.79052E3,-9.43121E-3,-3.479861E-4,6.9136083E-1,2.8283643E-2,5.2983612E1,-1.461638E-1,1.989315E3,2.05931E3,-3.6429155E-3,-2.0387173E-3,-2.5834218E-3,-7.112905E-4,-1.3012671E-3,-2.4022767E-3,-5.086766E-4,-2.9613578E-3,1.5466571E-3,-3.5135297E-4,-3.1066523E-4,-2.3875618E-3,-2.640582E-3,-1.761188E-3,-2.5876635E-3,2.8109816E-3,-4.212371E-4,-3.2177716E-3,-1.3895979E-3,9.0367626E-4,1.1145034E-3,-2.3577071E-3,-6.664557E-4,-1.8719555E-3,7.165819E-4,-7.684548E-5],"split_indices":[5,0,5,2,16,1,19,3,12,0,13,0,0,0,11,1,10,13,0,0,0,0,10,16,18,7,19,1,1,0,9,0,0,14,4,15,0,16,3,0,4,6,9,0,0,0,2,0,0,0,0,17,0,16,0,15,19,9,17,0,0,0,0,0,0,0,0,0,0,0,0,0,0,0,0,0,0,0,0,0,0,0,0,0,0,0,0],"split_type":[0,0,0,0,0,0,0,0,0,0,0,0,0,0,0,0,0,0,0,0,0,0,0,0,0,0,0,0,0,0,0,0,0,0,0,0,0,0,0,0,0,0,0,0,0,0,0,0,0,0,0,0,0,0,0,0,0,0,0,0,0,0,0,0,0,0,0,0,0,0,0,0,0,0,0,0,0,0,0,0,0,0,0,0,0,0,0],"sum_hessian":[1.178E3,1.94E2,9.84E2,1.7E2,2.4E1,4E0,9.8E2,1.51E2,1.9E1,7E0,1.7E1,2E0,2E0,8.8E1,8.92E2,1.27E2,2.4E1,1.8E1,1E0,1.6E1,1E0,1E0,8.7E1,9.9E1,7.93E2,2.4E1,1.03E2,4E0,2E1,1E0,1.7E1,1E1,6E0,1.7E1,7E1,9.8E1,1E0,7.87E2,6E0,1E0,2.3E1,5.9E1,4.4E1,3E0,1E0,7E0,1.3E1,1.6E1,1E0,1E0,5E0,5E0,1.2E1,6.8E1,2E0,5.6E1,4.2E1,6E0,7.81E2,4E0,2E0,1.6E1,7E0,5.7E1,2E0,2.6E1,1.8E1,1E0,1.2E1,2E0,3E0,3E0,9E0,3.9E1,2.9E1,5.5E1,1E0,1E0,4.1E1,5E0,1E0,1E0,7.8E2,2E0,2E0,1E0,1E0],"tree_param":{"num_deleted":"0","num_feature":"20","num_nodes":"87","size_leaf_vector":"0"}},{"base_weights":[-4.5399778E-2,-4.4855256E-2,-5.591336E-2,-9.2510335E-2,-4.4688154E-2,-6.0010597E-2,-3.657214E-2,-3.9736535E-2,-4.562767E-2,-6.538086E-2,-3.575066E-2,-3.806625E-2,-1.0068458E-2,-5.0727252E-2,-3.302985E-2,-1.1822164E-2,-4.5832615E-2,-3.0688941E-2,-6.898348E-2,-1.9071976E-2,-4.369112E-2,-5.368955E-2,-2.5013087E-2,-2.3049528E-2,-3.9686795E-2,-1.966642E-2,1.7621689E-2,-1.5534042E-2,-4.604511E-2,2.0705163E-5,-3.837153E-2,-7.2665766E-2,-3.6038894E-2,-5.547094E-2,-2.8115004E-2,-3.163306E-2,1.3973346E-2,1.290197E-2,-3.020462E-2,4.680206E-3,-4.1743234E-2,-1.9041944E-2,4.5106336E-3,-4.4783283E-2,-5.1271185E-2,-5.3032532E-2,-8.8219576E-2,-6.71688E-2,-4.8162248E-2,1.8224526E-2,-4.1027814E-2,-3.967364E-2,-1.3674067E-2,-1.55892605E-2,2.9745797E-2,5.4814138E-2,-3.361518E-2,-9.447687E-3,2.3531944E-2,-4.5194555E-2,-2.2158463E-2,-4.6159178E-2,-2.9249683E-2,-5.5324692E-2,-3.6871485E-2,-1.3337616E-2,-5.5060018E-2,-3.430942E-2,-9.490238E-2],"categories":[],"categories_nodes":[],"categories_segments":[],"categories_sizes":[],"default_left":[1,1,1,0,1,1,1,1,1,1,1,0,0,1,1,1,1,1,1,0,0,1,1,1,1,0,0,1,1,0,0,1,0,1,1,1,0,1,1,1,1,0,0,1,1,1,1,0,0,0,0,0,0,0,0,0,0,0,0,0,0,0,0,0,0,0,0,0,0],"id":47,"left_children":[1,3,5,-1,7,9,11,13,15,17,19,-1,-1,21,23,25,27,29,31,-1,-1,33,35,37,39,-1,-1,41,43,-1,-1,45,-1,47,49,51,-1,53,55,57,59,-1,-1,61,63,65,67,-1,-1,-1,-1,-1,-1,-1,-1,-1,-1,-1,-1,-1,-1,-1,-1,-1,-1,-1,-1,-1,-1],"loss_changes":[4.241705E-3,4.832506E-3,2.0845383E-3,0E0,3.415823E-3,3.2647252E-3,9.19234E-5,1.2108505E-2,5.9570074E-3,2.1323562E-3,4.910892E-4,0E0,0E0,3.913E-3,6.991416E-3,1.9633118E-3,5.285263E-3,1.180442E-3,1.0205507E-3,0E0,0E0,1.2194961E-3,2.7648224E-3,1.3251513E-2,6.5820217E-3,0E0,0E0,6.48409E-4,3.8036108E-3,0E0,0E0,3.261149E-3,0E0,1.5527755E-3,4.337954E-3,6.1270595E-4,0E0,4.782827E-3,1.4020972E-2,1.2876638E-3,3.5273135E-3,0E0,0E0,1.4743447E-2,8.057982E-3,3.9236248E-4,1.4274865E-3,0E0,0E0,0E0,0E0,0E0,0E0,0E0,0E0,0E0,0E0,0E0,0E0,0E0,0E0,0E0,0E0,0E0,0E0,0E0,0E0,0E0,0E0],"parents":[2147483647,0,0,1,1,2,2,4,4,5,5,6,6,7,7,8,8,9,9,10,10,13,13,14,14,15,15,16,16,17,17,18,18,21,21,22,22,23,23,24,24,27,27,28,28,31,31,33,33,34,34,35,35,37,37,38,38,39,39,40,40,43,43,44,44,45,45,46,46],"right_children":[2,4,6,-1,8,10,12,14,16,18,20,-1,-1,22,24,26,28,30,32,-1,-1,34,36,38,40,-1,-1,42,44,-1,-1,46,-1,48,50,52,-1,54,56,58,60,-1,-1,62,64,66,68,-1,-1,-1,-1,-1,-1,-1,-1,-1,-1,-1,-1,-1,-1,-1,-1,-1,-1,-1,-1,-1,-1],"split_conditions":[1.260472E6,-2.2400169E-1,1.2316645E0,-4.625517E-3,-7.84756E1,2.5414941E3,1.5301466E3,6.7491984E-1,-7.9717316E-2,1.3423536E1,-1.0574316E-1,-1.9033125E-3,-5.0342287E-4,4.793613E-1,6.930304E-2,5.2983612E1,3.10973E-1,1.7621708E-1,1.171453E-1,-9.535988E-4,-2.184556E-3,5.863687E-2,1.97724E3,1.8413401E3,6.9486654E-1,-9.83321E-4,8.810844E-4,5.747801E-1,1.421862E-1,1.0352582E-6,-1.9185765E-3,1.03774205E-1,-1.8019447E-3,2.7471054E-1,2.300254E3,3.6954742E1,6.986673E-4,3.250668E1,7.395208E-1,2.7682349E3,4.888063E-1,-9.5209724E-4,2.2553168E-4,5.8168497E0,1.3449792E-2,4.6692725E-2,-2.031211E2,-3.3584402E-3,-2.4081124E-3,9.112263E-4,-2.0513907E-3,-1.9836822E-3,-6.837034E-4,-7.7946304E-4,1.4872899E-3,2.740707E-3,-1.680759E-3,-4.7238436E-4,1.1765972E-3,-2.2597278E-3,-1.1079231E-3,-2.307959E-3,-1.4624841E-3,-2.7662346E-3,-1.8435743E-3,-6.668808E-4,-2.753001E-3,-1.715471E-3,-4.7451193E-3],"split_indices":[4,17,15,0,10,5,6,13,16,9,17,0,0,18,19,9,13,14,16,0,0,14,3,1,13,0,0,11,18,0,0,14,0,11,7,9,0,9,13,1,11,0,0,12,16,18,10,0,0,0,0,0,0,0,0,0,0,0,0,0,0,0,0,0,0,0,0,0,0],"split_type":[0,0,0,0,0,0,0,0,0,0,0,0,0,0,0,0,0,0,0,0,0,0,0,0,0,0,0,0,0,0,0,0,0,0,0,0,0,0,0,0,0,0,0,0,0,0,0,0,0,0,0,0,0,0,0,0,0,0,0,0,0,0,0,0,0,0,0,0,0],"sum_hessian":[1.178E3,1.125E3,5.3E1,2E0,1.123E3,4.2E1,1.1E1,1.86E2,9.37E2,3.3E1,9E0,1E1,1E0,6.8E1,1.18E2,6E0,9.31E2,4E0,2.9E1,4E0,5E0,6E1,8E0,4.9E1,6.9E1,5E0,1E0,7E0,9.24E2,1E0,3E0,2.5E1,4E0,5.5E1,5E0,7E0,1E0,8E0,4.1E1,3E0,6.6E1,6E0,1E0,7.52E2,1.72E2,1.3E1,1.2E1,1.8E1,3.7E1,1E0,4E0,4E0,3E0,3E0,5E0,1E0,4E1,2E0,1E0,5.5E1,1.1E1,6.89E2,6.3E1,1.32E2,4E1,1E0,1.2E1,2E0,1E1],"tree_param":{"num_deleted":"0","num_feature":"20","num_nodes":"69","size_leaf_vector":"0"}},{"base_weights":[-4.316605E-2,-4.8257496E-2,-4.2114276E-2,-4.558637E-2,-6.4597696E-2,3.791148E-2,-4.2479225E-2,-4.7337297E-2,-3.000001E-2,-9.235739E-2,-4.867129E-2,8.698479E-2,-2.3798993E-2,-6.1455134E-2,-4.2220507E-2,-4.425381E-2,-6.1231244E-2,-3.3777945E-2,2.0890359E-2,-5.041313E-2,-9.5300125E-3,-7.6170385E-2,-1.6660858E-2,1.3418306E-2,-4.234919E-2,-5.839882E-2,-4.0428054E-2,-2.0048862E-2,-6.81208E-2,-5.156655E-3,-3.5081536E-2,-5.714473E-2,-3.2633025E-2,1.9237245E-2,8.90214E-4,-4.1172944E-2,-4.6235666E-2,-1.113125E-2,-5.99045E-2,-4.5916338E-2,-3.2211937E-2,-2.779947E-2,5.4767877E-3,-8.817827E-2,-5.1793613E-2,-3.6307648E-2,-7.118793E-3,-5.1743537E-3,-3.6347076E-2,-4.1925136E-2,-2.999721E-2,-4.7927793E-2,-2.3509001E-2,-6.7018874E-2,-3.7298396E-2,-4.9294744E-2,-3.1294815E-2,-2.2926176E-2,-4.3712128E-2,-8.765213E-3,-5.4429244E-2,-1.0196665E-2,-3.7302293E-2,-4.2553425E-2,-2.8717984E-2,-3.3503674E-2,1.8852139E-3,-4.0033817E-2,-5.2023392E-2,1.3251399E-2,-2.9293815E-2],"categories":[],"categories_nodes":[],"categories_segments":[],"categories_sizes":[],"default_left":[1,1,1,1,1,1,1,1,1,0,1,0,0,1,1,1,1,1,0,1,0,0,0,1,1,1,1,1,1,0,1,0,1,0,0,1,1,0,1,1,1,0,0,0,1,1,0,0,0,1,1,1,1,0,0,0,0,0,0,0,0,0,0,0,0,0,0,0,0,0,0],"id":48,"left_children":[1,3,5,7,9,11,13,15,17,-1,19,-1,-1,21,23,25,27,29,-1,31,-1,-1,-1,33,35,37,39,41,43,-1,45,-1,47,-1,-1,49,51,-1,53,55,57,-1,-1,-1,59,61,-1,-1,-1,63,65,67,69,-1,-1,-1,-1,-1,-1,-1,-1,-1,-1,-1,-1,-1,-1,-1,-1,-1,-1],"loss_changes":[4.281521E-3,5.5663288E-3,3.0377626E-2,3.2465458E-3,6.557651E-3,1.7211836E-2,2.221465E-3,3.80224E-3,4.5508426E-3,0E0,7.467605E-4,0E0,0E0,5.9816837E-3,7.5205564E-3,4.565805E-3,5.72747E-3,5.279947E-4,0E0,1.6989931E-4,0E0,0E0,0E0,2.0157534E-4,2.5260448E-3,1.1124313E-3,3.2105595E-3,1.1414485E-3,2.3100525E-3,0E0,3.5867095E-4,0E0,5.258089E-4,0E0,0E0,5.072236E-3,7.2183013E-3,0E0,1.360178E-3,1.4211684E-3,3.8033128E-3,0E0,0E0,0E0,1.1106133E-3,6.11525E-5,0E0,0E0,0E0,4.611373E-3,5.764678E-3,4.4157803E-3,4.0032687E-3,0E0,0E0,0E0,0E0,0E0,0E0,0E0,0E0,0E0,0E0,0E0,0E0,0E0,0E0,0E0,0E0,0E0,0E0],"parents":[2147483647,0,0,1,1,2,2,3,3,4,4,5,5,6,6,7,7,8,8,10,10,13,13,14,14,15,15,16,16,17,17,19,19,23,23,24,24,25,25,26,26,27,27,28,28,30,30,32,32,35,35,36,36,38,38,39,39,40,40,44,44,45,45,49,49,50,50,51,51,52,52],"right_children":[2,4,6,8,10,12,14,16,18,-1,20,-1,-1,22,24,26,28,30,-1,32,-1,-1,-1,34,36,38,40,42,44,-1,46,-1,48,-1,-1,50,52,-1,54,56,58,-1,-1,-1,60,62,-1,-1,-1,64,66,68,70,-1,-1,-1,-1,-1,-1,-1,-1,-1,-1,-1,-1,-1,-1,-1,-1,-1,-1],"split_conditions":[1.5741458E3,1.5627E3,1.5773785E3,1.476715E3,-2.4997016E-2,1.644385E3,-1.9580612E-1,1.34113E3,8.260625E0,-4.6178694E-3,2.091511E0,4.3492396E-3,-1.1899497E-3,2.440545E3,-1.8718836E-1,1.200845E3,-4.623607E1,4.1303524E-1,1.044518E-3,1.58831E3,-4.7650063E-4,-3.8085193E-3,-8.330429E-4,1.5129E3,4.5470975E-2,1.1298229E3,1.0595806E-1,1.3886699E3,1.4590549E3,-2.5783275E-4,9.716844E1,-2.8572367E-3,1.5949299E3,9.618622E-4,4.45107E-5,3.5475615E-2,3.3930747E3,-5.565625E-4,1.3529608E6,7.0524825E5,5.6407494E1,-1.3899736E-3,2.738394E-4,-4.4089137E-3,1.3355049E3,2.5663754E1,-3.5593967E-4,-2.587177E-4,-1.8173539E-3,9.483499E5,2.4995254E-1,3.0411053E-3,2.1986269E5,-3.3509438E-3,-1.8649198E-3,-2.4647373E-3,-1.5647408E-3,-1.1463088E-3,-2.1856064E-3,-4.3826067E-4,-2.7214622E-3,-5.098333E-4,-1.8651147E-3,-2.1276714E-3,-1.4358992E-3,-1.6751838E-3,9.426069E-5,-2.001691E-3,-2.6011697E-3,6.6256995E-4,-1.4646908E-3],"split_indices":[5,0,5,2,16,1,17,3,12,0,13,0,0,0,17,1,10,13,0,0,0,0,0,0,17,7,19,1,1,0,9,0,0,0,0,17,6,0,4,4,9,0,0,0,2,9,0,0,0,4,19,16,4,0,0,0,0,0,0,0,0,0,0,0,0,0,0,0,0,0,0],"split_type":[0,0,0,0,0,0,0,0,0,0,0,0,0,0,0,0,0,0,0,0,0,0,0,0,0,0,0,0,0,0,0,0,0,0,0,0,0,0,0,0,0,0,0,0,0,0,0,0,0,0,0,0,0,0,0,0,0,0,0,0,0,0,0,0,0,0,0,0,0,0,0],"sum_hessian":[1.178E3,1.94E2,9.84E2,1.7E2,2.4E1,4E0,9.8E2,1.51E2,1.9E1,7E0,1.7E1,2E0,2E0,1E1,9.7E2,1.27E2,2.4E1,1.8E1,1E0,1.6E1,1E0,7E0,3E0,2E0,9.68E2,2.4E1,1.03E2,4E0,2E1,1E0,1.7E1,1E1,6E0,1E0,1E0,7.52E2,2.16E2,1E0,2.3E1,5.9E1,4.4E1,3E0,1E0,7E0,1.3E1,1.6E1,1E0,1E0,5E0,7.02E2,5E1,2E2,1.6E1,1.6E1,7E0,4.6E1,1.3E1,2.6E1,1.8E1,1E0,1.2E1,1E0,1.5E1,6.68E2,3.4E1,4.5E1,5E0,7.2E1,1.28E2,2E0,1.4E1],"tree_param":{"num_deleted":"0","num_feature":"20","num_nodes":"71","size_leaf_vector":"0"}},{"base_weights":[-4.104576E-2,-4.051744E-2,-5.1302116E-2,-8.704016E-2,-4.035722E-2,-5.4932754E-2,-3.2115743E-2,-3.576765E-2,-4.1229174E-2,-3.139427E-2,-5.9291463E-2,-3.355046E-2,-8.884288E-3,-4.6266876E-2,-2.9379293E-2,-9.798837E-3,-4.1421E-2,-3.7427634E-2,-6.8516657E-3,-6.993159E-2,-4.609074E-2,-4.902723E-2,-2.2417037E-2,-1.7659709E-2,-3.4452036E-2,-1.739834E-2,1.7899096E-2,-1.3024853E-2,-4.162181E-2,-4.313656E-2,-1.5436881E-2,5.933419E-4,-1.087084E-2,-1.9465534E-2,-7.5023256E-2,-1.1791423E-2,-4.734118E-2,-1.4296852E-2,-4.996221E-2,-2.889113E-2,1.4687847E-2,4.3539103E-4,-2.7086575E-2,-2.1279009E-2,-3.9536066E-2,-9.3530305E-3,-2.2325976E-2,-1.6446032E-2,5.461702E-3,-4.0415898E-2,-4.663007E-2,-3.1837605E-2,-8.2540125E-2,-4.849162E-2,-1.3891852E-2,-5.178816E-2,-2.5201637E-2,-3.658083E-2,-1.2056218E-2,2.4920898E-2,-2.104385E-2,2.400748E-2,-3.0215805E-2,2.972081E-2,-2.9584475E-2,-4.056394E-2,9.52642E-3,-4.169074E-2,-2.6040029E-2,-5.044517E-2,-3.3116933E-2,-8.6016394E-2,-2.0412445E-2],"categories":[],"categories_nodes":[],"categories_segments":[],"categories_sizes":[],"default_left":[1,1,1,0,1,1,1,1,1,1,1,0,0,1,1,1,1,1,1,1,1,1,1,1,1,1,0,1,1,0,0,0,0,0,1,0,1,0,1,1,0,1,1,1,1,0,0,0,0,1,1,0,1,0,0,0,0,0,0,0,0,0,0,0,0,0,0,0,0,0,0,0,0],"id":49,"left_children":[1,3,5,-1,7,9,11,13,15,17,19,-1,-1,21,23,25,27,29,31,33,35,37,39,41,43,45,-1,47,49,-1,-1,-1,-1,-1,51,-1,53,-1,55,57,-1,59,61,63,65,-1,-1,-1,-1,67,69,-1,71,-1,-1,-1,-1,-1,-1,-1,-1,-1,-1,-1,-1,-1,-1,-1,-1,-1,-1,-1,-1],"loss_changes":[4.3098927E-3,4.880309E-3,1.9973516E-3,0E0,3.0235052E-3,2.6528835E-3,6.856397E-5,1.1183336E-2,5.2495003E-3,1.076227E-3,1.8332601E-3,0E0,0E0,3.4435093E-3,6.46618E-3,1.7848485E-3,4.7723055E-3,2.1291152E-4,9.6218486E-5,3.1648427E-3,2.566725E-4,1.2664944E-3,2.5863321E-3,6.4938376E-3,4.650429E-3,2.9050629E-5,0E0,5.9579E-4,3.7019253E-3,0E0,0E0,0E0,0E0,0E0,2.5660545E-3,0E0,1.9025058E-5,0E0,1.3623387E-3,5.9461733E-4,0E0,7.887453E-3,4.7225337E-3,1.1468707E-2,3.3113733E-3,0E0,0E0,0E0,0E0,1.2714505E-2,7.2482824E-3,0E0,1.0518432E-3,0E0,0E0,0E0,0E0,0E0,0E0,0E0,0E0,0E0,0E0,0E0,0E0,0E0,0E0,0E0,0E0,0E0,0E0,0E0,0E0],"parents":[2147483647,0,0,1,1,2,2,4,4,5,5,6,6,7,7,8,8,9,9,10,10,13,13,14,14,15,15,16,16,17,17,18,18,19,19,20,20,21,21,22,22,23,23,24,24,25,25,27,27,28,28,34,34,36,36,38,38,39,39,41,41,42,42,43,43,44,44,49,49,50,50,52,52],"right_children":[2,4,6,-1,8,10,12,14,16,18,20,-1,-1,22,24,26,28,30,32,34,36,38,40,42,44,46,-1,48,50,-1,-1,-1,-1,-1,52,-1,54,-1,56,58,-1,60,62,64,66,-1,-1,-1,-1,68,70,-1,72,-1,-1,-1,-1,-1,-1,-1,-1,-1,-1,-1,-1,-1,-1,-1,-1,-1,-1,-1,-1],"split_conditions":[1.260472E6,-2.2400169E-1,1.2330419E0,-4.3520085E-3,-7.84756E1,-2.3394293E-1,1.5301466E3,6.7491984E-1,-7.9717316E-2,1.0857048E1,1.44679E3,-1.677523E-3,-4.442144E-4,4.793613E-1,1.6979921E-1,5.2983612E1,3.10973E-1,2.30235E3,1.22344E3,4.770246E-2,1.5616799E3,3.980818E-2,1.97724E3,5.296996E-2,5.6726582E-2,2.81199E3,8.9495484E-4,5.747801E-1,1.421862E-1,-2.156828E-3,-7.7184406E-4,2.9667095E-5,-5.4354203E-4,-9.7327674E-4,1.09165E3,-5.8957114E-4,3.605135E3,-7.1484264E-4,5.863687E-2,3.6954742E1,7.343924E-4,4.3746762E-2,7.1582687E-1,4.792475E5,5.3143585E-1,-4.6765152E-4,-1.1162988E-3,-8.223016E-4,2.730851E-4,5.8168497E0,1.3449792E-2,-1.5918802E-3,1.664E3,-2.424581E-3,-6.9459266E-4,-2.589408E-3,-1.2600819E-3,-1.8290415E-3,-6.0281093E-4,1.2460449E-3,-1.0521925E-3,1.2003741E-3,-1.5107903E-3,1.4860405E-3,-1.4792237E-3,-2.028197E-3,4.7632103E-4,-2.0845372E-3,-1.3020014E-3,-2.5222586E-3,-1.6558467E-3,-4.3008197E-3,-1.0206223E-3],"split_indices":[4,17,15,0,10,17,6,13,16,12,2,0,0,18,18,9,13,0,0,18,0,19,3,19,11,0,0,11,18,0,0,0,0,0,0,0,5,0,14,9,0,14,13,4,11,0,0,0,0,12,16,0,1,0,0,0,0,0,0,0,0,0,0,0,0,0,0,0,0,0,0,0,0],"split_type":[0,0,0,0,0,0,0,0,0,0,0,0,0,0,0,0,0,0,0,0,0,0,0,0,0,0,0,0,0,0,0,0,0,0,0,0,0,0,0,0,0,0,0,0,0,0,0,0,0,0,0,0,0,0,0,0,0,0,0,0,0,0,0,0,0,0,0,0,0,0,0,0,0],"sum_hessian":[1.178E3,1.125E3,5.3E1,2E0,1.123E3,4.3E1,1E1,1.86E2,9.37E2,8E0,3.5E1,9E0,1E0,6.8E1,1.18E2,6E0,9.31E2,6E0,2E0,1.7E1,1.8E1,6E1,8E0,3.7E1,8.1E1,5E0,1E0,7E0,9.24E2,4E0,2E0,1E0,1E0,2E0,1.5E1,1E0,1.7E1,2E0,5.8E1,7E0,1E0,1.3E1,2.4E1,2.4E1,5.7E1,3E0,2E0,6E0,1E0,7.52E2,1.72E2,3E0,1.2E1,1.6E1,1E0,5.3E1,5E0,4E0,3E0,6E0,7E0,1E0,2.3E1,3E0,2.1E1,5.6E1,1E0,6.89E2,6.3E1,1.32E2,4E1,1.1E1,1E0],"tree_param":{"num_deleted":"0","num_feature":"20","num_nodes":"73","size_leaf_vector":"0"}},{"base_weights":[-3.9025903E-2,-3.8510285E-2,-4.9054783E-2,-8.413882E-2,-3.835424E-2,-5.0931294E-2,-2.0478733E-2,-3.713972E-2,-4.168759E-2,-5.44601E-2,-3.1370047E-2,-3.8448166E-2,-2.9274337E-2,-4.310969E-2,-1.8985368E-2,-6.255052E-2,-4.1800108E-2,-1.3813903E-2,-3.6920696E-2,-3.8771305E-2,-1.1919001E-2,-3.264564E-2,-9.102701E-3,-4.5887828E-2,-3.5268113E-2,9.114028E-3,-2.7086142E-2,-3.9750982E-2,-7.206021E-2,-4.553888E-2,-6.6803745E-3,-3.89858E-2,-7.392031E-3,6.587456E-3,-2.535455E-2,-4.318838E-2,-2.8054485E-2,6.2011477E-2,-2.1116808E-2,-4.21352E-2,-5.4284126E-2,2.7459548E-3,-3.8565688E-2,1.9375827E-2,-1.5966583E-2,1.1352769E-2,-3.387311E-2,-1.1424735E-2,-4.1863672E-2,-7.651367E-2,-2.8741837E-2,-1.1496637E-2,-4.694798E-2,5.785078E-4,-1.0599069E-2,-1.43266795E-2,-3.9251324E-2,7.0049777E-3,-1.634178E-2,-1.0131709E-2,1.3300175E-2,-8.558693E-3,-3.1612802E-2,-3.2310694E-2,-5.3312108E-2,-2.8947553E-2,1.946279E-2,-3.1625062E-2,1.0428011E-2,-4.304442E-2,-8.6137E-3,-6.8814434E-2,-4.349298E-2,2.2040013E-2,-9.379671E-3,1.694666E-2,-4.0447623E-2,2.3683626E-3,2.4255527E-2,1.8930705E-2,-1.9015521E-3,-6.82043E-3,-3.5559133E-2,-2.9496962E-2,-8.2380615E-2,-5.9927694E-2,-3.5600137E-2],"categories":[],"categories_nodes":[],"categories_segments":[],"categories_sizes":[],"default_left":[1,1,1,0,1,1,0,1,1,1,1,1,1,1,1,1,1,0,0,1,1,1,1,1,1,1,1,1,1,1,1,1,1,1,1,1,1,0,1,1,1,1,1,1,0,1,1,0,0,1,0,0,1,0,0,0,0,0,0,0,0,0,0,0,0,0,0,0,0,0,0,0,0,0,0,0,0,0,0,0,0,0,0,0,0,0,0],"id":50,"left_children":[1,3,5,-1,7,9,-1,11,13,15,17,19,21,23,25,27,29,-1,-1,31,33,35,37,39,41,43,45,47,49,51,53,55,57,59,61,63,65,-1,67,69,71,73,75,77,-1,79,81,-1,-1,83,-1,-1,85,-1,-1,-1,-1,-1,-1,-1,-1,-1,-1,-1,-1,-1,-1,-1,-1,-1,-1,-1,-1,-1,-1,-1,-1,-1,-1,-1,-1,-1,-1,-1,-1,-1,-1],"loss_changes":[4.207611E-3,4.790187E-3,1.8526465E-3,0E0,3.0020475E-3,1.7429739E-3,0E0,7.4472427E-3,8.608758E-3,1.5847906E-3,4.644608E-4,5.6329966E-3,8.067407E-3,4.350662E-3,4.571774E-3,2.1223202E-3,2.190575E-3,0E0,0E0,4.4367313E-3,2.6534656E-3,3.8707256E-3,1.7542578E-2,3.982872E-3,9.632826E-3,1.5962266E-3,4.2978087E-3,6.031897E-5,6.946027E-4,