{"learner":{"attributes":{"best_iteration":"199","best_ntree_limit":"200","scikit_learn":"{\"n_estimators\": 200, \"objective\": \"reg:squarederror\", \"max_depth\": 7, \"max_leaves\": null, \"max_bin\": null, \"grow_policy\": null, \"learning_rate\": 0.05, \"verbosity\": null, \"booster\": null, \"tree_method\": null, \"gamma\": null, \"min_child_weight\": null, \"max_delta_step\": null, \"subsample\": null, \"sampling_method\": null, \"colsample_bytree\": null, \"colsample_bylevel\": null, \"colsample_bynode\": null, \"reg_alpha\": null, \"reg_lambda\": null, \"scale_pos_weight\": null, \"base_score\": null, \"missing\": NaN, \"num_parallel_tree\": null, \"random_state\": 42, \"n_jobs\": null, \"monotone_constraints\": null, \"interaction_constraints\": null, \"importance_type\": null, \"gpu_id\": null, \"validate_parameters\": null, \"predictor\": null, \"enable_categorical\": false, \"feature_types\": null, \"max_cat_to_onehot\": null, \"max_cat_threshold\": null, \"eval_metric\": null, \"early_stopping_rounds\": null, \"callbacks\": null, \"evals_result_\": {\"validation_0\": {\"rmse\": [0.4735523736940587, 0.4499575647004722, 0.4275507836509909, 0.40627317904889115, 0.38606880056195997, 0.36688460199196343, 0.3486701709149933, 0.3313776446995474, 0.3149615837934135, 0.2993788306569939, 0.28458844500386465, 0.2705515285773511, 0.25722283513235966, 0.2445838321506492, 0.23258544372902293, 0.22120583235781402, 0.21041322194321746, 0.20017920190245111, 0.19048082389575058, 0.18128076907833415, 0.17256268040599493, 0.1643034686439017, 0.15653184186816196, 0.14914675195565594, 0.1421521793189601, 0.13556097359941044, 0.12929793839180817, 0.12336374233400994, 0.11778265302204088, 0.11253790031938189, 0.10756238592923899, 0.10293215453850672, 0.0986902947657413, 0.09445204937082294, 0.09055103579961013, 0.08698527034355016, 0.08361494067815074, 0.08046400651484056, 0.07737467648271558, 0.07454379487552384, 0.07183514383335761, 0.06934944342578579, 0.06727339219233881, 0.06514578291036907, 0.06314575064727478, 0.06145296158666573, 0.0597411756289767, 0.05835545289759558, 0.05699802208384187, 0.05560659419079161, 0.05437702807128764, 0.05319220738247164, 0.05221203994652294, 0.05125687877514223, 0.05037293291747543, 0.04961017666401795, 0.04890973246908811, 0.04816101845141011, 0.04757171050891393, 0.04707077223230208, 0.04650090646230622, 0.04590634460493948, 0.04547111113084161, 0.04503840066939562, 0.04464688969319452, 0.04432516722855906, 0.044002873239689, 0.0437167790864048, 0.04340154468007729, 0.04319332268105087, 0.04294810641288224, 0.04275277981524109, 0.04261506327509441, 0.04246181383812512, 0.04226977314957673, 0.04217160959133136, 0.04209839410996589, 0.04199321738829885, 0.04188267853303081, 0.04179526854085037, 0.04169086584189188, 0.04167867710340072, 0.04158534576089873, 0.04153753935394826, 0.04154792836525521, 0.04156252845311442, 0.04151793303336431, 0.0414876156070266, 0.04142495507054458, 0.04146150687541975, 0.04143687388866917, 0.04145996130405514, 0.04145877025499608, 0.04139344874734186, 0.04137262774853562, 0.04135427280818067, 0.04127239966892099, 0.0412720047445522, 0.04128819148886863, 0.04126351007652598, 0.04124106048743861, 0.04118863553259432, 0.04119084974808069, 0.04118207540168882, 0.04118227590830836, 0.04118899518937685, 0.04120512096907771, 0.04122023257360984, 0.04121574317318314, 0.04121474834481944, 0.04122924294919585, 0.04120829239740383, 0.04120980394522305, 0.0412026917914757, 0.04115249267684026, 0.04114148927209063, 0.04104466222399682, 0.0410346920131095, 0.04105219314436506, 0.04105664971733954, 0.04104047328331768, 0.04103989787168794, 0.04101470874311781, 0.04101642453526223, 0.04101969193367225, 0.04099519456523339, 0.04100755201740986, 0.04099767717252002, 0.04102555427419644, 0.04104950874921742, 0.04099300404331698, 0.04100142599974149, 0.04098316404124554, 0.04099150154143546, 0.04102286619535998, 0.04104266563291711, 0.0410636627641497, 0.04108973511345564, 0.0410858274983281, 0.04106808698652432, 0.04102225578039981, 0.04098782088322016, 0.04095317303075429, 0.04094577661210037, 0.04097803034053861, 0.04097421223363021, 0.04096925890204214, 0.04096902665905202, 0.04096284623810301, 0.04100687355413006, 0.04101614460726, 0.04103968599014651, 0.04101880391530844, 0.04099836014797829, 0.04106005614804913, 0.04104756626146363, 0.04108792055727501, 0.04107970416135646, 0.0410665326958991, 0.0410681255940771, 0.04104751623667503, 0.04110835853616209, 0.04113310632548211, 0.04112161384343743, 0.04114860145812112, 0.04115912491958784, 0.04115474649811072, 0.04117860254907232, 0.04119024242399971, 0.04119212293529868, 0.04117934339224527, 0.04117932224689645, 0.04120227322430105, 0.04118259694908686, 0.04120102411002641, 0.04120540981332983, 0.04122444899280447, 0.04125849694623412, 0.04126709902813811, 0.04127396413129678, 0.04127018169847482, 0.04127523046943294, 0.04130600777826096, 0.04130595960362784, 0.04131374431274503, 0.04130748819104337, 0.04129571084801858, 0.04129258317175471, 0.04131704861242482, 0.04133521410870525, 0.04136457501016465, 0.04137304556412319, 0.04136353702443945, 0.04137620074748468, 0.04137717473219479, 0.04138061424948975, 0.04137894324070596, 0.04138476586002024, 0.04140885145248357, 0.04141570165722577]}}, \"_estimator_type\": \"regressor\"}"},"feature_names":[],"feature_types":[],"gradient_booster":{"model":{"gbtree_model_param":{"num_parallel_tree":"1","num_trees":"200","size_leaf_vector":"0"},"tree_info":[0,0,0,0,0,0,0,0,0,0,0,0,0,0,0,0,0,0,0,0,0,0,0,0,0,0,0,0,0,0,0,0,0,0,0,0,0,0,0,0,0,0,0,0,0,0,0,0,0,0,0,0,0,0,0,0,0,0,0,0,0,0,0,0,0,0,0,0,0,0,0,0,0,0,0,0,0,0,0,0,0,0,0,0,0,0,0,0,0,0,0,0,0,0,0,0,0,0,0,0,0,0,0,0,0,0,0,0,0,0,0,0,0,0,0,0,0,0,0,0,0,0,0,0,0,0,0,0,0,0,0,0,0,0,0,0,0,0,0,0,0,0,0,0,0,0,0,0,0,0,0,0,0,0,0,0,0,0,0,0,0,0,0,0,0,0,0,0,0,0,0,0,0,0,0,0,0,0,0,0,0,0,0,0,0,0,0,0,0,0,0,0,0,0,0,0,0,0,0,0],"trees":[{"base_weights":[-4.986187E-1],"categories":[],"categories_nodes":[],"categories_segments":[],"categories_sizes":[],"default_left":[0],"id":0,"left_children":[-1],"loss_changes":[0E0],"parents":[2147483647],"right_children":[-1],"split_conditions":[-2.4930935E-2],"split_indices":[0],"split_type":[0],"sum_hessian":[1.178E3],"tree_param":{"num_deleted":"0","num_feature":"20","num_nodes":"1","size_leaf_vector":"0"}},{"base_weights":[-4.7370893E-1],"categories":[],"categories_nodes":[],"categories_segments":[],"categories_sizes":[],"default_left":[0],"id":1,"left_children":[-1],"loss_changes":[0E0],"parents":[2147483647],"right_children":[-1],"split_conditions":[-2.3685446E-2],"split_indices":[0],"split_type":[0],"sum_hessian":[1.178E3],"tree_param":{"num_deleted":"0","num_feature":"20","num_nodes":"1","size_leaf_vector":"0"}},{"base_weights":[-4.5004356E-1],"categories":[],"categories_nodes":[],"categories_segments":[],"categories_sizes":[],"default_left":[0],"id":2,"left_children":[-1],"loss_changes":[0E0],"parents":[2147483647],"right_children":[-1],"split_conditions":[-2.2502178E-2],"split_indices":[0],"split_type":[0],"sum_hessian":[1.178E3],"tree_param":{"num_deleted":"0","num_feature":"20","num_nodes":"1","size_leaf_vector":"0"}},{"base_weights":[-4.2756045E-1],"categories":[],"categories_nodes":[],"categories_segments":[],"categories_sizes":[],"default_left":[0],"id":3,"left_children":[-1],"loss_changes":[0E0],"parents":[2147483647],"right_children":[-1],"split_conditions":[-2.1378024E-2],"split_indices":[0],"split_type":[0],"sum_hessian":[1.178E3],"tree_param":{"num_deleted":"0","num_feature":"20","num_nodes":"1","size_leaf_vector":"0"}},{"base_weights":[-4.062006E-1],"categories":[],"categories_nodes":[],"categories_segments":[],"categories_sizes":[],"default_left":[0],"id":4,"left_children":[-1],"loss_changes":[0E0],"parents":[2147483647],"right_children":[-1],"split_conditions":[-2.031003E-2],"split_indices":[0],"split_type":[0],"sum_hessian":[1.178E3],"tree_param":{"num_deleted":"0","num_feature":"20","num_nodes":"1","size_leaf_vector":"0"}},{"base_weights":[-3.8590777E-1],"categories":[],"categories_nodes":[],"categories_segments":[],"categories_sizes":[],"default_left":[0],"id":5,"left_children":[-1],"loss_changes":[0E0],"parents":[2147483647],"right_children":[-1],"split_conditions":[-1.9295389E-2],"split_indices":[0],"split_type":[0],"sum_hessian":[1.178E3],"tree_param":{"num_deleted":"0","num_feature":"20","num_nodes":"1","size_leaf_vector":"0"}},{"base_weights":[-3.6662874E-1],"categories":[],"categories_nodes":[],"categories_segments":[],"categories_sizes":[],"default_left":[0],"id":6,"left_children":[-1],"loss_changes":[0E0],"parents":[2147483647],"right_children":[-1],"split_conditions":[-1.8331436E-2],"split_indices":[0],"split_type":[0],"sum_hessian":[1.178E3],"tree_param":{"num_deleted":"0","num_feature":"20","num_nodes":"1","size_leaf_vector":"0"}},{"base_weights":[-3.4831285E-1],"categories":[],"categories_nodes":[],"categories_segments":[],"categories_sizes":[],"default_left":[0],"id":7,"left_children":[-1],"loss_changes":[0E0],"parents":[2147483647],"right_children":[-1],"split_conditions":[-1.7415643E-2],"split_indices":[0],"split_type":[0],"sum_hessian":[1.178E3],"tree_param":{"num_deleted":"0","num_feature":"20","num_nodes":"1","size_leaf_vector":"0"}},{"base_weights":[-3.3091196E-1],"categories":[],"categories_nodes":[],"categories_segments":[],"categories_sizes":[],"default_left":[0],"id":8,"left_children":[-1],"loss_changes":[0E0],"parents":[2147483647],"right_children":[-1],"split_conditions":[-1.65456E-2],"split_indices":[0],"split_type":[0],"sum_hessian":[1.178E3],"tree_param":{"num_deleted":"0","num_feature":"20","num_nodes":"1","size_leaf_vector":"0"}},{"base_weights":[-3.143804E-1],"categories":[],"categories_nodes":[],"categories_segments":[],"categories_sizes":[],"default_left":[0],"id":9,"left_children":[-1],"loss_changes":[0E0],"parents":[2147483647],"right_children":[-1],"split_conditions":[-1.571902E-2],"split_indices":[0],"split_type":[0],"sum_hessian":[1.178E3],"tree_param":{"num_deleted":"0","num_feature":"20","num_nodes":"1","size_leaf_vector":"0"}},{"base_weights":[-2.986747E-1],"categories":[],"categories_nodes":[],"categories_segments":[],"categories_sizes":[],"default_left":[0],"id":10,"left_children":[-1],"loss_changes":[0E0],"parents":[2147483647],"right_children":[-1],"split_conditions":[-1.4933735E-2],"split_indices":[0],"split_type":[0],"sum_hessian":[1.178E3],"tree_param":{"num_deleted":"0","num_feature":"20","num_nodes":"1","size_leaf_vector":"0"}},{"base_weights":[-2.8375363E-1],"categories":[],"categories_nodes":[],"categories_segments":[],"categories_sizes":[],"default_left":[0],"id":11,"left_children":[-1],"loss_changes":[0E0],"parents":[2147483647],"right_children":[-1],"split_conditions":[-1.41876815E-2],"split_indices":[0],"split_type":[0],"sum_hessian":[1.178E3],"tree_param":{"num_deleted":"0","num_feature":"20","num_nodes":"1","size_leaf_vector":"0"}},{"base_weights":[-2.6957798E-1,-2.6974744E-1,-1.13238536E-1],"categories":[],"categories_nodes":[],"categories_segments":[],"categories_sizes":[],"default_left":[1,0,0],"id":12,"left_children":[1,-1,-1],"loss_changes":[6.866455E-4,0E0,0E0],"parents":[2147483647,0,0],"right_children":[2,-1,-1],"split_conditions":[2.9717562E7,-1.3487372E-2,-5.6619267E-3],"split_indices":[4,0,0],"split_type":[0,0,0],"sum_hessian":[1.178E3,1.176E3,2E0],"tree_param":{"num_deleted":"0","num_feature":"20","num_nodes":"3","size_leaf_vector":"0"}},{"base_weights":[-2.5611535E-1],"categories":[],"categories_nodes":[],"categories_segments":[],"categories_sizes":[],"default_left":[0],"id":13,"left_children":[-1],"loss_changes":[0E0],"parents":[2147483647],"right_children":[-1],"split_conditions":[-1.2805767E-2],"split_indices":[0],"split_type":[0],"sum_hessian":[1.178E3],"tree_param":{"num_deleted":"0","num_feature":"20","num_nodes":"1","size_leaf_vector":"0"}},{"base_weights":[-2.4332044E-1,-2.4347664E-1,-1.00926735E-1],"categories":[],"categories_nodes":[],"categories_segments":[],"categories_sizes":[],"default_left":[1,0,0],"id":14,"left_children":[1,-1,-1],"loss_changes":[1.6479492E-3,0E0,0E0],"parents":[2147483647,0,0],"right_children":[2,-1,-1],"split_conditions":[2.9717562E7,-1.2173832E-2,-5.046337E-3],"split_indices":[4,0,0],"split_type":[0,0,0],"sum_hessian":[1.178E3,1.176E3,2E0],"tree_param":{"num_deleted":"0","num_feature":"20","num_nodes":"3","size_leaf_vector":"0"}},{"base_weights":[-2.3116902E-1,-1.630949E-1,-2.316705E-1,-1.8538025E-1,4.1021973E-2,-2.3176704E-1,-5.949647E-2],"categories":[],"categories_nodes":[],"categories_segments":[],"categories_sizes":[],"default_left":[1,1,1,0,0,0,0],"id":15,"left_children":[1,3,5,-1,-1,-1,-1],"loss_changes":[2.4604797E-3,6.2190443E-2,5.630493E-3,0E0,0E0,0E0,0E0],"parents":[2147483647,0,0,1,1,2,2],"right_children":[2,4,6,-1,-1,-1,-1],"split_conditions":[-1.5604794E-1,-1.6539541E-1,2.9717562E7,-9.269013E-3,2.0510987E-3,-1.1588353E-2,-2.9748236E-3],"split_indices":[11,11,4,0,0,0,0],"split_type":[0,0,0,0,0,0,0],"sum_hessian":[1.178E3,1.1E1,1.167E3,1E1,1E0,1.166E3,1E0],"tree_param":{"num_deleted":"0","num_feature":"20","num_nodes":"7","size_leaf_vector":"0"}},{"base_weights":[-2.1962905E-1,-1.5554164E-1,-2.2009943E-1,-1.7695387E-1,3.9996423E-2,-2.2018863E-1,-5.800906E-2],"categories":[],"categories_nodes":[],"categories_segments":[],"categories_sizes":[],"default_left":[1,1,1,0,0,0,0],"id":16,"left_children":[1,3,5,-1,-1,-1,-1],"loss_changes":[1.3084412E-3,5.7320386E-2,4.1122437E-3,0E0,0E0,0E0,0E0],"parents":[2147483647,0,0,1,1,2,2],"right_children":[2,4,6,-1,-1,-1,-1],"split_conditions":[-1.5604794E-1,-1.6539541E-1,2.9717562E7,-8.847694E-3,1.9998213E-3,-1.1009431E-2,-2.900453E-3],"split_indices":[11,11,4,0,0,0,0],"split_type":[0,0,0,0,0,0,0],"sum_hessian":[1.178E3,1.1E1,1.167E3,1E1,1E0,1.166E3,1E0],"tree_param":{"num_deleted":"0","num_feature":"20","num_nodes":"7","size_leaf_vector":"0"}},{"base_weights":[-2.086652E-1,-1.4833522E-1,-2.0910639E-1,-1.689105E-1,3.899651E-2,-2.0918864E-1,-5.6558833E-2],"categories":[],"categories_nodes":[],"categories_segments":[],"categories_sizes":[],"default_left":[1,1,1,0,0,0,0],"id":17,"left_children":[1,3,5,-1,-1,-1,-1],"loss_changes":[3.6239624E-4,5.2839786E-2,2.8266907E-3,0E0,0E0,0E0,0E0],"parents":[2147483647,0,0,1,1,2,2],"right_children":[2,4,6,-1,-1,-1,-1],"split_conditions":[-1.5604794E-1,-1.6539541E-1,2.9717562E7,-8.445526E-3,1.9498256E-3,-1.0459432E-2,-2.8279417E-3],"split_indices":[11,11,4,0,0,0,0],"split_type":[0,0,0,0,0,0,0],"sum_hessian":[1.178E3,1.1E1,1.167E3,1E1,1E0,1.166E3,1E0],"tree_param":{"num_deleted":"0","num_feature":"20","num_nodes":"7","size_leaf_vector":"0"}},{"base_weights":[-1.9824871E-1],"categories":[],"categories_nodes":[],"categories_segments":[],"categories_sizes":[],"default_left":[0],"id":18,"left_children":[-1],"loss_changes":[0E0],"parents":[2147483647],"right_children":[-1],"split_conditions":[-9.912436E-3],"split_indices":[0],"split_type":[0],"sum_hessian":[1.178E3],"tree_param":{"num_deleted":"0","num_feature":"20","num_nodes":"1","size_leaf_vector":"0"}},{"base_weights":[-1.8834469E-1,-1.3237336E-1,-1.8875849E-1,-1.5222146E-1,4.297781E-2,-1.8883422E-1,-5.0188646E-2,-1.8890174E-1,-5.5057842E-2],"categories":[],"categories_nodes":[],"categories_segments":[],"categories_sizes":[],"default_left":[1,1,1,0,0,1,0,0,0],"id":19,"left_children":[1,3,5,-1,-1,7,-1,-1,-1],"loss_changes":[2.3231506E-3,4.8306763E-2,2.7809143E-3,0E0,0E0,1.335144E-4,0E0,0E0,0E0],"parents":[2147483647,0,0,1,1,2,2,5,5],"right_children":[2,4,6,-1,-1,8,-1,-1,-1],"split_conditions":[-1.5604794E-1,-1.6539541E-1,2.9717562E7,-7.611073E-3,2.1488906E-3,2.5208E2,-2.5094324E-3,-9.445087E-3,-2.7528922E-3],"split_indices":[11,11,4,0,0,2,0,0,0],"split_type":[0,0,0,0,0,0,0,0,0],"sum_hessian":[1.178E3,1.1E1,1.167E3,1E1,1E0,1.166E3,1E0,1.165E3,1E0],"tree_param":{"num_deleted":"0","num_feature":"20","num_nodes":"9","size_leaf_vector":"0"}},{"base_weights":[-1.7894457E-1,-1.2620988E-1,-1.7933315E-1,-1.453023E-1,4.190336E-2,-1.7940296E-1,-4.893393E-2,-1.7946674E-1,-5.2516036E-2],"categories":[],"categories_nodes":[],"categories_segments":[],"categories_sizes":[],"default_left":[1,1,1,0,0,1,0,0,0],"id":20,"left_children":[1,3,5,-1,-1,7,-1,-1,-1],"loss_changes":[1.5296936E-3,4.4604927E-2,1.8463135E-3,0E0,0E0,2.2888184E-5,0E0,0E0,0E0],"parents":[2147483647,0,0,1,1,2,2,5,5],"right_children":[2,4,6,-1,-1,8,-1,-1,-1],"split_conditions":[-1.5604794E-1,-1.6539541E-1,2.9717562E7,-7.2651147E-3,2.0951682E-3,5.1605165E-1,-2.4466966E-3,-8.973337E-3,-2.6258018E-3],"split_indices":[11,11,4,0,0,17,0,0,0],"split_type":[0,0,0,0,0,0,0,0,0],"sum_hessian":[1.178E3,1.1E1,1.167E3,1E1,1E0,1.166E3,1E0,1.165E3,1E0],"tree_param":{"num_deleted":"0","num_feature":"20","num_nodes":"9","size_leaf_vector":"0"}},{"base_weights":[-1.7001365E-1,-1.20330215E-1,-1.7037854E-1,-1.3869764E-1,4.085578E-2,-1.7044276E-1,-4.7710583E-2,-1.7050456E-1,-4.9194735E-2],"categories":[],"categories_nodes":[],"categories_segments":[],"categories_sizes":[],"default_left":[1,1,1,0,0,1,0,0,0],"id":21,"left_children":[1,3,5,-1,-1,7,-1,-1,-1],"loss_changes":[8.735657E-4,4.1193485E-2,1.0681152E-3,0E0,0E0,3.5858154E-4,0E0,0E0,0E0],"parents":[2147483647,0,0,1,1,2,2,5,5],"right_children":[2,4,6,-1,-1,8,-1,-1,-1],"split_conditions":[-1.5604794E-1,-1.6539541E-1,2.9717562E7,-6.934882E-3,2.042789E-3,2.5208E2,-2.3855292E-3,-8.525228E-3,-2.4597368E-3],"split_indices":[11,11,4,0,0,2,0,0,0],"split_type":[0,0,0,0,0,0,0,0,0],"sum_hessian":[1.178E3,1.1E1,1.167E3,1E1,1E0,1.166E3,1E0,1.165E3,1E0],"tree_param":{"num_deleted":"0","num_feature":"20","num_nodes":"9","size_leaf_vector":"0"}},{"base_weights":[-1.6152845E-1,-2.0588987E-1,-1.6081864E-1,-1.6169332E-1,-1.3657175E-1,-1.6178176E-1,-3.1408757E-2,8.7653875E-2,-1.53852E-1,-7.9530224E-2,-1.6200571E-1,2.8457472E-1,-7.284464E-2,3.9834388E-2,-1.5928271E-1,2.6272826E-2,-1.125492E-1,-1.6103221E-1,-2.0500588E-1,-6.615189E-2,-1.6461372E-1,-1.2067129E-2,-1.6129398E-1,-1.6784486E-1,-6.88149E-2,-6.546072E-2,4.7360025E-2,-6.986438E-2,-1.6148171E-1],"categories":[],"categories_nodes":[],"categories_segments":[],"categories_sizes":[],"default_left":[1,0,1,1,1,1,0,1,1,1,1,0,0,0,1,0,0,1,0,0,1,1,1,0,0,0,0,0,0],"id":22,"left_children":[1,-1,3,5,7,9,-1,11,13,15,17,-1,-1,-1,19,-1,-1,21,-1,-1,23,25,27,-1,-1,-1,-1,-1,-1],"loss_changes":[4.014969E-3,0E0,2.6226044E-3,7.8125E-3,1.9559532E-1,7.7114105E-3,0E0,1.4715175E-1,5.262661E-2,2.0424522E-2,1.3620377E-2,0E0,0E0,0E0,1.0459304E-2,0E0,0E0,4.0714264E-2,0E0,0E0,8.313656E-4,1.2619308E-2,7.4596405E-3,0E0,0E0,0E0,0E0,0E0,0E0],"parents":[2147483647,0,0,2,2,3,3,4,4,5,5,7,7,8,8,9,9,10,10,14,14,17,17,20,20,21,21,22,22],"right_children":[2,-1,4,6,8,10,-1,12,14,16,18,-1,-1,-1,20,-1,-1,22,-1,-1,24,26,28,-1,-1,-1,-1,-1,-1],"split_conditions":[1.25074005E1,-1.0294493E-2,1.6864878E-1,6.556159E-1,1.7505842E-1,-1.1483349E-1,-1.5704379E-3,4.4809998E1,1.390421E-2,4.7503855E6,1.545583E-1,1.4228736E-2,-3.642232E-3,1.9917195E-3,-4.6482086E-1,1.3136413E-3,-5.6274603E-3,-1.7330116E1,-1.0250295E-2,-3.3075945E-3,9.144703E0,1.41755E2,1.2971399E1,-8.392244E-3,-3.4407452E-3,-3.273036E-3,2.3680013E-3,-3.493219E-3,-8.074085E-3],"split_indices":[6,0,14,19,14,16,0,0,19,4,14,0,0,0,17,0,0,10,0,0,10,0,6,0,0,0,0,0,0],"split_type":[0,0,0,0,0,0,0,0,0,0,0,0,0,0,0,0,0,0,0,0,0,0,0,0,0,0,0,0,0],"sum_hessian":[1.178E3,1.4E1,1.164E3,1.118E3,4.6E1,1.117E3,1E0,3E0,4.3E1,4E0,1.113E3,1E0,2E0,1E0,4.2E1,1E0,3E0,1.093E3,2E1,3E0,3.9E1,2E0,1.091E3,3.7E1,2E0,1E0,1E0,3E0,1.088E3],"tree_param":{"num_deleted":"0","num_feature":"20","num_nodes":"29","size_leaf_vector":"0"}},{"base_weights":[-1.534872E-1,-1.9628167E-1,-1.5280445E-1,-1.5363422E-1,-1.2979768E-1,-1.5272196E-1,-1.88893E-1,8.5917816E-2,-1.4645824E-1,2.5616005E-2,-1.529082E-1,-4.481014E-2,-1.932092E-1,2.7746037E-1,-7.041649E-2,3.8838528E-2,-1.5167068E-1,-1.176545E-2,-1.5315571E-1,-9.788936E-2,-2.0261271E-1,-6.3671194E-2,-1.5667887E-1,-6.38242E-2,4.6176024E-2,-1.5334864E-1,-6.229278E-2,-5.818737E-2,-2.0715155E-1,-1.5837963E-1,-4.5174595E-2,-1.5356891E-1,-7.4837044E-2],"categories":[],"categories_nodes":[],"categories_segments":[],"categories_sizes":[],"default_left":[1,0,1,1,1,1,1,1,1,0,1,0,1,0,0,0,1,1,1,0,1,0,1,0,0,1,0,0,0,0,0,0,0],"id":23,"left_children":[1,-1,3,5,7,9,11,13,15,-1,17,-1,19,-1,-1,-1,21,23,25,-1,27,-1,29,-1,-1,31,-1,-1,-1,-1,-1,-1,-1],"loss_changes":[4.4555664E-3,0E0,2.3002625E-3,7.144928E-3,1.8149853E-1,4.032135E-2,6.2677264E-3,1.3931647E-1,4.8388064E-2,0E0,3.645134E-2,0E0,7.8219175E-4,0E0,0E0,0E0,8.974969E-3,1.1996229E-2,9.609222E-3,0E0,1.0569096E-3,0E0,4.3094158E-4,0E0,0E0,7.3566437E-3,0E0,0E0,0E0,0E0,0E0,0E0,0E0],"parents":[2147483647,0,0,2,2,3,3,4,4,5,5,6,6,7,7,8,8,10,10,12,12,16,16,17,17,18,18,20,20,22,22,25,25],"right_children":[2,-1,4,6,8,10,12,14,16,-1,18,-1,20,-1,-1,-1,22,24,26,-1,28,-1,30,-1,-1,32,-1,-1,-1,-1,-1,-1,-1],"split_conditions":[1.25074005E1,-9.814084E-3,1.6864878E-1,1.545583E-1,1.7505842E-1,-1.1483349E-1,-1.2171288E-1,4.4809998E1,1.390421E-2,1.2808003E-3,-1.7330116E1,-2.240507E-3,-1.6123855E-1,1.3873018E-2,-3.5208245E-3,1.9419264E-3,-4.6482086E-1,1.41755E2,4.2714164E-1,-4.894468E-3,3.5984905E6,-3.1835597E-3,1.4133953E1,-3.19121E-3,2.3088013E-3,2.2778346E2,-3.114639E-3,-2.9093686E-3,-1.0357577E-2,-7.918982E-3,-2.25873E-3,-7.6784454E-3,-3.7418522E-3],"split_indices":[6,0,14,14,14,16,16,0,19,0,10,0,17,0,0,0,17,0,17,0,4,0,10,0,0,8,0,0,0,0,0,0,0],"split_type":[0,0,0,0,0,0,0,0,0,0,0,0,0,0,0,0,0,0,0,0,0,0,0,0,0,0,0,0,0,0,0,0,0],"sum_hessian":[1.178E3,1.4E1,1.164E3,1.118E3,4.6E1,1.095E3,2.3E1,3E0,4.3E1,1E0,1.094E3,1E0,2.2E1,1E0,2E0,1E0,4.2E1,2E0,1.092E3,3E0,1.9E1,3E0,3.9E1,1E0,1E0,1.089E3,3E0,1E0,1.8E1,3.8E1,1E0,1.085E3,4E0],"tree_param":{"num_deleted":"0","num_feature":"20","num_nodes":"33","size_leaf_vector":"0"}},{"base_weights":[-1.4585136E-1,-1.8712185E-1,-1.4519478E-1,-1.4598337E-1,-1.233305E-1,-1.4509875E-1,-1.8029843E-1,8.420998E-2,-1.3939485E-1,2.4975605E-2,-1.4527687E-1,-4.3689884E-2,-1.8433838E-1,2.7052385E-1,-6.8069264E-2,3.786757E-2,-1.4439787E-1,-1.1471316E-2,-1.4551122E-1,-9.421851E-2,-1.9314542E-1,-6.128352E-2,-1.4909936E-1,-6.2228598E-2,4.5021623E-2,-1.456917E-1,-5.99568E-2,-5.6732688E-2,-1.9733912E-1,-1.2642686E-1,-1.7520645E-1,-1.4577687E-1,-2.6467182E-2,-5.064379E-2,-1.3845012E-1,-6.657438E-2,-1.8597E-1],"categories":[],"categories_nodes":[],"categories_segments":[],"categories_sizes":[],"default_left":[1,0,1,1,1,1,1,1,1,0,1,0,1,0,0,0,1,1,1,0,1,0,1,0,0,1,0,0,0,1,1,0,0,0,0,0,0],"id":24,"left_children":[1,-1,3,5,7,9,11,13,15,-1,17,-1,19,-1,-1,-1,21,23,25,-1,27,-1,29,-1,-1,31,-1,-1,-1,33,35,-1,-1,-1,-1,-1,-1],"loss_changes":[4.7779083E-3,0E0,2.084732E-3,7.806778E-3,1.6843659E-1,3.6828995E-2,5.1915646E-3,1.319013E-1,4.4489264E-2,0E0,3.266716E-2,0E0,5.710125E-5,0E0,0E0,0E0,7.6654553E-3,1.14039155E-2,8.140564E-3,0E0,2.4580956E-4,0E0,1.5257001E-3,0E0,0E0,7.211685E-3,0E0,0E0,0E0,1.5767336E-2,6.3274503E-3,0E0,0E0,0E0,0E0,0E0,0E0],"parents":[2147483647,0,0,2,2,3,3,4,4,5,5,6,6,7,7,8,8,10,10,12,12,16,16,17,17,18,18,20,20,22,22,25,25,29,29,30,30],"right_children":[2,-1,4,6,8,10,12,14,16,-1,18,-1,20,-1,-1,-1,22,24,26,-1,28,-1,30,-1,-1,32,-1,-1,-1,34,36,-1,-1,-1,-1,-1,-1],"split_conditions":[1.25074005E1,-9.356093E-3,1.6864878E-1,1.545583E-1,1.7505842E-1,-1.1483349E-1,-1.2171288E-1,4.4809998E1,1.390421E-2,1.2487803E-3,-1.7330116E1,-2.1844942E-3,-1.6123855E-1,1.3526193E-2,-3.4034632E-3,1.8933784E-3,-4.6482086E-1,1.41755E2,4.2714164E-1,-4.7109253E-3,3.5984905E6,-3.064176E-3,2.2734733E-1,-3.11143E-3,2.2510812E-3,1.543867E-1,-2.99784E-3,-2.8366344E-3,-9.866956E-3,-6.974365E0,-2.1034485E-1,-7.2888434E-3,-1.3233591E-3,-2.5321895E-3,-6.922506E-3,-3.328719E-3,-9.2985E-3],"split_indices":[6,0,14,14,14,16,16,0,19,0,10,0,17,0,0,0,17,0,17,0,4,0,14,0,0,14,0,0,0,10,11,0,0,0,0,0,0],"split_type":[0,0,0,0,0,0,0,0,0,0,0,0,0,0,0,0,0,0,0,0,0,0,0,0,0,0,0,0,0,0,0,0,0,0,0,0,0],"sum_hessian":[1.178E3,1.4E1,1.164E3,1.118E3,4.6E1,1.095E3,2.3E1,3E0,4.3E1,1E0,1.094E3,1E0,2.2E1,1E0,2E0,1E0,4.2E1,2E0,1.092E3,3E0,1.9E1,3E0,3.9E1,1E0,1E0,1.089E3,3E0,1E0,1.8E1,2.4E1,1.5E1,1.088E3,1E0,4E0,2E1,2E0,1.3E1],"tree_param":{"num_deleted":"0","num_feature":"20","num_nodes":"37","size_leaf_vector":"0"}},{"base_weights":[-1.38604E-1,-1.783895E-1,-1.3797277E-1,-2.0666385E-1,-1.1655256E-1,-1.3802868E-1,-3.6444176E-2,-1.3808444E-1,-3.6594693E-2,-1.3882934E-1,-1.1744334E-1,-5.601899E-2,-1.3900205E-1,8.2530156E-2,-1.3295358E-1,-3.8268045E-3,-7.214078E-2,-1.3814655E-1,-1.7210014E-1,2.6376075E-1,-6.580029E-2,3.6920883E-2,-1.3776277E-1,2.4351217E-2,-1.3831797E-1,-4.2597637E-2,-1.7587861E-1,-5.8985397E-2,-1.4219645E-1],"categories":[],"categories_nodes":[],"categories_segments":[],"categories_sizes":[],"default_left":[1,1,1,0,0,1,0,1,0,1,1,1,1,1,1,0,0,1,1,0,0,0,1,0,0,0,0,0,0],"id":25,"left_children":[1,3,5,-1,-1,7,-1,9,-1,11,13,15,17,19,21,-1,-1,23,25,-1,-1,-1,27,-1,-1,-1,-1,-1,-1],"loss_changes":[4.995346E-3,2.1388233E-3,1.5830994E-3,0E0,0E0,1.5296936E-3,0E0,1.5773773E-3,0E0,8.188248E-3,1.5674973E-1,3.089657E-3,7.768631E-3,1.2488358E-1,4.1032553E-2,0E0,0E0,3.376007E-2,4.251659E-3,0E0,0E0,0E0,6.6311955E-3,0E0,0E0,0E0,0E0,0E0,0E0],"parents":[2147483647,0,0,1,1,2,2,5,5,7,7,9,9,10,10,11,11,12,12,13,13,14,14,17,17,18,18,22,22],"right_children":[2,4,6,-1,-1,8,-1,10,-1,12,14,16,18,20,22,-1,-1,24,26,-1,-1,-1,28,-1,-1,-1,-1,-1,-1],"split_conditions":[1.25074005E1,9.649682E-2,2.5208E2,-1.0333193E-2,-5.827628E-3,2.5256714E2,-1.8222089E-3,1.6864878E-1,-1.8297347E-3,1.2971399E1,1.7505842E-1,2.3327118E6,1.545583E-1,4.4809998E1,1.390421E-2,-1.9134022E-4,-3.607039E-3,-1.1483349E-1,-1.2171288E-1,1.3188037E-2,-3.2900143E-3,1.8460442E-3,-4.6482086E-1,1.2175608E-3,-6.9158985E-3,-2.1298819E-3,-8.7939305E-3,-2.94927E-3,-7.1098222E-3],"split_indices":[6,14,2,0,0,5,0,14,0,6,14,4,14,0,19,0,0,16,16,0,0,0,17,0,0,0,0,0,0],"split_type":[0,0,0,0,0,0,0,0,0,0,0,0,0,0,0,0,0,0,0,0,0,0,0,0,0,0,0,0,0],"sum_hessian":[1.178E3,1.4E1,1.164E3,8E0,6E0,1.163E3,1E0,1.162E3,1E0,1.116E3,4.6E1,3E0,1.113E3,3E0,4.3E1,1E0,2E0,1.09E3,2.3E1,1E0,2E0,1E0,4.2E1,1E0,1.089E3,1E0,2.2E1,3E0,3.9E1],"tree_param":{"num_deleted":"0","num_feature":"20","num_nodes":"29","size_leaf_vector":"0"}},{"base_weights":[-1.317065E-1,-1.7054741E-1,-1.3109335E-1,-1.9747879E-1,-1.1155745E-1,-1.3179767E-1,-1.11535326E-1,-1.3097334E-1,-1.639503E-1,8.087817E-2,-1.2649256E-1,2.3742437E-2,-1.3113633E-1,-4.1532695E-2,-1.6746703E-1,2.5716674E-1,-6.360694E-2,3.599786E-2,-1.3110857E-1,-6.5739355E-3,-1.3135824E-1,-8.408986E-2,-1.757691E-1,-5.6773447E-2,-1.3526437E-1,-5.721493E-2,4.7354028E-2,-1.3156304E-1,-6.0479775E-2,-1.7981699E-1,-4.9429625E-2,-1.1365828E-1,-1.6056986E-1,-1.3173303E-1,-5.2521493E-2,-5.0917406E-2,-1.8414934E-1,-4.2930186E-2,-1.25086E-1,-5.9615348E-2,-1.707337E-1],"categories":[],"categories_nodes":[],"categories_segments":[],"categories_sizes":[],"default_left":[1,1,1,0,0,1,1,1,1,1,1,0,1,0,1,0,0,0,1,1,1,0,1,0,1,0,0,1,0,1,0,1,1,0,0,0,0,0,0,0,0],"id":26,"left_children":[1,3,5,-1,-1,7,9,11,13,15,17,-1,19,-1,21,-1,-1,-1,23,25,27,-1,29,-1,31,-1,-1,33,-1,35,-1,37,39,-1,-1,-1,-1,-1,-1,-1,-1],"loss_changes":[5.7201385E-3,1.7999709E-3,1.3484955E-3,0E0,0E0,8.184433E-3,1.454953E-1,3.0748367E-2,3.3769011E-3,1.1824189E-1,3.772211E-2,0E0,2.9407501E-2,0E0,1.1402965E-3,0E0,0E0,0E0,5.6042075E-3,1.0902256E-2,7.909775E-3,0E0,1.3398528E-3,0E0,3.620088E-3,0E0,0E0,7.7114105E-3,0E0,1.2338758E-3,0E0,1.483655E-2,6.238997E-3,0E0,0E0,0E0,0E0,0E0,0E0,0E0,0E0],"parents":[2147483647,0,0,1,1,2,2,5,5,6,6,7,7,8,8,9,9,10,10,12,12,14,14,18,18,19,19,20,20,22,22,24,24,27,27,29,29,31,31,32,32],"right_children":[2,4,6,-1,-1,8,10,12,14,16,18,-1,20,-1,22,-1,-1,-1,24,26,28,-1,30,-1,32,-1,-1,34,-1,36,-1,38,40,-1,-1,-1,-1,-1,-1,-1,-1],"split_conditions":[1.25074005E1,9.649682E-2,1.6864878E-1,-9.87394E-3,-5.5778725E-3,1.545583E-1,1.7505842E-1,-1.1483349E-1,-1.2171288E-1,4.4809998E1,1.390421E-2,1.1871218E-3,-1.7330116E1,-2.076635E-3,-1.6123855E-1,1.2858338E-2,-3.1803472E-3,1.799893E-3,-4.6482086E-1,1.41755E2,2.2778346E2,-4.204493E-3,1.4399719E1,-2.8386724E-3,2.2734733E-1,-2.8607466E-3,2.3677014E-3,4.2714164E-1,-3.0239888E-3,3.5984905E6,-2.4714812E-3,-6.974365E0,-2.1034485E-1,-6.586652E-3,-2.6260747E-3,-2.5458704E-3,-9.207468E-3,-2.1465092E-3,-6.2543E-3,-2.9807675E-3,-8.536685E-3],"split_indices":[6,14,14,0,0,14,14,16,16,0,19,0,10,0,17,0,0,0,17,0,8,0,10,0,14,0,0,17,0,4,0,10,11,0,0,0,0,0,0,0,0],"split_type":[0,0,0,0,0,0,0,0,0,0,0,0,0,0,0,0,0,0,0,0,0,0,0,0,0,0,0,0,0,0,0,0,0,0,0,0,0,0,0,0,0],"sum_hessian":[1.178E3,1.4E1,1.164E3,8E0,6E0,1.118E3,4.6E1,1.095E3,2.3E1,3E0,4.3E1,1E0,1.094E3,1E0,2.2E1,1E0,2E0,1E0,4.2E1,2E0,1.092E3,3E0,1.9E1,3E0,3.9E1,1E0,1E0,1.088E3,4E0,1.8E1,1E0,2.4E1,1.5E1,1.085E3,3E0,1E0,1.7E1,4E0,2E1,2E0,1.3E1],"tree_param":{"num_deleted":"0","num_feature":"20","num_nodes":"41","size_leaf_vector":"0"}},{"base_weights":[-1.2517102E-1,-1.6305016E-1,-1.2457587E-1,-1.8870194E-1,-1.0677642E-1,-1.24884605E-1,-8.7610714E-2,-1.2177898E-1,-1.3130791E-1,-9.7232565E-2,1.3925731E-2,-1.3201723E-1,-1.1836802E-1,-1.3171528E-1,8.079059E-3,-8.4088415E-2,-1.3422504E-1,-2.2478687E-2,-1.1978305E-1,-1.3197151E-1,-1.9608166E-2,-9.951684E-2,3.5097912E-2,-1.1578065E-1,-1.4168118E-1,-8.069578E-2,2.5073758E-1,4.6170175E-2,-1.2014076E-1,-1.32159E-1,-3.2239746E-2,-1.1336844E-1,-5.0397336E-2,-1.1939882E-1,4.341814E-2,-1.4220569E-1,-3.8846187E-2,-2.687191E-2,-9.2235185E-2,-1.2306765E-1,-1.0676319E-1,-1.3245983E-1,-5.220504E-2],"categories":[],"categories_nodes":[],"categories_segments":[],"categories_sizes":[],"default_left":[1,1,1,0,0,1,1,1,1,0,0,1,1,1,0,1,1,1,1,1,0,1,0,1,1,1,0,0,1,1,0,0,0,0,0,0,0,0,0,0,0,0,0],"id":27,"left_children":[1,3,5,-1,-1,7,9,11,13,-1,-1,15,17,19,-1,21,23,25,27,29,-1,31,-1,33,35,37,-1,-1,39,41,-1,-1,-1,-1,-1,-1,-1,-1,-1,-1,-1,-1,-1],"loss_changes":[6.2675476E-3,1.5038848E-3,2.3536682E-3,0E0,0E0,7.009506E-3,1.4054619E-2,1.1997223E-2,2.1675587E-2,0E0,0E0,8.713007E-3,7.9125404E-2,7.8105927E-3,0E0,2.3720264E-2,8.213043E-3,1.7929204E-1,4.0808678E-2,2.4895668E-3,0E0,1.0903627E-3,0E0,3.8016498E-2,1.1098385E-3,3.1113215E-3,0E0,0E0,1.00803375E-2,1.7442703E-3,0E0,0E0,0E0,0E0,0E0,0E0,0E0,0E0,0E0,0E0,0E0,0E0,0E0],"parents":[2147483647,0,0,1,1,2,2,5,5,6,6,7,7,8,8,11,11,12,12,13,13,15,15,16,16,17,17,18,18,19,19,21,21,23,23,24,24,25,25,28,28,29,29],"right_children":[2,4,6,-1,-1,8,10,12,14,-1,-1,16,18,20,-1,22,24,26,28,30,-1,32,-1,34,36,38,-1,-1,40,42,-1,-1,-1,-1,-1,-1,-1,-1,-1,-1,-1,-1,-1],"split_conditions":[1.25074005E1,9.649682E-2,8.8415695E1,-9.435098E-3,-5.338821E-3,4.6225328E-2,1.76455E2,-9.09507E-2,1.9551981E1,-4.861628E-3,6.9628656E-4,-1.54384E-1,-9.0448864E-2,2.353016E2,4.03953E-4,-1.6539541E-1,6.7215234E-2,2.4464178E0,-1.5823568E1,2.5208E2,-9.804083E-4,-9.760517E-2,1.7548957E-3,6.685385E-2,2.9717562E7,3.717E1,1.2536879E-2,2.3085088E-3,9.501553E0,4.60178E-1,-1.6119874E-3,-5.6684217E-3,-2.519867E-3,-5.969941E-3,2.170907E-3,-7.110284E-3,-1.9423094E-3,-1.3435956E-3,-4.6117594E-3,-6.1533824E-3,-5.33816E-3,-6.622992E-3,-2.610252E-3],"split_indices":[6,14,9,0,0,17,0,17,12,0,0,11,16,6,0,11,14,13,10,2,0,16,0,14,4,0,0,0,12,17,0,0,0,0,0,0,0,0,0,0,0,0,0],"split_type":[0,0,0,0,0,0,0,0,0,0,0,0,0,0,0,0,0,0,0,0,0,0,0,0,0,0,0,0,0,0,0,0,0,0,0,0,0,0,0,0,0,0,0],"sum_hessian":[1.178E3,1.4E1,1.164E3,8E0,6E0,1.152E3,1.2E1,7.9E2,3.62E2,1.1E1,1E0,1.88E2,6.02E2,3.61E2,1E0,1E1,1.78E2,9E0,5.93E2,3.6E2,1E0,9E0,1E0,5.6E1,1.22E2,8E0,1E0,1E0,5.92E2,3.59E2,1E0,6E0,3E0,5.5E1,1E0,1.21E2,1E0,2E0,6E0,4.79E2,1.13E2,3.57E2,2E0],"tree_param":{"num_deleted":"0","num_feature":"20","num_nodes":"43","size_leaf_vector":"0"}},{"base_weights":[-1.1895679E-1,-1.5588258E-1,-1.1837924E-1,-1.803152E-1,-1.02200285E-1,-1.157177E-1,-1.2367764E-1,-1.255184E-1,-1.1245394E-1,-1.2405045E-1,7.877082E-3,-8.0468856E-2,-1.2758559E-1,-2.06966E-2,-1.13809355E-1,-1.2428052E-1,-1.9117963E-2,-9.535983E-2,3.4220465E-2,-9.4763726E-2,-1.3111813E-1,-7.73227E-2,2.4446914E-1,4.5015924E-2,-1.141531E-1,-1.2540299E-1,-8.355059E-2,-1.08509794E-1,-4.8507445E-2,-1.1421331E-1,-4.888149E-2,-1.3146856E-1,-3.7875034E-2,-9.305412E-2,-3.439489E-2,-3.8835973E-2,-1.1447025E-1,-1.2557669E-1,-3.143375E-2,-9.2776075E-2,1.3577588E-2,-1.19837895E-1,-2.054685E-2,-1.8039435E-2,-7.5213686E-2,-1.2700072E-1,-1.6318303E-1,2.3820676E-2,-6.17403E-2,-1.173368E-1,-1.01471856E-1,-1.2585534E-1,-5.0464872E-2,-4.7838777E-2,-1.02439746E-1],"categories":[],"categories_nodes":[],"categories_segments":[],"categories_sizes":[],"default_left":[1,1,1,0,0,1,1,1,1,1,0,1,1,1,1,1,0,1,0,1,1,1,0,0,1,1,1,0,0,1,1,1,0,0,1,0,1,1,0,1,0,0,0,0,0,0,0,0,0,0,0,0,0,0,0],"id":28,"left_children":[1,3,5,-1,-1,7,9,11,13,15,-1,17,19,21,23,25,-1,27,-1,29,31,33,-1,-1,35,37,39,-1,-1,41,43,45,-1,-1,47,-1,49,51,-1,53,-1,-1,-1,-1,-1,-1,-1,-1,-1,-1,-1,-1,-1,-1,-1],"loss_changes":[6.690979E-3,1.2457371E-3,2.1152496E-3,0E0,0E0,1.1187553E-2,1.9368649E-2,7.3342323E-3,7.263899E-2,6.653309E-3,0E0,2.2049457E-2,8.328676E-3,1.6905603E-1,3.756857E-2,6.5751076E-3,0E0,8.9754164E-4,0E0,1.3157263E-2,2.1600723E-4,2.8772578E-3,0E0,0E0,9.718895E-3,1.9454956E-3,1.2908377E-2,0E0,0E0,4.9133897E-3,5.140301E-3,1.6634464E-3,0E0,0E0,7.83841E-3,0E0,1.00774765E-2,1.1835098E-3,0E0,3.1051785E-4,0E0,0E0,0E0,0E0,0E0,0E0,0E0,0E0,0E0,0E0,0E0,0E0,0E0,0E0,0E0],"parents":[2147483647,0,0,1,1,2,2,5,5,6,6,7,7,8,8,9,9,11,11,12,12,13,13,14,14,15,15,17,17,19,19,20,20,21,21,24,24,25,25,26,26,29,29,30,30,31,31,34,34,36,36,37,37,39,39],"right_children":[2,4,6,-1,-1,8,10,12,14,16,-1,18,20,22,24,26,-1,28,-1,30,32,34,-1,-1,36,38,40,-1,-1,42,44,46,-1,-1,48,-1,50,52,-1,54,-1,-1,-1,-1,-1,-1,-1,-1,-1,-1,-1,-1,-1,-1,-1],"split_conditions":[1.25074005E1,9.649682E-2,4.6225328E-2,-9.01576E-3,-5.110014E-3,-9.09507E-2,1.9551981E1,-1.54384E-1,-9.0448864E-2,2.353016E2,3.9385408E-4,-1.6539541E-1,4.923509E-2,2.4464178E0,-1.5823568E1,8.8415695E1,-9.5589814E-4,-9.760517E-2,1.7110233E-3,4.503855E-2,2.9717562E7,5.6987465E1,1.2223457E-2,2.2507962E-3,-8.9163706E-2,2.5208E2,1.76455E2,-5.42549E-3,-2.4253724E-3,3.6387415E6,2.7676848E6,1.9927037E0,-1.8937517E-3,-4.6527064E-3,5.1165E1,-1.9417986E-3,9.501553E0,4.60178E-1,-1.5716875E-3,-1.2608136E-3,6.788794E-4,-5.9918948E-3,-1.0273425E-3,-9.0197177E-4,-3.7606843E-3,-6.3500362E-3,-8.159152E-3,1.1910339E-3,-3.0870151E-3,-5.86684E-3,-5.073593E-3,-6.2927674E-3,-2.5232437E-3,-2.3919388E-3,-5.1219873E-3],"split_indices":[6,14,17,0,0,17,12,11,16,6,0,11,14,13,10,9,0,16,0,14,4,9,0,0,17,2,0,0,0,4,4,13,0,0,0,0,12,17,0,16,0,0,0,0,0,0,0,0,0,0,0,0,0,0,0],"split_type":[0,0,0,0,0,0,0,0,0,0,0,0,0,0,0,0,0,0,0,0,0,0,0,0,0,0,0,0,0,0,0,0,0,0,0,0,0,0,0,0,0,0,0,0,0,0,0,0,0,0,0,0,0,0,0],"sum_hessian":[1.178E3,1.4E1,1.164E3,8E0,6E0,7.9E2,3.74E2,1.88E2,6.02E2,3.73E2,1E0,1E1,1.78E2,9E0,5.93E2,3.72E2,1E0,9E0,1E0,2E1,1.58E2,8E0,1E0,1E0,5.92E2,3.6E2,1.2E1,6E0,3E0,1.3E1,7E0,1.57E2,1E0,5E0,3E0,3E0,5.89E2,3.59E2,1E0,1.1E1,1E0,1.2E1,1E0,4E0,3E0,1.42E2,1.5E1,1E0,2E0,4.76E2,1.13E2,3.57E2,2E0,3E0,8E0],"tree_param":{"num_deleted":"0","num_feature":"20","num_nodes":"55","size_leaf_vector":"0"}},{"base_weights":[-1.1306925E-1,-1.4903018E-1,-1.12509176E-1,-1.7230119E-1,-9.7820275E-2,-7.427169E-2,-1.12742625E-1,-9.716668E-2,1.1538863E-2,-1.22829646E-1,-1.1124319E-1,-1.0311911E-1,-2.7749846E-2,-1.6056657E-2,3.336495E-2,-6.4317465E-2,-1.2496962E-1,-2.8121956E-2,-1.120407E-1,-2.1493398E-3,-7.432059E-2,-1.310857E-1,-1.0312567E-1,-7.860563E-2,2.383574E-1,4.389053E-2,-1.1223933E-1,-1.3233614E-1,-4.6125766E-2,-8.7400675E-2,-1.512934E-1,-9.3351394E-2,-3.3149138E-2,-1.184247E-2,-1.12427525E-1,-9.908057E-2,7.4488316E-3,-1.7828745E-1,-5.587217E-2,2.3225158E-2,-5.968229E-2,-1.1293804E-1,-7.123839E-2],"categories":[],"categories_nodes":[],"categories_segments":[],"categories_sizes":[],"default_left":[1,1,1,0,0,1,1,1,1,1,1,0,0,0,0,1,1,1,1,0,0,1,1,1,0,0,1,0,0,1,1,0,1,0,1,0,0,0,0,0,0,0,0],"id":29,"left_children":[1,3,5,-1,-1,7,9,11,13,15,17,-1,-1,-1,-1,19,21,23,25,-1,-1,27,29,31,-1,-1,33,-1,-1,35,37,-1,39,-1,41,-1,-1,-1,-1,-1,-1,-1,-1],"loss_changes":[6.978035E-3,1.0210574E-3,2.0256042E-3,0E0,0E0,2.0767514E-2,3.8204193E-3,4.440546E-4,2.3426365E-3,9.492397E-3,6.4266205E-2,0E0,0E0,0E0,0E0,4.19339E-3,4.384041E-3,1.6671766E-1,3.6115646E-2,0E0,0E0,4.6257973E-3,1.2529731E-2,3.608387E-3,0E0,0E0,1.7676353E-2,0E0,0E0,3.1757325E-2,8.0693215E-3,0E0,7.369282E-3,0E0,1.3065338E-2,0E0,0E0,0E0,0E0,0E0,0E0,0E0,0E0],"parents":[2147483647,0,0,1,1,2,2,5,5,6,6,7,7,8,8,9,9,10,10,15,15,16,16,17,17,18,18,21,21,22,22,23,23,26,26,29,29,30,30,32,32,34,34],"right_children":[2,4,6,-1,-1,8,10,12,14,16,18,-1,-1,-1,-1,20,22,24,26,-1,-1,28,30,32,-1,-1,34,-1,-1,36,38,-1,40,-1,42,-1,-1,-1,-1,-1,-1,-1,-1],"split_conditions":[1.25074005E1,9.649682E-2,7.5390283E-3,-8.61506E-3,-4.8910137E-3,6.968611E-3,-1.0866524E-1,1.3515E2,4.7885E1,5.9046545E0,-9.125965E-2,-5.155956E-3,-1.3874923E-3,-8.0283283E-4,1.6682476E-3,1.999E1,-4.4845343E-3,2.4464178E0,-1.6478914E1,-1.0746699E-4,-3.7160297E-3,2.10765E2,7.6259315E-2,5.6987465E1,1.191787E-2,2.1945264E-3,-1.0810901E-1,-6.616807E-3,-2.3062883E-3,1.4278236E-1,1.1234166E7,-4.66757E-3,5.1165E1,-5.921235E-4,8.5204935E-1,-4.9540284E-3,3.7244157E-4,-8.914373E-3,-2.7936085E-3,1.161258E-3,-2.9841147E-3,-5.646902E-3,-3.5619196E-3],"split_indices":[6,14,19,0,0,19,17,0,0,12,16,0,0,0,0,0,16,13,10,0,0,1,16,9,0,0,17,0,0,14,4,0,0,0,18,0,0,0,0,0,0,0,0],"split_type":[0,0,0,0,0,0,0,0,0,0,0,0,0,0,0,0,0,0,0,0,0,0,0,0,0,0,0,0,0,0,0,0,0,0,0,0,0,0,0,0,0,0,0],"sum_hessian":[1.178E3,1.4E1,1.164E3,8E0,6E0,9E0,1.155E3,7E0,2E0,1.39E2,1.016E3,6E0,1E0,1E0,1E0,6E0,1.33E2,1E1,1.006E3,1E0,5E0,1E2,3.3E1,9E0,1E0,1E0,1.005E3,9.8E1,2E0,2.7E1,6E0,6E0,3E0,2E0,1.003E3,2.4E1,3E0,4E0,2E0,1E0,2E0,9.89E2,1.4E1],"tree_param":{"num_deleted":"0","num_feature":"20","num_nodes":"43","size_leaf_vector":"0"}},{"base_weights":[-1.0745854E-1,-1.4247906E-1,-1.0691539E-1,-1.6464335E-1,-9.3627974E-2,-1.0439562E-1,-1.11945316E-1,-1.13686465E-1,-1.0131044E-1,-1.1229523E-1,9.461116E-3,-7.239706E-2,-1.1558868E-1,-1.7471598E-2,-1.0255131E-1,-1.1333562E-1,-7.468631E-2,-8.614293E-2,3.253083E-2,-9.909778E-2,-1.2229106E-1,-7.105699E-2,2.3239847E-1,4.2793266E-2,-1.0286857E-1,-1.1356194E-1,-1.5816566E-2,-8.35871E-2,1.6061597E-2,-3.411982E-2,-9.488373E-2,-1.025935E-1,4.8331153E-2,-1.24074824E-1,-7.500653E-2,-2.3653522E-2,-8.122177E-2,-1.0328386E-1,-4.502623E-2,-1.1372281E-1,-2.7824458E-2,-4.055988E-2,-9.342286E-2,-1.0383303E-1,-1.7209727E-2,-1.2904477E-1,-9.943945E-2,-8.40505E-2,-1.0371339E-2,-5.812481E-2,2.2644527E-2,-1.0601653E-1,-9.099171E-2,-7.163385E-2,5.4593408E-3,-1.1398089E-1,-4.501811E-2,-3.4544256E-2,-1.05310425E-1],"categories":[],"categories_nodes":[],"categories_segments":[],"categories_sizes":[],"default_left":[1,1,1,0,0,1,1,1,1,1,0,1,1,1,1,1,1,1,0,1,1,1,0,0,1,1,0,1,0,0,0,1,0,1,1,1,0,1,1,1,0,0,1,0,0,0,0,0,0,0,0,0,0,0,0,0,0,0,0],"id":30,"left_children":[1,3,5,-1,-1,7,9,11,13,15,-1,17,19,21,23,25,27,29,-1,31,33,35,-1,-1,37,39,-1,41,-1,-1,-1,43,-1,45,47,49,-1,51,53,55,-1,-1,57,-1,-1,-1,-1,-1,-1,-1,-1,-1,-1,-1,-1,-1,-1,-1,-1],"loss_changes":[7.191658E-3,8.2600117E-4,3.0794144E-3,0E0,0E0,1.1156082E-2,1.6993046E-2,6.476164E-3,6.0940266E-2,6.169319E-3,0E0,1.8667877E-2,7.665634E-3,1.5040739E-1,3.1793118E-2,6.193161E-3,1.1843018E-2,1.3098195E-3,0E0,3.433454E-2,1.067996E-3,2.4154298E-3,0E0,0E0,9.593964E-3,1.8148422E-3,0E0,1.289241E-3,0E0,0E0,0E0,4.1399E-3,0E0,1.4928579E-3,3.220193E-3,6.104069E-3,0E0,1.0104179E-2,8.450878E-3,1.2516975E-3,0E0,0E0,2.6614368E-3,0E0,0E0,0E0,0E0,0E0,0E0,0E0,0E0,0E0,0E0,0E0,0E0,0E0,0E0,0E0,0E0],"parents":[2147483647,0,0,1,1,2,2,5,5,6,6,7,7,8,8,9,9,11,11,12,12,13,13,14,14,15,15,16,16,17,17,19,19,20,20,21,21,24,24,25,25,27,27,31,31,33,33,34,34,35,35,37,37,38,38,39,39,42,42],"right_children":[2,4,6,-1,-1,8,10,12,14,16,-1,18,20,22,24,26,28,30,-1,32,34,36,-1,-1,38,40,-1,42,-1,-1,-1,44,-1,46,48,50,-1,52,54,56,-1,-1,58,-1,-1,-1,-1,-1,-1,-1,-1,-1,-1,-1,-1,-1,-1,-1,-1],"split_conditions":[1.25074005E1,9.649682E-2,4.6225328E-2,-8.232168E-3,-4.6813986E-3,-9.09507E-2,1.9551981E1,-1.54384E-1,-9.0448864E-2,8.8415695E1,4.730558E-4,-1.6539541E-1,6.7215234E-2,2.4464178E0,-1.5823568E1,2.353016E2,1.76455E2,2.2519762E1,1.6265415E-3,6.685385E-2,2.5012262E0,3.717E1,1.1619924E-2,2.1396633E-3,8.911023E-1,2.5208E2,-7.908283E-4,1.0729394E0,8.0307986E-4,-1.705991E-3,-4.7441865E-3,-9.339967E-2,2.4165576E-3,1.50235E2,1.7055E1,2.5475E1,-4.0610884E-3,9.501553E0,5.0977607E0,4.60178E-1,-1.3912229E-3,-2.027994E-3,-3.444075E-3,-5.1916516E-3,-8.6048635E-4,-6.4522387E-3,-4.9719727E-3,-4.202525E-3,-5.185669E-4,-2.9062405E-3,1.1322264E-3,-5.300827E-3,-4.5495857E-3,-3.5816927E-3,2.7296704E-4,-5.6990446E-3,-2.2509056E-3,-1.7272128E-3,-5.2655214E-3],"split_indices":[6,14,17,0,0,17,12,11,16,9,0,11,14,13,10,6,0,9,0,14,15,0,0,0,11,2,0,13,0,0,0,17,0,1,0,0,0,12,12,17,0,0,16,0,0,0,0,0,0,0,0,0,0,0,0,0,0,0,0],"split_type":[0,0,0,0,0,0,0,0,0,0,0,0,0,0,0,0,0,0,0,0,0,0,0,0,0,0,0,0,0,0,0,0,0,0,0,0,0,0,0,0,0,0,0,0,0,0,0,0,0,0,0,0,0,0,0,0,0,0,0],"sum_hessian":[1.178E3,1.4E1,1.164E3,8E0,6E0,7.9E2,3.74E2,1.88E2,6.02E2,3.73E2,1E0,1E1,1.78E2,9E0,5.93E2,3.61E2,1.2E1,9E0,1E0,5.6E1,1.22E2,8E0,1E0,1E0,5.92E2,3.6E2,1E0,1.1E1,1E0,2E0,7E0,5.5E1,1E0,1.16E2,6E0,2E0,6E0,5.87E2,5E0,3.59E2,1E0,3E0,8E0,5.4E1,1E0,9.3E1,2.3E1,5E0,1E0,1E0,1E0,4.74E2,1.13E2,3E0,2E0,3.57E2,2E0,2E0,6E0],"tree_param":{"num_deleted":"0","num_feature":"20","num_nodes":"59","size_leaf_vector":"0"}},{"base_weights":[-1.0213704E-1,-1.3621601E-1,-1.0161058E-1,-1.5732586E-1,-8.9615345E-2,-9.921356E-2,-1.0639572E-1,-8.15857E-2,-1.8159834E-1,-1.08132325E-1,-9.6253596E-2,-1.0672953E-1,9.22459E-3,-2.3440182E-2,-9.315414E-2,-5.8191523E-2,-1.0945174E-1,-1.6019534E-2,-9.74423E-2,-1.07607275E-1,-6.798147E-2,3.1717554E-2,-7.846263E-2,-8.0821395E-2,-1.1246883E-1,-6.815249E-2,2.265885E-1,4.1723438E-2,-9.774733E-2,-1.07818745E-1,-1.5421152E-2,-7.6258354E-2,-2.0490317E-2,-9.9258296E-2,-3.845414E-2,-5.1659264E-2,-1.1328614E-1,-8.209545E-2,-3.0199908E-2,-3.0379843E-2,-9.803839E-2,-2.692833E-2,-1.0796782E-1,-1.0431209E-1,-1.6779482E-2,-9.838067E-3,-6.46107E-2,-1.1386189E-1,-4.5201134E-2,2.2078417E-2,-5.498549E-2,-9.8640315E-2,-5.738813E-2,-1.081166E-1,-2.712885E-2],"categories":[],"categories_nodes":[],"categories_segments":[],"categories_sizes":[],"default_left":[1,1,1,1,0,1,1,1,0,1,1,1,0,0,0,1,1,1,1,1,1,0,0,1,1,1,0,0,1,1,0,0,0,1,1,0,1,0,1,0,1,0,1,0,0,0,0,0,0,0,0,0,0,0,0],"id":31,"left_children":[1,3,5,7,-1,9,11,13,-1,15,17,19,-1,-1,-1,21,23,25,27,29,31,-1,-1,33,35,37,-1,-1,39,41,-1,-1,-1,43,45,-1,47,-1,49,-1,51,-1,53,-1,-1,-1,-1,-1,-1,-1,-1,-1,-1,-1,-1],"loss_changes":[7.311821E-3,6.57171E-4,2.8066635E-3,1.7297864E-3,0E0,1.0473251E-2,1.5458107E-2,5.070623E-4,0E0,6.084919E-3,5.5950165E-2,5.4044724E-3,0E0,0E0,0E0,1.5246537E-2,6.7174435E-3,1.419213E-1,2.9294014E-2,5.4330826E-3,2.761308E-3,0E0,0E0,1.2586638E-2,2.2490025E-3,2.2832714E-3,0E0,0E0,8.648872E-3,1.4691353E-3,0E0,0E0,0E0,4.085332E-3,5.352339E-3,0E0,1.1253357E-3,0E0,6.3969875E-3,0E0,8.775711E-3,0E0,1.4209747E-3,0E0,0E0,0E0,0E0,0E0,0E0,0E0,0E0,0E0,0E0,0E0,0E0],"parents":[2147483647,0,0,1,1,2,2,3,3,5,5,6,6,7,7,9,9,10,10,11,11,15,15,16,16,17,17,18,18,19,19,20,20,23,23,24,24,25,25,28,28,29,29,33,33,34,34,36,36,38,38,40,40,42,42],"right_children":[2,4,6,8,-1,10,12,14,-1,16,18,20,-1,-1,-1,22,24,26,28,30,32,-1,-1,34,36,38,-1,-1,40,42,-1,-1,-1,44,46,-1,48,-1,50,-1,52,-1,54,-1,-1,-1,-1,-1,-1,-1,-1,-1,-1,-1,-1],"split_conditions":[1.25074005E1,9.649682E-2,4.6225328E-2,1.003009E-3,-4.4807675E-3,-9.09507E-2,1.9551981E1,1.347E1,-9.079917E-3,8.4539205E-3,-9.0448864E-2,1.8397934E0,4.612295E-4,-1.1720092E-3,-4.657707E-3,-7.3364778E0,4.923509E-2,2.4464178E0,-1.5823568E1,2.353016E2,2.2275E1,1.5858777E-3,-3.9231316E-3,4.503855E-2,5.776942E0,5.6987465E1,1.13294255E-2,2.0861719E-3,-8.9163706E-2,1.29896E1,-7.710576E-4,-3.8129177E-3,-1.0245158E-3,3.6387415E6,2.7676848E6,-2.5829633E-3,6.798314E1,-4.1047726E-3,5.1165E1,-1.5189921E-3,8.6144865E-1,-1.3464165E-3,2.5208E2,-5.215605E-3,-8.3897414E-4,-4.9190334E-4,-3.230535E-3,-5.6930943E-3,-2.2600568E-3,1.1039209E-3,-2.7492745E-3,-4.9320157E-3,-2.8694065E-3,-5.4058298E-3,-1.3564425E-3],"split_indices":[6,14,17,16,0,17,12,0,0,19,16,15,0,0,0,10,14,13,10,6,2,0,0,14,12,9,0,0,17,6,0,0,0,4,4,0,9,0,0,0,11,0,2,0,0,0,0,0,0,0,0,0,0,0,0],"split_type":[0,0,0,0,0,0,0,0,0,0,0,0,0,0,0,0,0,0,0,0,0,0,0,0,0,0,0,0,0,0,0,0,0,0,0,0,0,0,0,0,0,0,0,0,0,0,0,0,0,0,0,0,0,0,0],"sum_hessian":[1.178E3,1.4E1,1.164E3,8E0,6E0,7.9E2,3.74E2,3E0,5E0,1.88E2,6.02E2,3.73E2,1E0,1E0,2E0,6E0,1.82E2,9E0,5.93E2,3.63E2,1E1,1E0,5E0,2E1,1.62E2,8E0,1E0,1E0,5.92E2,3.62E2,1E0,8E0,2E0,1.3E1,7E0,3E0,1.59E2,5E0,3E0,3E0,5.89E2,1E0,3.61E2,1.2E1,1E0,4E0,3E0,1.57E2,2E0,1E0,2E0,5.79E2,1E1,3.6E2,1E0],"tree_param":{"num_deleted":"0","num_feature":"20","num_nodes":"55","size_leaf_vector":"0"}},{"base_weights":[-9.707849E-2,-1.306979E-1,-9.656229E-2,-1.5111619E-1,-8.577469E-2,-9.390201E-2,-1.0061032E-1,-7.8963846E-2,-1.7403173E-1,-6.832232E-4,-9.416144E-2,-1.3513166E-1,-9.859609E-2,-2.285418E-2,-9.0049006E-2,-4.1705184E-2,4.068035E-2,-9.461389E-2,-5.2757215E-2,-1.04531705E-1,-8.772253E-2,-9.506282E-2,-5.3817105E-2,1.0632835E-3,-5.885541E-2,-1.05236605E-1,-6.4820223E-3,8.658519E-3,-9.295546E-2,-2.2119319E-2,-9.5240645E-2,-6.280425E-2,1.3533615E-2,-6.497712E-2,-2.4952969E-2,-7.943764E-2,-1.08631186E-1,-2.8086003E-2,1.836297E-2,-4.5490116E-2,2.209238E-1,-1.10896446E-1,-8.15901E-2,-4.669116E-2,1.3512183E-2,-7.871702E-3,-9.5355034E-2,-6.1184913E-3,-6.912516E-2,-8.605777E-2,-6.6172164E-3,-6.6606894E-2,-1.09629266E-1,3.0924618E-2,-6.082431E-2,-8.533011E-2,-1.2535492E-1,4.2055435E-3,-8.4433496E-2],"categories":[],"categories_nodes":[],"categories_segments":[],"categories_sizes":[],"default_left":[1,1,1,1,0,1,1,1,0,1,1,0,1,0,0,0,0,1,1,1,1,1,1,0,1,1,1,1,1,1,1,1,0,0,0,1,1,0,0,1,0,1,1,0,0,0,0,0,0,0,0,0,0,0,0,0,0,0,0],"id":32,"left_children":[1,3,5,7,-1,9,11,13,-1,15,17,-1,19,-1,-1,-1,-1,21,23,25,27,29,31,-1,33,35,37,39,41,43,45,47,-1,-1,-1,49,51,-1,-1,53,-1,55,57,-1,-1,-1,-1,-1,-1,-1,-1,-1,-1,-1,-1,-1,-1,-1,-1],"loss_changes":[7.840157E-3,7.969141E-4,3.0975342E-3,1.1384785E-3,0E0,1.7299652E-2,1.7827988E-2,4.2994134E-4,0E0,6.787026E-3,8.421898E-3,0E0,1.8389225E-2,0E0,0E0,0E0,0E0,7.833004E-3,3.3446625E-3,1.8048048E-2,7.998872E-2,6.9470406E-3,6.902881E-3,0E0,2.46495E-4,1.4928818E-2,2.1259945E-3,1.1349472E-1,2.1333814E-2,3.2574944E-3,6.205082E-3,2.8018057E-3,0E0,0E0,0E0,1.630336E-2,2.554655E-3,0E0,0E0,1.1255035E-2,0E0,9.634256E-3,2.3530424E-2,0E0,0E0,0E0,0E0,0E0,0E0,0E0,0E0,0E0,0E0,0E0,0E0,0E0,0E0,0E0,0E0],"parents":[2147483647,0,0,1,1,2,2,3,3,5,5,6,6,7,7,9,9,10,10,12,12,17,17,18,18,19,19,20,20,21,21,22,22,24,24,25,25,26,26,27,27,28,28,29,29,30,30,31,31,35,35,36,36,39,39,41,41,42,42],"right_children":[2,4,6,8,-1,10,12,14,-1,16,18,-1,20,-1,-1,-1,-1,22,24,26,28,30,32,-1,34,36,38,40,42,44,46,48,-1,-1,-1,50,52,-1,-1,54,-1,56,58,-1,-1,-1,-1,-1,-1,-1,-1,-1,-1,-1,-1,-1,-1,-1,-1],"split_conditions":[1.25074005E1,9.649682E-2,4.40562E6,1.003009E-3,-4.2887344E-3,-1.6430443E1,6.3746625E-1,1.347E1,-8.701587E-3,1.41755E2,8.541194E-1,-6.7565828E-3,1.0576397E0,-1.1427089E-3,-4.5024506E-3,-2.0852592E-3,2.0340176E-3,3.8117027E-1,1.8394608E0,8.8474106E1,1.069492E0,1.142E1,9.262219E-2,5.3164178E-5,3.2434987E-3,6.775603E-1,1.0476E2,1.0674679E0,-2.8143026E-2,1.1360001E1,-1.0714369E-1,3.317E1,6.7668076E-4,-3.248856E-3,-1.2476485E-3,1.6163501E2,-1.13717735E-1,-1.4043002E-3,9.181485E-4,5.936296E6,1.104619E-2,6.7571575E6,4.0665932E-2,-2.3345582E-3,6.7560916E-4,-3.9358513E-4,-4.767752E-3,-3.0592456E-4,-3.456258E-3,-4.3028886E-3,-3.308608E-4,-3.3303448E-3,-5.4814634E-3,1.546231E-3,-3.0412155E-3,-4.2665056E-3,-6.267746E-3,2.1027718E-4,-4.221675E-3],"split_indices":[6,14,4,16,0,10,13,0,0,0,18,0,15,0,0,0,0,19,15,9,15,0,14,0,16,15,0,15,16,0,16,0,0,0,0,2,16,0,0,4,0,4,11,0,0,0,0,0,0,0,0,0,0,0,0,0,0,0,0],"split_type":[0,0,0,0,0,0,0,0,0,0,0,0,0,0,0,0,0,0,0,0,0,0,0,0,0,0,0,0,0,0,0,0,0,0,0,0,0,0,0,0,0,0,0,0,0,0,0,0,0,0,0,0,0,0,0,0,0,0,0],"sum_hessian":[1.178E3,1.4E1,1.164E3,8E0,6E0,7.17E2,4.47E2,3E0,5E0,2E0,7.15E2,2.1E1,4.26E2,1E0,2E0,1E0,1E0,7.06E2,9E0,2.7E2,1.56E2,6.97E2,9E0,1E0,8E0,2.68E2,2E0,8E0,1.48E2,2E0,6.95E2,8E0,1E0,6E0,2E0,3.4E1,2.34E2,1E0,1E0,7E0,1E0,5.4E1,9.4E1,1E0,1E0,1E0,6.94E2,1E0,7E0,3.1E1,3E0,7E0,2.27E2,1E0,6E0,2.2E1,3.2E1,3E0,9.1E1],"tree_param":{"num_deleted":"0","num_feature":"20","num_nodes":"59","size_leaf_vector":"0"}},{"base_weights":[-9.227437E-2,-1.2540537E-1,-9.176858E-2,-1.4515448E-1,-8.209863E-2,-8.952238E-2,-9.626186E-2,-1.5303399E-1,-4.1059162E-2,-9.8054186E-2,-8.669976E-2,-9.657875E-2,1.112723E-2,-1.711079E-1,-6.587482E-2,-6.1089776E-2,-9.977795E-2,-1.2433801E-2,-8.780407E-2,-9.703764E-2,-4.3304402E-2,-7.322905E-2,3.0151501E-2,-9.602226E-2,-1.299191E-1,-6.1682157E-2,2.154007E-1,3.9663337E-2,-8.808591E-2,-9.796514E-2,-6.403139E-2,-1.2651745E-2,-4.780463E-2,-8.558146E-2,-3.3305086E-2,-9.744196E-2,1.2175086E-2,-6.09879E-2,-1.464373E-1,-7.522895E-2,-2.5941424E-2,-9.056409E-2,-7.687881E-2,-4.880672E-2,-9.8382734E-2,-7.235133E-2,1.7903894E-2,-9.1363475E-2,-2.5444683E-2,-1.1120037E-1,-9.0613596E-2,-4.1316375E-3,2.2394266E-2,-8.442992E-2,1.6390081E-2,-5.0004583E-2,-1.5942466E-1,2.319163E-2,-5.004965E-2,-6.525931E-2,-9.210605E-2,-9.666531E-2,-6.931268E-2,1.1234917E-3,-6.1570145E-2,-9.975047E-2,-7.729167E-2,-3.3809282E-2,-8.144209E-2],"categories":[],"categories_nodes":[],"categories_segments":[],"categories_sizes":[],"default_left":[1,1,1,1,0,1,1,1,0,1,1,1,0,0,0,1,1,1,1,1,1,1,0,1,1,1,0,0,1,1,1,0,0,1,0,1,1,1,1,0,1,1,1,1,1,1,0,0,0,0,0,0,0,0,0,0,0,0,0,0,0,0,0,0,0,0,0,0,0],"id":33,"left_children":[1,3,5,7,-1,9,11,13,-1,15,17,19,-1,-1,-1,21,23,25,27,29,31,33,-1,35,37,39,-1,-1,41,43,45,-1,-1,47,-1,49,51,53,55,-1,57,59,61,63,65,67,-1,-1,-1,-1,-1,-1,-1,-1,-1,-1,-1,-1,-1,-1,-1,-1,-1,-1,-1,-1,-1,-1,-1],"loss_changes":[8.249283E-3,9.120554E-4,3.1404495E-3,1.0985434E-3,0E0,1.0547638E-2,1.3836145E-2,1.3307631E-3,0E0,5.9474707E-3,4.836178E-2,4.941225E-3,0E0,0E0,0E0,1.4391601E-2,7.7877045E-3,1.2549111E-1,2.4833202E-2,5.0537586E-3,8.490868E-5,2.0812675E-3,0E0,2.6224256E-2,1.0425657E-2,2.4060048E-3,0E0,0E0,9.507179E-3,2.547264E-3,1.0157421E-2,0E0,0E0,1.09270215E-4,0E0,5.0492287E-3,5.92449E-4,1.0453291E-2,8.309305E-3,0E0,5.898777E-3,1.2718439E-2,1.036644E-2,3.2555768E-3,2.502203E-3,1.4510155E-3,0E0,0E0,0E0,0E0,0E0,0E0,0E0,0E0,0E0,0E0,0E0,0E0,0E0,0E0,0E0,0E0,0E0,0E0,0E0,0E0,0E0,0E0,0E0],"parents":[2147483647,0,0,1,1,2,2,3,3,5,5,6,6,7,7,9,9,10,10,11,11,15,15,16,16,17,17,18,18,19,19,20,20,21,21,23,23,24,24,25,25,28,28,29,29,30,30,33,33,35,35,36,36,37,37,38,38,40,40,41,41,42,42,43,43,44,44,45,45],"right_children":[2,4,6,8,-1,10,12,14,-1,16,18,20,-1,-1,-1,22,24,26,28,30,32,34,-1,36,38,40,-1,-1,42,44,46,-1,-1,48,-1,50,52,54,56,-1,58,60,62,64,66,68,-1,-1,-1,-1,-1,-1,-1,-1,-1,-1,-1,-1,-1,-1,-1,-1,-1,-1,-1,-1,-1,-1,-1],"split_conditions":[1.25074005E1,9.649682E-2,4.6225328E-2,1.5555E1,-4.104932E-3,-9.09507E-2,1.9551981E1,3.067267E-1,-2.0529581E-3,-1.54384E-1,-9.0448864E-2,2.3261237E2,5.563615E-4,-8.5553955E-3,-3.2937413E-3,-1.6539541E-1,1.9927037E0,2.4464178E0,-1.5823568E1,8.8415695E1,2.4511499E2,-9.760517E-2,1.507575E-3,1.1089354E7,8.286818E6,5.6987465E1,1.0770035E-2,1.983167E-3,9.501553E0,2.5509384E-2,1.76455E2,-6.325873E-4,-2.3902317E-3,1.8614E2,-1.6652544E-3,7.215649E-1,2.3119999E1,7.608623E6,1.571E1,-3.7614477E-3,5.1165E1,-7.79912E-2,3.547846E1,-2.9089513E0,1.5025384E0,1.0729394E0,8.951947E-4,-4.568174E-3,-1.2722341E-3,-5.5600186E-3,-4.53068E-3,-2.0658188E-4,1.1197133E-3,-4.221496E-3,8.195041E-4,-2.5002293E-3,-7.971234E-3,1.1595816E-3,-2.5024826E-3,-3.2629655E-3,-4.6053026E-3,-4.8332657E-3,-3.4656338E-3,5.6174584E-5,-3.0785073E-3,-4.9875234E-3,-3.8645833E-3,-1.6904641E-3,-4.0721046E-3],"split_indices":[6,14,17,2,0,17,12,17,0,11,16,7,0,0,0,11,13,13,10,9,0,16,0,4,4,9,0,0,12,14,0,0,0,6,0,13,0,4,0,0,0,17,9,10,15,13,0,0,0,0,0,0,0,0,0,0,0,0,0,0,0,0,0,0,0,0,0,0,0],"split_type":[0,0,0,0,0,0,0,0,0,0,0,0,0,0,0,0,0,0,0,0,0,0,0,0,0,0,0,0,0,0,0,0,0,0,0,0,0,0,0,0,0,0,0,0,0,0,0,0,0,0,0,0,0,0,0,0,0,0,0,0,0,0,0,0,0,0,0,0,0],"sum_hessian":[1.178E3,1.4E1,1.164E3,8E0,6E0,7.9E2,3.74E2,7E0,1E0,1.88E2,6.02E2,3.73E2,1E0,5E0,2E0,1E1,1.78E2,9E0,5.93E2,3.69E2,4E0,9E0,1E0,1.62E2,1.6E1,8E0,1E0,1E0,5.92E2,3.57E2,1.2E1,1E0,3E0,6E0,3E0,1.6E2,2E0,4E0,1.2E1,5E0,3E0,4.79E2,1.13E2,4E0,3.53E2,1.1E1,1E0,5E0,1E0,4.8E1,1.12E2,1E0,1E0,3E0,1E0,2E0,1E1,1E0,2E0,3E1,4.49E2,2.8E1,8.5E1,1E0,3E0,3.28E2,2.5E1,3E0,8E0],"tree_param":{"num_deleted":"0","num_feature":"20","num_nodes":"69","size_leaf_vector":"0"}},{"base_weights":[-8.7724075E-2,-1.2033558E-1,-8.722889E-2,-1.3944143E-1,-7.858012E-2,-8.4646754E-2,-9.117251E-2,-7.295142E-2,-1.6052786E-1,1.8302847E-4,-8.4883966E-2,-1.2446198E-1,-8.9243844E-2,-2.0635955E-2,-8.3511256E-2,-3.839721E-2,3.8671754E-2,-8.530391E-2,-4.67052E-2,-1.3635148E-1,-7.950568E-2,-9.472793E-2,-7.920924E-2,-8.5721366E-2,-4.7635157E-2,2.7695186E-3,-5.2510116E-2,-9.5364705E-2,-6.0548834E-3,1.06499875E-2,-8.410537E-2,-7.546794E-2,-8.757294E-2,-5.6414407E-2,1.5689034E-2,-5.84179E-2,-2.1221915E-2,-4.1491535E-2,-9.66457E-2,-2.6538622E-2,1.7456297E-2,-4.0522683E-2,2.1001568E-1,-1.0116465E-1,-7.334363E-2,-7.952808E-2,-3.780623E-2,-8.793398E-2,-3.80767E-2,-4.2327084E-3,-6.240803E-2,-5.332044E-2,-4.0032095E-3,-3.4878053E-2,-9.722649E-2,2.9397711E-2,-5.4710984E-2,-7.72275E-2,-1.1478252E-1,4.1880924E-3,-7.5917356E-2],"categories":[],"categories_nodes":[],"categories_segments":[],"categories_sizes":[],"default_left":[1,1,1,1,0,1,1,1,0,1,1,1,1,0,0,0,0,1,1,0,0,1,1,1,1,0,1,1,1,1,1,1,1,1,0,0,0,1,1,0,0,1,0,1,1,0,0,0,0,0,0,0,0,0,0,0,0,0,0,0,0],"id":34,"left_children":[1,3,5,7,-1,9,11,13,-1,15,17,19,21,-1,-1,-1,-1,23,25,-1,-1,27,29,31,33,-1,35,37,39,41,43,45,47,49,-1,-1,-1,51,53,-1,-1,55,-1,57,59,-1,-1,-1,-1,-1,-1,-1,-1,-1,-1,-1,-1,-1,-1,-1,-1],"loss_changes":[8.5430145E-3,1.0092705E-3,4.1456223E-3,9.075999E-4,0E0,1.4462948E-2,1.7656088E-2,4.8643537E-4,0E0,5.9396E-3,7.49588E-3,9.184778E-4,1.5994787E-2,0E0,0E0,0E0,0E0,7.0347786E-3,3.0173939E-3,0E0,0E0,1.4724255E-2,6.996989E-2,6.6423416E-3,6.4444765E-3,0E0,4.2385608E-4,1.4554262E-2,1.9080567E-3,1.0032908E-1,1.9934773E-2,1.4425337E-2,7.1058273E-3,2.5506616E-3,0E0,0E0,0E0,3.3341134E-3,6.00791E-3,0E0,0E0,9.544792E-3,0E0,9.064078E-3,1.927483E-2,0E0,0E0,0E0,0E0,0E0,0E0,0E0,0E0,0E0,0E0,0E0,0E0,0E0,0E0,0E0,0E0],"parents":[2147483647,0,0,1,1,2,2,3,3,5,5,6,6,7,7,9,9,10,10,11,11,12,12,17,17,18,18,21,21,22,22,23,23,24,24,26,26,27,27,28,28,29,29,30,30,31,31,32,32,33,33,37,37,38,38,41,41,43,43,44,44],"right_children":[2,4,6,8,-1,10,12,14,-1,16,18,20,22,-1,-1,-1,-1,24,26,-1,-1,28,30,32,34,-1,36,38,40,42,44,46,48,50,-1,-1,-1,52,54,-1,-1,56,-1,58,60,-1,-1,-1,-1,-1,-1,-1,-1,-1,-1,-1,-1,-1,-1,-1,-1],"split_conditions":[1.25074005E1,9.649682E-2,4.40562E6,1.003009E-3,-3.929006E-3,-1.6430443E1,6.3746625E-1,1.347E1,-8.026393E-3,1.41755E2,8.541194E-1,6.3674096E-3,1.0576397E0,-1.0317977E-3,-4.175563E-3,-1.9198606E-3,1.9335877E-3,3.8117027E-1,1.8394608E0,-6.817574E-3,-3.9752843E-3,8.8474106E1,1.069492E0,1.7193599E-1,9.262219E-2,1.3847594E-4,3.2434987E-3,5.5250573E-1,1.0476E2,1.0674679E0,-2.8143026E-2,-3.6657266E-2,2.2711755E2,3.317E1,7.844517E-4,-2.920895E-3,-1.0610957E-3,1.4297267E0,1.3975E1,-1.3269311E-3,8.7281485E-4,5.936296E6,1.0500784E-2,6.7571575E6,4.0665932E-2,-3.976404E-3,-1.8903116E-3,-4.396699E-3,-1.903835E-3,-2.1163542E-4,-3.1204016E-3,-2.6660222E-3,-2.0016047E-4,-1.7439027E-3,-4.8613246E-3,1.4698856E-3,-2.7355494E-3,-3.8613752E-3,-5.739126E-3,2.0940462E-4,-3.7958678E-3],"split_indices":[6,14,4,16,0,10,13,0,0,0,18,16,15,0,0,0,0,19,15,0,0,9,15,11,14,0,16,15,0,15,16,17,8,0,0,0,0,13,0,0,0,4,0,4,11,0,0,0,0,0,0,0,0,0,0,0,0,0,0,0,0],"split_type":[0,0,0,0,0,0,0,0,0,0,0,0,0,0,0,0,0,0,0,0,0,0,0,0,0,0,0,0,0,0,0,0,0,0,0,0,0,0,0,0,0,0,0,0,0,0,0,0,0,0,0,0,0,0,0,0,0,0,0,0,0],"sum_hessian":[1.178E3,1.4E1,1.164E3,8E0,6E0,7.17E2,4.47E2,3E0,5E0,2E0,7.15E2,2.1E1,4.26E2,1E0,2E0,1E0,1E0,7.06E2,9E0,1.5E1,6E0,2.7E2,1.56E2,6.97E2,9E0,1E0,8E0,2.68E2,2E0,8E0,1.48E2,1.13E2,5.84E2,8E0,1E0,6E0,2E0,7E0,2.61E2,1E0,1E0,7E0,1E0,5.4E1,9.4E1,1.01E2,1.2E1,5.79E2,5E0,1E0,7E0,5E0,2E0,3E0,2.58E2,1E0,6E0,2.2E1,3.2E1,3E0,9.1E1],"tree_param":{"num_deleted":"0","num_feature":"20","num_nodes":"61","size_leaf_vector":"0"}},{"base_weights":[-8.338908E-2,-1.1546298E-1,-8.290453E-2,-1.3393977E-1,-7.52124E-2,-8.044024E-2,-8.666895E-2,-1.4119601E-1,-3.7944905E-2,1.7845134E-4,-8.0665685E-2,-1.18729465E-1,-8.481415E-2,-1.5793157E-1,-6.06596E-2,-3.7437283E-2,3.770496E-2,-8.105953E-2,-4.4754293E-2,-1.2996E-1,-7.609829E-2,-9.002817E-2,-7.5273946E-2,-1.58452E-2,-8.122206E-2,2.7002804E-3,-5.0327055E-2,-9.063168E-2,-5.90351E-3,1.1143612E-2,-7.9988606E-2,-4.123303E-2,1.746523E-2,-8.161849E-2,-4.550816E-2,-5.5914275E-2,-2.0514518E-2,-6.695202E-2,-9.377277E-2,-2.5875155E-2,1.701989E-2,-3.865476E-2,2.0476529E-1,-9.628097E-2,-6.9714196E-2,-8.31478E-2,-7.0254E-2,-5.3963915E-2,1.5296809E-2,2.9416919E-2,-7.0651606E-2,-9.400185E-2,-2.008412E-2,2.8662771E-2,-5.236623E-2,-1.1290892E-1,-7.747974E-2,4.031038E-3,-7.216275E-2],"categories":[],"categories_nodes":[],"categories_segments":[],"categories_sizes":[],"default_left":[1,1,1,1,0,1,1,1,0,1,1,1,1,0,0,0,0,1,1,0,0,1,1,1,1,0,1,1,1,1,1,0,0,1,1,0,0,1,1,0,0,1,0,1,1,0,0,0,0,0,0,0,0,0,0,0,0,0,0],"id":35,"left_children":[1,3,5,7,-1,9,11,13,-1,15,17,19,21,-1,-1,-1,-1,23,25,-1,-1,27,29,31,33,-1,35,37,39,41,43,-1,-1,45,47,-1,-1,49,51,-1,-1,53,-1,55,57,-1,-1,-1,-1,-1,-1,-1,-1,-1,-1,-1,-1,-1,-1],"loss_changes":[8.751869E-3,1.0816008E-3,3.8347244E-3,9.113848E-4,0E0,1.3063908E-2,1.6570568E-2,1.2025088E-3,0E0,5.6463326E-3,6.4988136E-3,6.432533E-4,1.4463663E-2,0E0,0E0,0E0,0E0,6.2069893E-3,2.7804282E-3,0E0,0E0,1.3223648E-2,6.485772E-2,3.2571827E-3,6.267071E-3,0E0,3.5206787E-4,1.3730049E-2,1.8138464E-3,9.469355E-2,1.8229604E-2,0E0,0E0,6.25515E-3,5.966993E-3,0E0,0E0,1.4556721E-2,2.07901E-3,0E0,0E0,8.88514E-3,0E0,8.446276E-3,1.7444968E-2,0E0,0E0,0E0,0E0,0E0,0E0,0E0,0E0,0E0,0E0,0E0,0E0,0E0,0E0],"parents":[2147483647,0,0,1,1,2,2,3,3,5,5,6,6,7,7,9,9,10,10,11,11,12,12,17,17,18,18,21,21,22,22,23,23,24,24,26,26,27,27,28,28,29,29,30,30,33,33,34,34,37,37,38,38,41,41,43,43,44,44],"right_children":[2,4,6,8,-1,10,12,14,-1,16,18,20,22,-1,-1,-1,-1,24,26,-1,-1,28,30,32,34,-1,36,38,40,42,44,-1,-1,46,48,-1,-1,50,52,-1,-1,54,-1,56,58,-1,-1,-1,-1,-1,-1,-1,-1,-1,-1,-1,-1,-1,-1],"split_conditions":[1.25074005E1,9.649682E-2,4.40562E6,1.5555E1,-3.7606198E-3,-1.6430443E1,6.3746625E-1,3.067267E-1,-1.8972453E-3,1.41755E2,8.541194E-1,6.3674096E-3,1.0576397E0,-7.896579E-3,-3.03298E-3,-1.8718642E-3,1.885248E-3,1.142E1,1.8394608E0,-6.498E-3,-3.8049147E-3,8.8474106E1,1.069492E0,1.1360001E1,3.8117027E-1,1.3501402E-4,3.2434987E-3,6.775603E-1,1.0476E2,1.0674679E0,-2.8143026E-2,-2.0616516E-3,8.7326154E-4,1.6808444E2,9.262219E-2,-2.7957137E-3,-1.025726E-3,1.5809999E1,2.5664E2,-1.2937578E-3,8.5099455E-4,5.936296E6,1.0238265E-2,4.77224E1,4.0665932E-2,-4.15739E-3,-3.5126999E-3,-2.6981959E-3,7.6484046E-4,1.470846E-3,-3.5325803E-3,-4.7000926E-3,-1.004206E-3,1.4331386E-3,-2.6183117E-3,-5.645446E-3,-3.8739871E-3,2.015519E-4,-3.6081374E-3],"split_indices":[6,14,4,2,0,10,13,17,0,0,18,16,15,0,0,0,0,0,15,0,0,9,15,0,19,0,16,15,0,15,16,0,0,7,14,0,0,0,0,0,0,4,0,6,11,0,0,0,0,0,0,0,0,0,0,0,0,0,0],"split_type":[0,0,0,0,0,0,0,0,0,0,0,0,0,0,0,0,0,0,0,0,0,0,0,0,0,0,0,0,0,0,0,0,0,0,0,0,0,0,0,0,0,0,0,0,0,0,0,0,0,0,0,0,0,0,0,0,0,0,0],"sum_hessian":[1.178E3,1.4E1,1.164E3,8E0,6E0,7.17E2,4.47E2,7E0,1E0,2E0,7.15E2,2.1E1,4.26E2,5E0,2E0,1E0,1E0,7.06E2,9E0,1.5E1,6E0,2.7E2,1.56E2,2E0,7.04E2,1E0,8E0,2.68E2,2E0,8E0,1.48E2,1E0,1E0,6.95E2,9E0,6E0,2E0,3.4E1,2.34E2,1E0,1E0,7E0,1E0,5.4E1,9.4E1,6.07E2,8.8E1,8E0,1E0,1E0,3.3E1,2.33E2,1E0,1E0,6E0,2.6E1,2.8E1,3E0,9.1E1],"tree_param":{"num_deleted":"0","num_feature":"20","num_nodes":"59","size_leaf_vector":"0"}},{"base_weights":[-7.9264954E-2,-1.1079566E-1,-7.879094E-2,-1.2866798E-1,-7.198901E-2,-7.8492805E-2,-1.1689738E-1,-6.739898E-2,-1.4806932E-1,-7.899008E-2,-4.7784016E-2,-3.6328398E-2,-1.418593E-1,-1.8603563E-2,-7.7462934E-2,-1.6760994E-2,-7.9139665E-2,1.3578007E-1,-7.425287E-2,2.7946204E-2,-4.0978793E-2,-2.0789914E-2,-7.927581E-2,4.023928E-3,1.9964616E-1,-8.3865926E-2,4.9720877E-3,1.70286E-2,-3.9072286E-2,-7.658716E-2,-8.36916E-2,-8.6778395E-2,-1.863323E-2,1.577485E-2,-8.316718E-3,1.7398845E-4,-7.6802425E-2,2.8681494E-2,-8.402986E-2],"categories":[],"categories_nodes":[],"categories_segments":[],"categories_sizes":[],"default_left":[1,1,1,1,0,1,1,1,0,1,1,0,0,0,0,1,1,1,1,0,0,1,1,0,0,1,1,0,0,1,1,0,0,0,0,0,0,0,0],"id":36,"left_children":[1,3,5,7,-1,9,11,13,-1,15,17,-1,-1,-1,-1,19,21,23,25,-1,-1,27,29,-1,-1,31,33,-1,-1,35,37,-1,-1,-1,-1,-1,-1,-1,-1],"loss_changes":[8.8915825E-3,1.1407882E-3,4.0593147E-3,7.185787E-4,0E0,1.3924599E-2,8.924574E-3,5.2321143E-4,0E0,9.275913E-3,1.12115405E-1,0E0,0E0,0E0,0E0,5.476042E-3,7.376671E-3,2.4440896E-2,1.4887273E-2,0E0,0E0,3.4309952E-3,7.042408E-3,0E0,0E0,1.6128346E-3,5.618625E-4,0E0,0E0,1.1843681E-2,1.8298864E-2,0E0,0E0,0E0,0E0,0E0,0E0,0E0,0E0],"parents":[2147483647,0,0,1,1,2,2,3,3,5,5,6,6,7,7,9,9,10,10,15,15,16,16,17,17,18,18,21,21,22,22,25,25,26,26,29,29,30,30],"right_children":[2,4,6,8,-1,10,12,14,-1,16,18,-1,-1,-1,-1,20,22,24,26,-1,-1,28,30,-1,-1,32,34,-1,-1,36,38,-1,-1,-1,-1,-1,-1,-1,-1],"split_conditions":[1.25074005E1,9.649682E-2,3.00403E-1,1.003009E-3,-3.5994505E-3,2.7549582E0,2.7E1,1.347E1,-7.4034664E-3,-1.4453903E-1,2.801973E0,-1.8164199E-3,-7.092965E-3,-9.3017815E-4,-3.8731468E-3,1.21665E2,1.2971399E1,2.7220001E1,1.0821945E1,1.3973102E-3,-2.0489397E-3,2.3327118E6,4.40562E6,2.0119641E-4,9.982308E-3,2.57195E2,1.0766E2,8.5143E-4,-1.9536144E-3,-1.6430443E1,1.36308E1,-4.3389197E-3,-9.316615E-4,7.887425E-4,-4.158359E-4,8.699422E-6,-3.8401212E-3,1.4340747E-3,-4.201493E-3],"split_indices":[6,14,14,16,0,13,0,0,0,16,13,0,0,0,0,0,6,0,12,0,0,4,4,0,0,3,0,0,0,10,6,0,0,0,0,0,0,0,0],"split_type":[0,0,0,0,0,0,0,0,0,0,0,0,0,0,0,0,0,0,0,0,0,0,0,0,0,0,0,0,0,0,0,0,0,0,0,0,0,0,0],"sum_hessian":[1.178E3,1.4E1,1.164E3,8E0,6E0,1.158E3,6E0,3E0,5E0,1.138E3,2E1,2E0,4E0,1E0,2E0,3E0,1.135E3,2E0,1.8E1,1E0,2E0,3E0,1.132E3,1E0,1E0,1.6E1,2E0,1E0,2E0,7.15E2,4.17E2,1.5E1,1E0,1E0,1E0,2E0,7.13E2,1E0,4.16E2],"tree_param":{"num_deleted":"0","num_feature":"20","num_nodes":"39","size_leaf_vector":"0"}},{"base_weights":[-7.532527E-2,-1.0630963E-1,-7.4861676E-2,-1.23590894E-1,-6.890377E-2,-7.457081E-2,-1.1232527E-1,-1.3027483E-1,-3.505971E-2,-7.504791E-2,-4.514311E-2,-3.511745E-2,-1.3618492E-1,-1.4576991E-1,-5.585973E-2,-1.6085852E-2,-7.518946E-2,1.3238555E-1,-7.0798E-2,2.7247548E-2,-3.9612833E-2,-2.0025965E-2,-7.5317845E-2,3.9233305E-3,1.94655E-1,-7.998267E-2,4.8477873E-3,1.6602885E-2,-3.7769876E-2,-7.276316E-2,-7.951364E-2,-8.271066E-2,-1.81674E-2,1.5380479E-2,-8.108798E-3,1.6818692E-4,-7.2967686E-2,2.7964458E-2,-7.983844E-2],"categories":[],"categories_nodes":[],"categories_segments":[],"categories_sizes":[],"default_left":[1,1,1,1,0,1,1,1,0,1,1,0,0,0,0,1,1,1,1,0,0,1,1,0,0,1,1,0,0,1,1,0,0,0,0,0,0,0,0],"id":37,"left_children":[1,3,5,7,-1,9,11,13,-1,15,17,-1,-1,-1,-1,19,21,23,25,-1,-1,27,29,-1,-1,31,33,-1,-1,35,37,-1,-1,-1,-1,-1,-1,-1,-1],"loss_changes":[8.976936E-3,1.1804253E-3,4.3182373E-3,7.582307E-4,0E0,1.2884617E-2,8.1125945E-3,1.081869E-3,0E0,8.296967E-3,1.0501666E-1,0E0,0E0,0E0,0E0,5.1573697E-3,6.5369606E-3,2.3234118E-2,1.3588592E-2,0E0,0E0,3.226845E-3,6.3591003E-3,0E0,0E0,1.364097E-3,5.3412037E-4,0E0,0E0,1.069212E-2,1.6824722E-2,0E0,0E0,0E0,0E0,0E0,0E0,0E0,0E0],"parents":[2147483647,0,0,1,1,2,2,3,3,5,5,6,6,7,7,9,9,10,10,15,15,16,16,17,17,18,18,21,21,22,22,25,25,26,26,29,29,30,30],"right_children":[2,4,6,8,-1,10,12,14,-1,16,18,-1,-1,-1,-1,20,22,24,26,-1,-1,28,30,-1,-1,32,34,-1,-1,36,38,-1,-1,-1,-1,-1,-1,-1,-1],"split_conditions":[1.25074005E1,9.649682E-2,3.00403E-1,1.5555E1,-3.4451883E-3,2.7549582E0,2.7E1,3.067267E-1,-1.7529855E-3,-1.4453903E-1,2.801973E0,-1.7558726E-3,-6.809246E-3,-7.2884955E-3,-2.7929866E-3,1.21665E2,1.2971399E1,2.7220001E1,1.0821945E1,1.3623774E-3,-1.9806416E-3,2.3327118E6,4.40562E6,1.9616653E-4,9.73275E-3,2.57195E2,1.0766E2,8.301443E-4,-1.8884939E-3,-1.6430443E1,1.36308E1,-4.1355332E-3,-9.083701E-4,7.6902396E-4,-4.0543993E-4,8.409346E-6,-3.6483842E-3,1.3982229E-3,-3.991922E-3],"split_indices":[6,14,14,2,0,13,0,17,0,16,13,0,0,0,0,0,6,0,12,0,0,4,4,0,0,3,0,0,0,10,6,0,0,0,0,0,0,0,0],"split_type":[0,0,0,0,0,0,0,0,0,0,0,0,0,0,0,0,0,0,0,0,0,0,0,0,0,0,0,0,0,0,0,0,0,0,0,0,0,0,0],"sum_hessian":[1.178E3,1.4E1,1.164E3,8E0,6E0,1.158E3,6E0,7E0,1E0,1.138E3,2E1,2E0,4E0,5E0,2E0,3E0,1.135E3,2E0,1.8E1,1E0,2E0,3E0,1.132E3,1E0,1E0,1.6E1,2E0,1E0,2E0,7.15E2,4.17E2,1.5E1,1E0,1E0,1E0,2E0,7.13E2,1E0,4.16E2],"tree_param":{"num_deleted":"0","num_feature":"20","num_nodes":"39","size_leaf_vector":"0"}},{"base_weights":[-7.158149E-2,-1.0201279E-1,-7.112823E-2,-1.1872629E-1,-6.595075E-2,-7.87701E-2,-6.998189E-2,-6.2271245E-2,-1.3657527E-1,-2.7163768E-2,-8.0431014E-2,-8.705313E-3,-7.0578784E-2,-1.6741984E-2,-7.1867004E-2,2.6566356E-2,-4.3223064E-2,-4.748002E-2,-8.374169E-2,-4.7533568E-2,1.8978862E-1,3.675378E-2,-7.0721306E-2,-4.900966E-2,-1.003834E-2,-7.3526256E-2,-7.2091436E-3,-1.1246298E-1,-7.9106E-2,-6.0899355E-2,-1.2260053E-2,1.34661E-2,-7.090152E-2,-7.734458E-2,-2.1489818E-2,1.0781966E-2,-3.479128E-2,-1.1714743E-1,-2.3440357E-2,-8.3653904E-2,-5.4230355E-2,-2.6062788E-2,-6.962142E-2,3.1489253E-2,-3.7339572E-2,-7.4383775E-3,-7.108338E-2,1.8673018E-2,-1.039112E-2,-8.463058E-2,2.6117265E-3,-2.4217624E-2,-7.658462E-2,1.2828991E-2,-1.8470498E-2,-7.318255E-2,-6.39243E-2],"categories":[],"categories_nodes":[],"categories_segments":[],"categories_sizes":[],"default_left":[1,1,1,1,0,1,1,1,0,1,1,1,1,0,0,0,1,1,1,1,0,0,1,0,0,1,1,1,1,1,1,0,1,0,0,1,0,0,0,1,1,0,0,0,0,1,1,0,0,0,0,0,0,0,0,0,0],"id":38,"left_children":[1,3,5,7,-1,9,11,13,-1,15,17,19,21,-1,-1,-1,23,25,27,29,-1,-1,31,-1,-1,33,35,37,39,41,43,-1,45,-1,-1,47,-1,-1,-1,49,51,-1,-1,-1,-1,53,55,-1,-1,-1,-1,-1,-1,-1,-1,-1,-1],"loss_changes":[9.006023E-3,1.210764E-3,4.6930313E-3,5.642772E-4,0E0,1.0158002E-2,3.676653E-2,5.443543E-4,0E0,6.3254866E-3,1.1187434E-2,9.380024E-2,1.8079758E-2,0E0,0E0,0E0,4.6815723E-4,1.52035095E-2,7.7463984E-3,3.967954E-3,0E0,0E0,1.6293526E-2,0E0,0E0,1.2611225E-4,3.8487508E-3,3.5093576E-3,8.021057E-3,3.1239912E-4,5.5646417E-3,0E0,1.11169815E-2,0E0,0E0,1.0294232E-3,0E0,0E0,0E0,7.97236E-3,1.1563558E-2,0E0,0E0,0E0,0E0,1.131326E-3,1.0439873E-2,0E0,0E0,0E0,0E0,0E0,0E0,0E0,0E0,0E0,0E0],"parents":[2147483647,0,0,1,1,2,2,3,3,5,5,6,6,7,7,9,9,10,10,11,11,12,12,16,16,17,17,18,18,19,19,22,22,25,25,26,26,27,27,28,28,29,29,30,30,32,32,35,35,39,39,40,40,45,45,46,46],"right_children":[2,4,6,8,-1,10,12,14,-1,16,18,20,22,-1,-1,-1,24,26,28,30,-1,-1,32,-1,-1,34,36,38,40,42,44,-1,46,-1,-1,48,-1,-1,-1,50,52,-1,-1,-1,-1,54,56,-1,-1,-1,-1,-1,-1,-1,-1,-1,-1],"split_conditions":[1.25074005E1,9.649682E-2,-1.0866524E-1,1.003009E-3,-3.2975376E-3,8.4539205E-3,-9.125965E-2,1.347E1,-6.8287635E-3,-7.3364778E0,4.9555182E-2,2.4464178E0,-1.6478914E1,-8.370992E-4,-3.5933503E-3,1.3283178E-3,1.13025E2,4.503855E-2,6.321385E-1,5.6987465E1,9.489431E-3,1.8376891E-3,-1.0810901E-1,-2.450483E-3,-5.0191703E-4,1.6284E2,2.949894E6,3.0562939E1,1.50235E2,3.6048378E1,5.1165E1,6.73305E-4,1.7660889E1,-3.8672292E-3,-1.074491E-3,1.0658932E1,-1.739564E-3,-5.8573717E-3,-1.1720179E-3,8.581505E0,1.70845E2,-1.3031395E-3,-3.4810712E-3,1.5744626E-3,-1.8669786E-3,2.568284E6,1.0586721E0,9.336509E-4,-5.19556E-4,-4.231529E-3,1.3058633E-4,-1.2108813E-3,-3.8292313E-3,6.4144953E-4,-9.235249E-4,-3.6591277E-3,-3.196215E-3],"split_indices":[6,14,17,16,0,19,16,0,0,10,14,13,10,0,0,0,0,14,13,9,0,0,17,0,0,0,4,12,1,9,0,0,9,0,0,12,0,0,0,10,0,0,0,0,0,4,15,0,0,0,0,0,0,0,0,0,0],"split_type":[0,0,0,0,0,0,0,0,0,0,0,0,0,0,0,0,0,0,0,0,0,0,0,0,0,0,0,0,0,0,0,0,0,0,0,0,0,0,0,0,0,0,0,0,0,0,0,0,0,0,0,0,0,0,0,0,0],"sum_hessian":[1.178E3,1.4E1,1.164E3,8E0,6E0,1.43E2,1.021E3,3E0,5E0,5E0,1.38E2,1E1,1.011E3,1E0,2E0,1E0,4E0,1.4E1,1.24E2,9E0,1E0,1E0,1.01E3,3E0,1E0,8E0,6E0,1.4E1,1.1E2,6E0,3E0,2E0,1.008E3,7E0,1E0,4E0,2E0,1.3E1,1E0,9.1E1,1.9E1,2E0,4E0,1E0,2E0,3E0,1.005E3,3E0,1E0,9E1,1E0,9E0,1E1,1E0,2E0,7.7E2,2.35E2],"tree_param":{"num_deleted":"0","num_feature":"20","num_nodes":"57","size_leaf_vector":"0"}},{"base_weights":[-6.803535E-2,-9.78826E-2,-6.759265E-2,-1.14041E-1,-6.312429E-2,-6.73121E-2,-1.0438735E-1,-1.2019949E-1,-3.238654E-2,-6.796673E-2,-4.78038E-2,-3.112585E-2,-1.2746678E-1,-1.3454476E-1,-5.1442448E-2,-6.7216344E-2,-9.9402234E-2,7.372775E-2,-5.93386E-2,3.0702025E-2,-6.733381E-2,-4.8986502E-2,-1.100913E-1,1.8504392E-1,-2.505895E-2,2.5902197E-2,-6.2342465E-2,9.6052885E-4,-6.745966E-2,-1.829417E-2,-1.1417479E-1,7.876411E-3,-6.4511776E-2,-3.4394145E-2,3.583494E-2,-6.6606455E-2,-8.153648E-2,-1.2371345E-1,-4.986113E-2,-1.21335424E-1,-5.760052E-2],"categories":[],"categories_nodes":[],"categories_segments":[],"categories_sizes":[],"default_left":[1,1,1,1,0,1,1,1,0,1,1,0,0,0,0,1,1,1,1,0,1,0,1,0,0,0,1,1,1,0,1,0,1,0,0,0,0,0,0,0,0],"id":39,"left_children":[1,3,5,7,-1,9,11,13,-1,15,17,-1,-1,-1,-1,19,21,23,25,-1,27,-1,29,-1,-1,-1,31,33,35,-1,37,-1,39,-1,-1,-1,-1,-1,-1,-1,-1],"loss_changes":[8.962631E-3,1.2258291E-3,4.9991608E-3,6.329715E-4,0E0,1.1552334E-2,7.868327E-3,9.6939504E-4,0E0,1.9713879E-2,6.185042E-2,0E0,0E0,0E0,0E0,1.467371E-2,7.540554E-3,4.862323E-2,1.1344776E-2,0E0,9.475708E-3,0E0,5.033478E-3,0E0,0E0,0E0,6.1442256E-3,4.931432E-3,7.6961517E-3,0E0,4.8738867E-3,0E0,7.1490407E-3,0E0,0E0,0E0,0E0,0E0,0E0,0E0,0E0],"parents":[2147483647,0,0,1,1,2,2,3,3,5,5,6,6,7,7,9,9,10,10,15,15,16,16,17,17,18,18,20,20,22,22,26,26,27,27,28,28,30,30,32,32],"right_children":[2,4,6,8,-1,10,12,14,-1,16,18,-1,-1,-1,-1,20,22,24,26,-1,28,-1,30,-1,-1,-1,32,34,36,-1,38,-1,40,-1,-1,-1,-1,-1,-1,-1,-1],"split_conditions":[1.25074005E1,9.649682E-2,3.00403E-1,1.5555E1,-3.1562147E-3,1.6864878E-1,2.7E1,3.067267E-1,-1.6193271E-3,1.545583E-1,1.7505842E-1,-1.5562925E-3,-6.3733393E-3,-6.727238E-3,-2.5721225E-3,-1.1483349E-1,5.219712E6,4.4809998E1,1.390421E-2,1.5351012E-3,-1.7330116E1,-2.449325E-3,-1.7969148E-1,9.252196E-3,-1.2529475E-3,1.2951099E-3,-4.2336482E-1,1.41755E2,7.827768E1,-9.1470854E-4,7.916615E1,3.9382055E-4,-2.6148278E-1,-1.7197073E-3,1.7917469E-3,-3.3303227E-3,-4.076824E-3,-6.1856727E-3,-2.4930565E-3,-6.066771E-3,-2.8800261E-3],"split_indices":[6,14,14,2,0,14,0,17,0,14,14,0,0,0,0,16,4,0,19,0,10,0,17,0,0,0,17,0,9,0,9,0,17,0,0,0,0,0,0,0,0],"split_type":[0,0,0,0,0,0,0,0,0,0,0,0,0,0,0,0,0,0,0,0,0,0,0,0,0,0,0,0,0,0,0,0,0,0,0,0,0,0,0,0,0],"sum_hessian":[1.178E3,1.4E1,1.164E3,8E0,6E0,1.158E3,6E0,7E0,1E0,1.118E3,4E1,2E0,4E0,5E0,2E0,1.095E3,2.3E1,3E0,3.7E1,1E0,1.094E3,5E0,1.8E1,1E0,2E0,1E0,3.6E1,2E0,1.092E3,1E0,1.7E1,1E0,3.5E1,1E0,1E0,1.035E3,5.7E1,1.4E1,3E0,2E0,3.3E1],"tree_param":{"num_deleted":"0","num_feature":"20","num_nodes":"41","size_leaf_vector":"0"}},{"base_weights":[-6.4666755E-2,-9.3926795E-2,-6.42345E-2,-1.0955214E-1,-6.0418963E-2,-7.167098E-2,-6.312385E-2,-5.7535626E-2,-1.2597112E-1,-2.7388105E-2,-7.339786E-2,-6.901125E-3,-6.3672595E-2,-1.503737E-2,-6.668925E-2,1.4404871E-2,-3.675441E-2,-2.4218732E-2,-7.506461E-2,-4.36748E-2,1.8041782E-1,3.4939066E-2,-6.380469E-2,-4.0941335E-2,-7.909898E-3,2.5254637E-2,-3.9164335E-2,-8.000428E-2,-5.8328357E-2,-5.6298897E-2,-1.0663938E-2,1.5237446E-2,-6.397647E-2,-4.4894308E-2,-8.1222225E-3,-1.0474505E-1,-7.2101735E-2,-4.3876752E-2,-1.0780215E-1,-2.395994E-2,-6.4442486E-2,2.9934473E-2,-3.41749E-2,-4.639239E-3,-6.4148806E-2,-7.428337E-2,7.927395E-3,-5.373007E-2,2.867568E-2,-1.3202687E-1,-3.1493578E-2,1.4173426E-2,-1.5634602E-2,-6.6137716E-2,-5.7379328E-2],"categories":[],"categories_nodes":[],"categories_segments":[],"categories_sizes":[],"default_left":[1,1,1,1,0,1,1,1,0,1,1,1,1,0,0,0,1,1,1,1,0,0,1,0,0,0,1,1,1,1,1,0,1,0,0,0,1,1,1,0,0,0,0,1,1,0,0,0,0,0,0,0,0,0,0],"id":40,"left_children":[1,3,5,7,-1,9,11,13,-1,15,17,19,21,-1,-1,-1,23,25,27,29,-1,-1,31,-1,-1,-1,33,35,37,39,41,-1,43,-1,-1,-1,45,47,49,-1,-1,-1,-1,51,53,-1,-1,-1,-1,-1,-1,-1,-1,-1,-1],"loss_changes":[8.878708E-3,1.2345314E-3,5.097866E-3,4.387051E-4,0E0,9.001553E-3,3.109169E-2,5.5322144E-4,0E0,3.269564E-3,9.493828E-3,8.365218E-2,1.5411854E-2,0E0,0E0,0E0,4.0077604E-4,5.425537E-3,6.328821E-3,3.5669543E-3,0E0,0E0,1.4701366E-2,0E0,0E0,0E0,5.2471086E-4,1.199919E-2,1.9579172E-2,2.9944815E-4,4.841038E-3,0E0,1.0020733E-2,0E0,0E0,0E0,1.4381826E-2,2.155745E-2,8.78188E-3,0E0,0E0,0E0,0E0,1.0490043E-3,9.749889E-3,0E0,0E0,0E0,0E0,0E0,0E0,0E0,0E0,0E0,0E0],"parents":[2147483647,0,0,1,1,2,2,3,3,5,5,6,6,7,7,9,9,10,10,11,11,12,12,16,16,17,17,18,18,19,19,22,22,26,26,27,27,28,28,29,29,30,30,32,32,36,36,37,37,38,38,43,43,44,44],"right_children":[2,4,6,8,-1,10,12,14,-1,16,18,20,22,-1,-1,-1,24,26,28,30,-1,-1,32,-1,-1,-1,34,36,38,40,42,-1,44,-1,-1,-1,46,48,50,-1,-1,-1,-1,52,54,-1,-1,-1,-1,-1,-1,-1,-1,-1,-1],"split_conditions":[1.25074005E1,9.649682E-2,-1.0866524E-1,1.003009E-3,-3.0209483E-3,5.9046545E0,-9.125965E-2,1.347E1,-6.2985565E-3,1.999E1,8.4539205E-3,2.4464178E0,-1.6478914E1,-7.5186853E-4,-3.3344626E-3,7.2024355E-4,4.816398E1,-7.3364778E0,-4.4845343E-3,5.6987465E1,9.020891E-3,1.7469533E-3,-1.0810901E-1,-2.0470668E-3,-3.954949E-4,1.2627319E-3,1.13025E2,7.215649E-1,7.6259315E-2,3.6048378E1,5.1165E1,7.6187233E-4,1.7660889E1,-2.2447153E-3,-4.0611112E-4,-5.237253E-3,2.4600285E-1,1.4278236E-1,1.1234166E7,-1.197997E-3,-3.2221244E-3,1.4967237E-3,-1.708745E-3,2.568284E6,1.0586721E0,-3.7141684E-3,3.9636978E-4,-2.6865036E-3,1.433784E-3,-6.6013434E-3,-1.5746789E-3,7.086713E-4,-7.817301E-4,-3.306886E-3,-2.8689664E-3],"split_indices":[6,14,17,16,0,12,16,0,0,0,19,13,10,0,0,0,9,10,16,9,0,0,17,0,0,0,0,13,16,9,0,0,9,0,0,0,19,14,4,0,0,0,0,4,15,0,0,0,0,0,0,0,0,0,0],"split_type":[0,0,0,0,0,0,0,0,0,0,0,0,0,0,0,0,0,0,0,0,0,0,0,0,0,0,0,0,0,0,0,0,0,0,0,0,0,0,0,0,0,0,0,0,0,0,0,0,0,0,0,0,0,0,0],"sum_hessian":[1.178E3,1.4E1,1.164E3,8E0,6E0,1.43E2,1.021E3,3E0,5E0,6E0,1.37E2,1E1,1.011E3,1E0,2E0,1E0,5E0,5E0,1.32E2,9E0,1E0,1E0,1.01E3,4E0,1E0,1E0,4E0,9.9E1,3.3E1,6E0,3E0,2E0,1.008E3,3E0,1E0,2.1E1,7.8E1,2.7E1,6E0,2E0,4E0,1E0,2E0,3E0,1.005E3,7.6E1,2E0,2.4E1,3E0,4E0,2E0,1E0,2E0,7.7E2,2.35E2],"tree_param":{"num_deleted":"0","num_feature":"20","num_nodes":"55","size_leaf_vector":"0"}},{"base_weights":[-6.1462127E-2,-9.012418E-2,-6.104033E-2,-1.0522841E-1,-5.7829577E-2,-6.0310237E-2,-7.326512E-2,-1.10904545E-1,-2.9909644E-2,-6.0998574E-2,1.3693126E-2,-1.7503371E-2,-7.5847566E-2,-1.2418395E-1,-4.737756E-2,-6.1391458E-2,-3.681138E-2,-3.5763327E-2,1.0918275E-1,7.4813142E-3,-2.8325371E-2,-8.3368056E-2,-4.6256896E-2,-5.6404904E-2,-1.4661436E-2,-5.93078E-2,-6.8923265E-2,-4.4077482E-2,1.905567E-2,-4.7105223E-2,2.1814968E-2,1.7590737E-1,2.8305419E-2,-1.01842E-1,-5.94252E-2,-4.0035397E-3,-4.9199186E-2,-6.1468765E-2,-5.08638E-2,-5.3071063E-2,-7.34468E-2,-2.9585458E-2,-8.740319E-2,2.3709834E-3,2.621252E-2,8.973416E-3,-5.7947233E-2,-1.056471E-1,-7.162325E-3,-7.5042926E-2,-1.5238234E-2,-1.8612929E-2,-5.651377E-2,-4.6936072E-2,-6.357825E-2,3.406559E-2,-5.153231E-2,-5.7221927E-2,3.6567613E-2,-3.2355968E-2,-7.497542E-2,-5.2849576E-4,-3.680566E-2,-1.24444306E-1,-6.257986E-2,-7.892801E-2,-8.3833635E-3,-3.8896877E-2,2.9272249E-2,-5.9850723E-2,-1.3240611E-2],"categories":[],"categories_nodes":[],"categories_segments":[],"categories_sizes":[],"default_left":[1,1,1,1,0,1,1,1,0,1,1,1,1,0,1,1,1,1,1,0,0,1,1,0,0,1,1,1,1,1,0,0,0,1,1,0,1,1,1,1,1,1,0,0,0,0,0,1,0,1,1,0,1,0,0,0,0,0,0,0,0,0,0,0,0,0,0,0,0,0,0],"id":41,"left_children":[1,3,5,7,-1,9,11,13,-1,15,17,19,21,-1,23,25,27,29,31,-1,-1,33,35,-1,-1,37,39,41,43,45,-1,-1,-1,47,49,-1,51,53,55,57,59,61,-1,-1,-1,-1,-1,63,-1,65,67,-1,69,-1,-1,-1,-1,-1,-1,-1,-1,-1,-1,-1,-1,-1,-1,-1,-1,-1,-1],"loss_changes":[8.752823E-3,1.2314618E-3,5.979538E-3,5.3057075E-4,0E0,5.7122707E-2,7.456541E-3,8.652732E-4,0E0,8.145809E-3,5.58531E-2,1.2934481E-3,9.050757E-3,0E0,5.9042126E-5,1.2798309E-2,8.958636E-3,6.251976E-3,1.6606905E-2,0E0,0E0,1.3852358E-2,1.543533E-3,0E0,0E0,1.2383699E-2,1.23797655E-2,8.715928E-3,2.9608014E-4,4.7760205E-3,0E0,0E0,0E0,7.889703E-3,1.40386745E-2,0E0,1.8565506E-3,1.7616987E-2,1.1918426E-2,2.2184685E-2,8.503497E-3,3.1275032E-3,0E0,0E0,0E0,0E0,0E0,1.0831803E-2,0E0,3.4819618E-3,8.510002E-3,0E0,6.515421E-4,0E0,0E0,0E0,0E0,0E0,0E0,0E0,0E0,0E0,0E0,0E0,0E0,0E0,0E0,0E0,0E0,0E0,0E0],"parents":[2147483647,0,0,1,1,2,2,3,3,5,5,6,6,7,7,9,9,10,10,11,11,12,12,14,14,15,15,16,16,17,17,18,18,21,21,22,22,25,25,26,26,27,27,28,28,29,29,33,33,34,34,36,36,37,37,38,38,39,39,40,40,41,41,47,47,49,49,50,50,52,52],"right_children":[2,4,6,8,-1,10,12,14,-1,16,18,20,22,-1,24,26,28,30,32,-1,-1,34,36,-1,-1,38,40,42,44,46,-1,-1,-1,48,50,-1,52,54,56,58,60,62,-1,-1,-1,-1,-1,64,-1,66,68,-1,70,-1,-1,-1,-1,-1,-1,-1,-1,-1,-1,-1,-1,-1,-1,-1,-1,-1,-1],"split_conditions":[1.25074005E1,9.649682E-2,1.1054761E7,1.5555E1,-2.8914788E-3,2.506357E0,-4.6482086E-1,3.067267E-1,-1.4954823E-3,1.0041664E7,1.0024735E0,1.859E1,1.4263159E2,-6.209198E-3,1.3745001E1,9.1647625E-2,3.2367504E-1,7.2962906E1,4.7385002E1,3.740657E-4,-1.4162686E-3,7.592526E1,-1.5246822E-1,-2.8202452E-3,-7.330718E-4,7.493071E-2,4.483289E6,1.3067728E-1,1.02475E2,6.7886225E6,1.0907485E-3,8.7953685E-3,1.415271E-3,8.536458E0,9.09201E0,-2.0017699E-4,1.7160382E0,1.701341E-1,-1.6478914E1,6.808249E1,-1.1483349E-1,2.3345001E1,-4.37016E-3,1.1854917E-4,1.310626E-3,4.486708E-4,-2.8973618E-3,2.4025701E-2,-3.5811626E-4,5.1605165E-1,1.2449098E-1,-9.3064643E-4,2.57195E2,-2.3468037E-3,-3.1789124E-3,1.7032794E-3,-2.5766154E-3,-2.8610963E-3,1.8283807E-3,-1.6177985E-3,-3.7487713E-3,-2.6424788E-5,-1.840283E-3,-6.2222155E-3,-3.128993E-3,-3.9464007E-3,-4.1916818E-4,-1.9448439E-3,1.4636124E-3,-2.9925362E-3,-6.620306E-4],"split_indices":[6,14,4,2,0,13,17,17,0,4,15,1,6,0,1,14,17,9,0,0,0,9,11,0,0,14,4,14,0,4,0,0,0,10,12,0,13,11,10,9,16,0,0,0,0,0,0,16,0,17,18,0,3,0,0,0,0,0,0,0,0,0,0,0,0,0,0,0,0,0,0],"split_type":[0,0,0,0,0,0,0,0,0,0,0,0,0,0,0,0,0,0,0,0,0,0,0,0,0,0,0,0,0,0,0,0,0,0,0,0,0,0,0,0,0,0,0,0,0,0,0,0,0,0,0,0,0,0,0,0,0,0,0,0,0,0,0,0,0,0,0,0,0,0,0],"sum_hessian":[1.178E3,1.4E1,1.164E3,8E0,6E0,1.104E3,6E1,7E0,1E0,1.094E3,1E1,3E0,5.7E1,5E0,2E0,1.075E3,1.9E1,7E0,3E0,1E0,2E0,4.4E1,1.3E1,1E0,1E0,8.49E2,2.26E2,1.7E1,2E0,6E0,1E0,1E0,2E0,2.3E1,2.1E1,1E0,1.2E1,6.71E2,1.78E2,5.3E1,1.73E2,1.4E1,3E0,1E0,1E0,1E0,5E0,2.2E1,1E0,1.5E1,6E0,3E0,9E0,8.8E1,5.83E2,1E0,1.77E2,5.1E1,2E0,7E0,1.66E2,3E0,1.1E1,1.4E1,8E0,1.4E1,1E0,4E0,2E0,8E0,1E0],"tree_param":{"num_deleted":"0","num_feature":"20","num_nodes":"71","size_leaf_vector":"0"}},{"base_weights":[-5.8425736E-2,-5.7518136E-2,-7.084107E-2,-6.456893E-2,-5.5972382E-2,-9.315513E-2,-5.339904E-2,-5.1661346E-2,-6.990642E-2,-4.8451745E-3,-5.653321E-2,6.4575933E-3,-1.0001123E-1,-5.5774346E-2,2.5557209E-2,-2.229694E-2,-5.7798315E-2,-7.3040515E-2,-4.9713135E-2,-3.9631628E-2,1.7150968E-1,-2.8602134E-2,-5.7263296E-2,-1.3579482E-2,2.3265872E-2,-1.946087E-2,-1.05069794E-1,-6.832716E-2,-3.566132E-2,-4.355023E-2,5.5979673E-2,-5.9998933E-2,2.3915634E-2,-6.7660585E-2,-1.0142753E-1,2.3594024E-3,-5.852297E-2,-5.205028E-2,-7.991077E-3,1.9040091E-2,-4.4649158E-2,-3.7749987E-2,-5.8148615E-2,-2.3132099E-2,-6.059205E-3,-1.0995136E-1,-2.7739618E-2,4.911583E-3,-7.145317E-2,-4.422346E-2,-9.739447E-3,1.2160007E-2,-5.109137E-2,1.5218154E-2,6.875136E-2,-4.4585433E-2,-7.355471E-2,-6.897934E-2,3.0129023E-2,-1.80833E-2,1.5201404E-2,-6.9351695E-2,-1.649795E-2,-2.1668313E-2,-5.986941E-2,2.9995017E-2,-3.0651448E-2,-2.6286513E-2,5.960667E-2,2.3940252E-3,-5.361938E-2,-3.2217987E-2,-8.0866516E-2,-5.911324E-2,-4.3031063E-2,-1.15338326E-1,-3.0205244E-2,-7.475784E-2,-2.2299673E-2,-3.2064237E-2,-6.6605456E-2,-1.4950784E-2,8.158617E-3,-2.9874302E-2,-7.014413E-2,-6.396326E-2,-2.96877E-2,-8.318758E-2,-3.0791484E-2,2.0339351E-2,-7.012161E-2,-7.689067E-2,-1.6078567E-2,-2.4269577E-2,7.2942823E-3,-6.586416E-2,-1.7945195E-2,2.8845184E-3,-3.6971696E-2,1.2363084E-2,-5.050022E-3,3.1464174E-4,-5.723596E-2,-3.7035454E-2,6.9843917E-3,-5.8432605E-2,-8.8216834E-2,-1.1250796E-3,-4.5474064E-2,-3.2041308E-2,-1.1756683E-1,-1.1400955E-2,-7.711947E-2,2.3117103E-3,-1.9844335E-2],"categories":[],"categories_nodes":[],"categories_segments":[],"categories_sizes":[],"default_left":[1,1,1,1,1,1,1,1,1,1,1,1,1,1,0,1,1,1,1,1,0,1,1,0,0,1,1,1,1,1,1,1,0,1,0,1,1,1,1,1,1,1,1,0,0,1,0,0,1,1,1,0,1,0,0,1,1,1,0,0,0,1,1,0,1,0,0,1,0,1,1,1,0,1,1,1,0,1,0,0,0,1,0,0,0,0,0,0,0,0,0,0,0,0,0,0,0,0,0,0,0,0,0,0,0,0,0,0,0,0,0,0,0,0,0],"id":42,"left_children":[1,3,5,7,9,11,13,15,17,19,21,23,25,27,-1,29,31,33,35,37,-1,39,41,-1,-1,43,45,47,49,51,53,55,-1,57,-1,59,61,63,65,67,69,71,73,-1,-1,75,-1,-1,77,79,81,-1,83,-1,-1,85,87,89,-1,-1,-1,91,93,-1,95,-1,-1,97,-1,99,101,103,-1,105,107,109,-1,111,-1,-1,-1,113,-1,-1,-1,-1,-1,-1,-1,-1,-1,-1,-1,-1,-1,-1,-1,-1,-1,-1,-1,-1,-1,-1,-1,-1,-1,-1,-1,-1,-1,-1,-1,-1,-1],"loss_changes":[9.21011E-3,8.418083E-3,2.4605006E-2,9.616256E-3,2.5904894E-2,2.2500396E-2,9.864971E-3,9.523794E-3,4.7861934E-3,7.427958E-2,1.6776085E-2,1.3263047E-3,1.0179341E-2,8.672267E-3,0E0,2.2401556E-2,1.0246143E-2,1.0394633E-2,9.771839E-3,3.513392E-3,0E0,1.996302E-2,1.2990236E-2,0E0,0E0,7.4396376E-6,7.519752E-3,6.3035265E-3,3.7862733E-3,4.822459E-3,5.1551126E-4,6.7497343E-3,0E0,1.4716387E-2,0E0,1.3249923E-3,7.047225E-3,3.65654E-4,4.362507E-3,1.443807E-2,8.146137E-3,7.1739927E-3,9.691238E-3,0E0,0E0,7.6855123E-3,0E0,0E0,2.3938268E-3,1.6744137E-3,6.8161474E-4,0E0,1.5426856E-3,0E0,0E0,5.318217E-3,7.324934E-3,1.1322737E-2,0E0,0E0,0E0,4.386455E-3,1.1015511E-3,0E0,7.468276E-5,0E0,0E0,1.3534368E-3,0E0,3.5927442E-4,3.138911E-3,7.4352063E-3,0E0,1.0415077E-2,5.4771528E-3,6.88076E-4,0E0,2.5621504E-3,0E0,0E0,0E0,4.6824873E-4,0E0,0E0,0E0,0E0,0E0,0E0,0E0,0E0,0E0,0E0,0E0,0E0,0E0,0E0,0E0,0E0,0E0,0E0,0E0,0E0,0E0,0E0,0E0,0E0,0E0,0E0,0E0,0E0,0E0,0E0,0E0,0E0,0E0],"parents":[2147483647,0,0,1,1,2,2,3,3,4,4,5,5,6,6,7,7,8,8,9,9,10,10,11,11,12,12,13,13,15,15,16,16,17,17,18,18,19,19,21,21,22,22,25,25,26,26,27,27,28,28,29,29,30,30,31,31,33,33,35,35,36,36,37,37,38,38,39,39,40,40,41,41,42,42,45,45,48,48,49,49,50,50,52,52,55,55,56,56,57,57,61,61,62,62,64,64,67,67,69,69,70,70,71,71,73,73,74,74,75,75,77,77,81,81],"right_children":[2,4,6,8,10,12,14,16,18,20,22,24,26,28,-1,30,32,34,36,38,-1,40,42,-1,-1,44,46,48,50,52,54,56,-1,58,-1,60,62,64,66,68,70,72,74,-1,-1,76,-1,-1,78,80,82,-1,84,-1,-1,86,88,90,-1,-1,-1,92,94,-1,96,-1,-1,98,-1,100,102,104,-1,106,108,110,-1,112,-1,-1,-1,114,-1,-1,-1,-1,-1,-1,-1,-1,-1,-1,-1,-1,-1,-1,-1,-1,-1,-1,-1,-1,-1,-1,-1,-1,-1,-1,-1,-1,-1,-1,-1,-1,-1],"split_conditions":[7.817894E1,-9.09507E-2,9.5602405E-1,4.9735956E-2,-9.125965E-2,-3.3253126E-2,1.820621E1,2.690394E6,1.6265619E0,2.4464178E0,-9.95719E0,1.28905E2,6.132103E0,3.7426032E-2,1.2778605E-3,8.886336E-1,2.364927E-1,1.2234464E0,1.692204E0,5.6987465E1,8.575484E-3,2.4495363E-1,-7.769843E-2,-6.7897415E-4,1.1632936E-3,1.53925E2,1.5659747E-1,2.2370744E-1,3.2365456E-1,-4.336719E0,5.0155E1,8.680786E0,1.1957817E-3,1.5111622E1,-5.071377E-3,5.204E1,7.649531E6,3.6048378E1,5.1165E1,4.6661004E-1,4.98E1,8.0304565E6,2.0470972E2,-1.156605E-3,-3.0296025E-4,2.4797E2,-1.3869809E-3,2.4557914E-4,1.8422E2,1.0643954E0,1.3026278E7,6.080004E-4,3.4679783E1,7.609077E-4,3.437568E-3,1.19875E2,1.378656E-1,3.9860743E-1,1.5064512E-3,-9.0416503E-4,7.600702E-4,2.5981998E-1,1.446E1,-1.0834157E-3,5.0890846E1,1.4997509E-3,-1.5325724E-3,1.5573001E2,2.9803335E-3,4.9295E1,1.0919324E-1,1.4986644E0,-4.043326E-3,1.8642712E2,5.8349247E0,7.987784E-1,-1.5102623E-3,1.744E1,-1.1149837E-3,-1.6032119E-3,-3.3302729E-3,2.3564999E1,4.0793084E-4,-1.4937151E-3,-3.5072067E-3,-3.198163E-3,-1.4843851E-3,-4.1593793E-3,-1.5395742E-3,1.0169676E-3,-3.5060805E-3,-3.8445336E-3,-8.0392836E-4,-1.2134789E-3,3.6471413E-4,-3.293208E-3,-8.9725974E-4,1.4422592E-4,-1.8485849E-3,6.181542E-4,-2.525011E-4,1.5732088E-5,-2.861798E-3,-1.8517728E-3,3.492196E-4,-2.9216304E-3,-4.410842E-3,-5.625398E-5,-2.2737032E-3,-1.6020654E-3,-5.878342E-3,-5.7004776E-4,-3.8559735E-3,1.1558551E-4,-9.922168E-4],"split_indices":[9,17,11,19,16,16,10,4,15,13,10,0,12,18,0,13,14,15,15,9,0,11,17,0,0,0,14,19,17,10,0,12,0,12,0,3,4,9,0,13,0,4,8,0,0,1,0,0,3,15,4,0,9,0,0,2,14,13,0,0,0,11,2,0,9,0,0,0,0,0,19,13,0,8,12,11,0,0,0,0,0,0,0,0,0,0,0,0,0,0,0,0,0,0,0,0,0,0,0,0,0,0,0,0,0,0,0,0,0,0,0,0,0,0,0],"split_type":[0,0,0,0,0,0,0,0,0,0,0,0,0,0,0,0,0,0,0,0,0,0,0,0,0,0,0,0,0,0,0,0,0,0,0,0,0,0,0,0,0,0,0,0,0,0,0,0,0,0,0,0,0,0,0,0,0,0,0,0,0,0,0,0,0,0,0,0,0,0,0,0,0,0,0,0,0,0,0,0,0,0,0,0,0,0,0,0,0,0,0,0,0,0,0,0,0,0,0,0,0,0,0,0,0,0,0,0,0,0,0,0,0,0,0],"sum_hessian":[1.178E3,1.103E3,7.5E1,1.91E2,9.12E2,3.1E1,4.4E1,5.9E1,1.32E2,1E1,9.02E2,2E0,2.9E1,4.3E1,1E0,1.1E1,4.8E1,1.12E2,2E1,9E0,1E0,2.4E1,8.78E2,1E0,1E0,2E0,2.7E1,2.5E1,1.8E1,9E0,2E0,4.7E1,1E0,9.7E1,1.5E1,3E0,1.7E1,6E0,3E0,6E0,1.8E1,4E1,8.38E2,1E0,1E0,2.5E1,2E0,1E0,2.4E1,1.3E1,5E0,1E0,8E0,1E0,1E0,2.4E1,2.3E1,9.6E1,1E0,1E0,2E0,1.3E1,4E0,2E0,4E0,1E0,2E0,3E0,3E0,3E0,1.5E1,3.7E1,3E0,7.85E2,5.3E1,2.3E1,2E0,2.2E1,2E0,1E1,3E0,4E0,1E0,5E0,3E0,9E0,1.5E1,1.8E1,5E0,1E0,9.5E1,1.1E1,2E0,3E0,1E0,3E0,1E0,1E0,2E0,1E0,2E0,1E0,1.4E1,3.3E1,4E0,7.7E2,1.5E1,3E0,5E1,1E0,2.2E1,1E0,2.1E1,1E0,3E0],"tree_param":{"num_deleted":"0","num_feature":"20","num_nodes":"115","size_leaf_vector":"0"}},{"base_weights":[-5.5551093E-2,-5.4673225E-2,-6.757233E-2,-6.6860534E-2,-5.3770844E-2,-8.885215E-2,-5.0938416E-2,-3.3554644E-3,-7.0546776E-2,3.1723782E-2,-5.3884428E-2,6.296152E-3,-9.540524E-2,-5.322876E-2,2.4918277E-2,2.331774E-2,-1.58532E-2,-6.2176645E-2,-9.8390386E-2,2.3970202E-2,-5.398319E-2,-1.32399965E-2,2.2684224E-2,-1.8974347E-2,-1.0018694E-1,-6.4554594E-2,-3.3282854E-2,-1.9703992E-2,-2.1504126E-3,-6.6615134E-2,-4.4687525E-3,-1.1210094E-1,-3.6088765E-2,-5.4291703E-2,-2.564793E-2,-2.2553796E-2,-5.9077237E-3,-1.0479959E-1,-2.6814964E-2,4.7887936E-3,-6.740583E-2,-2.4661465E-2,-6.81693E-2,-4.2106077E-2,-7.307674E-2,2.9375799E-2,-2.027384E-2,-4.732605E-2,-1.3047576E-1,-5.3519756E-2,-7.573478E-2,-3.9522048E-2,1.54493395E-2,-1.0988309E-1,-2.9198403E-2,-5.3742725E-2,-8.72425E-2,-3.0561509E-2,-5.5690617E-3,1.14545515E-2,-5.2885696E-2,-1.7661897E-2,-7.559478E-2,-5.4109704E-2,-2.5182875E-2,-8.305762E-2,-1.8115342E-2,-4.54651E-2,-1.0499892E-2,-3.2923855E-3,2.2794044E-2,-3.1240277E-2,-1.1194407E-1,-1.0858044E-2,-5.5626646E-2,-1.0938652E-2,7.95465E-3],"categories":[],"categories_nodes":[],"categories_segments":[],"categories_sizes":[],"default_left":[1,1,1,1,1,1,1,1,1,0,1,1,1,1,0,0,1,1,1,0,1,0,0,1,1,1,1,0,0,1,1,1,0,1,1,0,0,1,0,0,1,1,0,1,1,0,0,0,0,1,1,1,1,1,0,1,0,0,1,0,0,0,0,0,0,0,0,0,0,0,0,0,0,0,0,0,0],"id":43,"left_children":[1,3,5,7,9,11,13,15,17,-1,19,21,23,25,-1,-1,27,29,31,-1,33,-1,-1,35,37,39,41,-1,-1,43,45,47,-1,49,51,-1,-1,53,-1,-1,55,57,-1,59,61,-1,-1,-1,-1,63,65,67,69,71,-1,73,-1,-1,75,-1,-1,-1,-1,-1,-1,-1,-1,-1,-1,-1,-1,-1,-1,-1,-1,-1,-1],"loss_changes":[8.747816E-3,8.546352E-3,2.2375494E-2,1.6618162E-2,1.17406845E-2,2.0553142E-2,9.144574E-3,2.0364341E-3,9.73013E-3,0E0,9.228945E-3,1.2608184E-3,9.063095E-3,7.7912062E-3,0E0,0E0,1.6869465E-4,1.3789788E-2,7.913068E-3,0E0,7.620573E-3,0E0,0E0,7.072347E-6,6.666124E-3,5.6610852E-3,3.732698E-3,0E0,0E0,4.9997717E-3,3.2701408E-3,6.917596E-3,0E0,1.2814045E-2,8.023036E-3,0E0,0E0,6.783843E-3,0E0,0E0,2.3581386E-3,1.6321372E-3,0E0,8.111501E-3,4.1068196E-3,0E0,0E0,0E0,0E0,1.5137672E-2,1.2419328E-2,1.2474237E-3,6.2565645E-4,3.927946E-4,0E0,8.502491E-4,0E0,0E0,4.5009708E-4,0E0,0E0,0E0,0E0,0E0,0E0,0E0,0E0,0E0,0E0,0E0,0E0,0E0,0E0,0E0,0E0,0E0,0E0],"parents":[2147483647,0,0,1,1,2,2,3,3,4,4,5,5,6,6,7,7,8,8,10,10,11,11,12,12,13,13,16,16,17,17,18,18,20,20,23,23,24,24,25,25,26,26,29,29,30,30,31,31,33,33,34,34,37,37,40,40,41,41,43,43,44,44,49,49,50,50,51,51,52,52,53,53,55,55,58,58],"right_children":[2,4,6,8,10,12,14,16,18,-1,20,22,24,26,-1,-1,28,30,32,-1,34,-1,-1,36,38,40,42,-1,-1,44,46,48,-1,50,52,-1,-1,54,-1,-1,56,58,-1,60,62,-1,-1,-1,-1,64,66,68,70,72,-1,74,-1,-1,76,-1,-1,-1,-1,-1,-1,-1,-1,-1,-1,-1,-1,-1,-1,-1,-1,-1,-1],"split_conditions":[7.817894E1,2.5001791E1,9.5602405E-1,-1.4830449E-1,-1.6593658E1,-3.3253126E-2,1.820621E1,6.921637E6,1.9605517E0,1.5861891E-3,1.1525E1,1.28905E2,6.132103E0,4.1554675E-2,1.2459139E-3,1.165887E-3,1.6678143E2,1.3508189E-1,1.38E2,1.19851E-3,1.9941547E1,-6.6199986E-4,1.1342112E-3,1.53925E2,1.5659747E-1,2.2370744E-1,9.562267E0,-9.851996E-4,-1.0752063E-4,3.4411114E-1,3.1925E1,1.422E1,-1.8044383E-3,1.31310005E1,5.0120003E1,-1.1276898E-3,-2.9538618E-4,2.4797E2,-1.3407482E-3,2.3943969E-4,1.6801482E0,1.1517006E0,-3.4084653E-3,2.0453564E1,3.4142154E-1,1.46879E-3,-1.013692E-3,-2.3663025E-3,-6.523788E-3,1.219133E1,9.064572E-1,1.4682253E7,5.2559998E1,7.987784E-1,-1.4599202E-3,3.8048017E-3,-4.362125E-3,-1.5280754E-3,1.3026278E7,5.727276E-4,-2.6442849E-3,-8.830949E-4,-3.7797391E-3,-2.7054853E-3,-1.2591438E-3,-4.152881E-3,-9.057671E-4,-2.273255E-3,-5.249946E-4,-1.6461928E-4,1.1397022E-3,-1.5620139E-3,-5.5972035E-3,-5.429022E-4,-2.7813322E-3,-5.469326E-4,3.9773248E-4],"split_indices":[9,9,11,11,10,16,10,4,13,0,1,0,12,18,0,0,5,14,0,0,12,0,0,0,14,19,12,0,0,18,0,0,0,12,3,0,0,1,0,0,13,15,0,9,13,0,0,0,0,12,18,4,1,11,0,18,0,0,4,0,0,0,0,0,0,0,0,0,0,0,0,0,0,0,0,0,0],"split_type":[0,0,0,0,0,0,0,0,0,0,0,0,0,0,0,0,0,0,0,0,0,0,0,0,0,0,0,0,0,0,0,0,0,0,0,0,0,0,0,0,0,0,0,0,0,0,0,0,0,0,0,0,0,0,0,0,0,0,0,0,0,0,0,0,0,0,0,0,0,0,0,0,0,0,0,0,0],"sum_hessian":[1.178E3,1.103E3,7.5E1,7.1E1,1.032E3,3.1E1,4.4E1,4E0,6.7E1,1E0,1.031E3,2E0,2.9E1,4.3E1,1E0,1E0,3E0,5.4E1,1.3E1,1E0,1.03E3,1E0,1E0,2E0,2.7E1,2.6E1,1.7E1,2E0,1E0,5E1,4E0,1E1,3E0,1.018E3,1.2E1,1E0,1E0,2.5E1,2E0,1E0,2.5E1,1.5E1,2E0,1.2E1,3.8E1,1E0,3E0,3E0,7E0,9.86E2,3.2E1,9E0,3E0,2.3E1,2E0,1.7E1,8E0,1.1E1,4E0,2E0,1E1,2E0,3.6E1,9.65E2,2.1E1,2.8E1,4E0,7E0,2E0,1E0,2E0,1E0,2.2E1,1E0,1.6E1,3E0,1E0],"tree_param":{"num_deleted":"0","num_feature":"20","num_nodes":"77","size_leaf_vector":"0"}},{"base_weights":[-5.2813537E-2,-8.021788E-2,-5.241536E-2,-9.4424225E-2,-5.049289E-2,-5.1697604E-2,-6.455802E-2,-9.977912E-2,-2.5792535E-2,-5.234124E-2,1.707332E-2,-1.06373616E-1,-5.8924958E-2,-1.1181797E-1,-4.244171E-2,-5.180721E-2,-7.2305605E-2,-2.922901E-2,1.0540965E-1,-1.6180083E-2,-1.2117631E-1,-3.496609E-2,-7.580142E-2,-5.218122E-2,-1.1481344E-2,3.059788E-2,-5.191292E-2,-3.826555E-2,-8.28327E-2,-4.0285483E-2,2.408315E-2,1.6857468E-1,2.8163081E-2,-5.817065E-2,-4.9802572E-3,-1.9572504E-2,-8.0943294E-2,-3.1052144E-2,-5.2362304E-2,-2.0498259E-2,-4.482627E-2,-2.1863086E-2,-8.871954E-2,1.1562638E-2,-5.085394E-2,-8.704976E-2,-3.2454506E-2,1.747274E-2,-2.3514217E-2,-2.4698904E-2,-2.096653E-3,-8.3089836E-2,-1.0420004E-2,-3.7385684E-2,6.0476393E-2,-5.2742384E-2,-2.7746366E-2,-1.5288081E-2,-9.23535E-2,-1.3703851E-2,-5.554319E-2,-4.0481504E-2,-1.7936608E-2,-2.8453087E-2,3.234852E-2,-2.6022235E-2,-4.233055E-3,-3.116531E-2,-8.588537E-2],"categories":[],"categories_nodes":[],"categories_segments":[],"categories_sizes":[],"default_left":[1,1,1,1,0,1,1,1,0,1,1,1,1,0,1,1,1,1,1,0,0,1,1,0,0,0,1,1,1,1,0,0,0,1,1,1,1,1,1,0,0,0,1,0,1,0,1,1,1,0,0,1,0,0,0,0,0,0,0,0,0,0,0,0,0,0,0,0,0],"id":44,"left_children":[1,3,5,7,-1,9,11,13,-1,15,17,19,21,-1,23,25,27,29,31,-1,-1,33,35,-1,-1,-1,37,39,41,43,-1,-1,-1,45,47,49,51,53,55,-1,-1,-1,57,-1,59,-1,61,63,65,-1,-1,67,-1,-1,-1,-1,-1,-1,-1,-1,-1,-1,-1,-1,-1,-1,-1,-1,-1],"loss_changes":[8.6603165E-3,1.5664995E-3,6.815672E-3,7.3408335E-4,0E0,4.9804926E-2,8.10051E-3,7.764697E-4,0E0,7.928371E-3,4.8072975E-2,6.0499907E-3,1.9992605E-2,0E0,3.0550594E-4,1.0909319E-2,6.1472654E-3,5.685758E-3,1.4769543E-2,0E0,0E0,1.7105496E-2,7.667631E-3,0E0,0E0,0E0,8.395433E-3,1.3669021E-5,4.8797578E-3,4.423688E-3,0E0,0E0,0E0,7.5720735E-3,5.4045734E-3,3.0656776E-4,3.5242736E-3,1.6753444E-2,8.313656E-3,0E0,0E0,0E0,3.1244904E-3,0E0,2.840804E-4,0E0,3.2271538E-4,5.019511E-3,2.2834865E-4,0E0,0E0,1.3877302E-3,0E0,0E0,0E0,0E0,0E0,0E0,0E0,0E0,0E0,0E0,0E0,0E0,0E0,0E0,0E0,0E0,0E0],"parents":[2147483647,0,0,1,1,2,2,3,3,5,5,6,6,7,7,9,9,10,10,11,11,12,12,14,14,15,15,16,16,17,17,18,18,21,21,22,22,26,26,27,27,28,28,29,29,33,33,34,34,35,35,36,36,37,37,38,38,42,42,44,44,46,46,47,47,48,48,51,51],"right_children":[2,4,6,8,-1,10,12,14,-1,16,18,20,22,-1,24,26,28,30,32,-1,-1,34,36,-1,-1,-1,38,40,42,44,-1,-1,-1,46,48,50,52,54,56,-1,-1,-1,58,-1,60,-1,62,64,66,-1,-1,68,-1,-1,-1,-1,-1,-1,-1,-1,-1,-1,-1,-1,-1,-1,-1,-1,-1],"split_conditions":[1.25074005E1,9.649682E-2,1.1054761E7,1.5555E1,-2.5246446E-3,2.506357E0,1.2086098E0,3.067267E-1,-1.2896268E-3,1.5533833E-1,1.0024735E0,2.0004286E1,1.963196E0,-5.5908985E-3,1.3745001E1,-1.1483349E-1,-1.1829573E-1,7.2962906E1,4.7385002E1,-8.090042E-4,-6.0588154E-3,1.1524423E-1,-1.803915E-1,-2.609061E-3,-5.740672E-4,1.5298941E-3,-1.1956305E1,-7.7308693E0,2.3722317E1,6.7886225E6,1.2041576E-3,8.428734E-3,1.408154E-3,4.0389526E-1,6.105E1,8.8770004E1,2.57195E2,1.6761E2,9.928116E6,-1.0249129E-3,-2.2413135E-3,-1.0931543E-3,3.5984905E6,5.7813193E-4,-2.5942464E0,-4.352488E-3,8.2345E1,1.5415E1,1.9972E2,-1.2349453E-3,-1.0483265E-4,1.604E1,-5.210002E-4,-1.8692842E-3,3.0238198E-3,-2.6371193E-3,-1.3873184E-3,-7.644041E-4,-4.617675E-3,-6.851926E-4,-2.7771597E-3,-2.0240752E-3,-8.968304E-4,-1.4226544E-3,1.617426E-3,-1.3011118E-3,-2.1165275E-4,-1.5582655E-3,-4.2942683E-3],"split_indices":[6,14,4,2,0,13,13,17,0,14,15,5,13,0,1,16,16,9,0,0,0,18,11,0,0,0,10,10,9,4,0,0,0,19,0,0,3,2,4,0,0,0,4,0,10,0,0,0,0,0,0,0,0,0,0,0,0,0,0,0,0,0,0,0,0,0,0,0,0],"split_type":[0,0,0,0,0,0,0,0,0,0,0,0,0,0,0,0,0,0,0,0,0,0,0,0,0,0,0,0,0,0,0,0,0,0,0,0,0,0,0,0,0,0,0,0,0,0,0,0,0,0,0,0,0,0,0,0,0,0,0,0,0,0,0,0,0,0,0,0,0],"sum_hessian":[1.178E3,1.4E1,1.164E3,8E0,6E0,1.104E3,6E1,7E0,1E0,1.094E3,1E1,5E0,5.5E1,5E0,2E0,1.069E3,2.5E1,7E0,3E0,1E0,4E0,2.4E1,3.1E1,1E0,1E0,1E0,1.068E3,7E0,1.8E1,6E0,1E0,1E0,2E0,1.3E1,1.1E1,3E0,2.8E1,2.4E1,1.044E3,3E0,4E0,2E0,1.6E1,1E0,5E0,5E0,8E0,5E0,6E0,2E0,1E0,2.7E1,1E0,2.3E1,1E0,1.027E3,1.7E1,1E0,1.5E1,1E0,4E0,4E0,4E0,1E0,4E0,5E0,1E0,2E0,2.5E1],"tree_param":{"num_deleted":"0","num_feature":"20","num_nodes":"69","size_leaf_vector":"0"}},{"base_weights":[-5.0205674E-2,-4.93588E-2,-6.184703E-2,-6.114603E-2,-4.848945E-2,-8.185148E-2,-4.6247266E-2,-2.9817552E-3,-6.452361E-2,3.1865336E-2,-4.859819E-2,7.451491E-3,-8.80534E-2,-4.84342E-2,2.498898E-2,2.2030711E-2,-1.47425495E-2,-5.6674745E-2,-9.074959E-2,2.4689507E-2,-4.869322E-2,-1.2258442E-2,2.3435678E-2,-1.674191E-2,-9.254915E-2,-5.879176E-2,-3.0207077E-2,-1.8293908E-2,-2.0442382E-3,-6.07754E-2,-3.5130964E-3,-1.0403957E-1,-3.1514738E-2,-4.8029646E-2,-6.4769566E-2,-2.0671392E-2,-4.441472E-3,-9.693287E-2,-2.3707215E-2,5.987633E-3,-6.151357E-2,-2.1794584E-2,-6.500468E-2,-3.7784923E-2,-6.688055E-2,2.783269E-2,-1.8307716E-2,-4.3836307E-2,-1.21136256E-1,-4.8565425E-2,3.4453083E-2,-8.556143E-2,-4.9075924E-2,-1.0170223E-1,-2.6467046E-2,-4.3894347E-2,-7.348045E-2,-2.696557E-2,-5.025302E-3,-8.8626967E-4,-5.408585E-2,-1.5315089E-2,-6.925395E-2,-4.913956E-3,-2.1134317E-2,-4.9768604E-2,-4.024161E-2,1.6436031E-1,-1.45915095E-2,-3.0725317E-2,-9.671002E-2,2.1365775E-2,-5.645089E-2,-1.0936778E-1,-6.047761E-2,-4.834799E-2,-1.2932875E-2,-9.031603E-3,-7.7743314E-2,-1.577558E-2,1.6061626E-3],"categories":[],"categories_nodes":[],"categories_segments":[],"categories_sizes":[],"default_left":[1,1,1,1,1,1,1,1,1,0,1,1,1,1,0,0,1,1,1,0,1,0,0,1,1,1,1,0,0,1,1,1,0,1,1,0,0,1,0,0,1,1,0,1,1,0,1,0,0,1,1,1,1,1,0,1,1,0,1,0,0,0,0,0,0,0,0,0,0,0,0,0,0,0,0,0,0,0,0,0,0],"id":45,"left_children":[1,3,5,7,9,11,13,15,17,-1,19,21,23,25,-1,-1,27,29,31,-1,33,-1,-1,35,37,39,41,-1,-1,43,45,47,-1,49,51,-1,-1,53,-1,-1,55,57,-1,59,61,-1,63,-1,-1,65,67,69,71,73,-1,75,77,-1,79,-1,-1,-1,-1,-1,-1,-1,-1,-1,-1,-1,-1,-1,-1,-1,-1,-1,-1,-1,-1,-1,-1],"loss_changes":[8.5709095E-3,8.348227E-3,1.9931525E-2,1.3952345E-2,1.0574818E-2,1.8379316E-2,8.220822E-3,1.7956211E-3,8.854181E-3,0E0,8.389473E-3,1.2324267E-3,8.068502E-3,6.5307617E-3,0E0,0E0,1.4298788E-4,1.1776358E-2,7.7424496E-3,0E0,7.888079E-3,0E0,0E0,5.3191674E-5,6.1519444E-3,5.128883E-3,3.8524717E-3,0E0,0E0,4.6313107E-3,2.828298E-3,6.0118586E-3,0E0,4.5600414E-2,8.200392E-3,0E0,0E0,6.0462505E-3,0E0,0E0,2.2566468E-3,1.2519099E-3,0E0,7.7713337E-3,3.7124008E-3,0E0,4.75822E-5,0E0,0E0,7.891893E-3,4.6996996E-2,6.1987266E-3,1.3674233E-2,9.699315E-4,0E0,1.1673123E-3,3.14416E-3,0E0,3.817886E-4,0E0,0E0,0E0,0E0,0E0,0E0,0E0,0E0,0E0,0E0,0E0,0E0,0E0,0E0,0E0,0E0,0E0,0E0,0E0,0E0,0E0,0E0],"parents":[2147483647,0,0,1,1,2,2,3,3,4,4,5,5,6,6,7,7,8,8,10,10,11,11,12,12,13,13,16,16,17,17,18,18,20,20,23,23,24,24,25,25,26,26,29,29,30,30,31,31,33,33,34,34,37,37,40,40,41,41,43,43,44,44,46,46,49,49,50,50,51,51,52,52,53,53,55,55,56,56,58,58],"right_children":[2,4,6,8,10,12,14,16,18,-1,20,22,24,26,-1,-1,28,30,32,-1,34,-1,-1,36,38,40,42,-1,-1,44,46,48,-1,50,52,-1,-1,54,-1,-1,56,58,-1,60,62,-1,64,-1,-1,66,68,70,72,74,-1,76,78,-1,80,-1,-1,-1,-1,-1,-1,-1,-1,-1,-1,-1,-1,-1,-1,-1,-1,-1,-1,-1,-1,-1,-1],"split_conditions":[7.817894E1,2.5001791E1,9.5602405E-1,-1.4830449E-1,-1.6593658E1,-3.3253126E-2,1.820621E1,6.921637E6,1.9605517E0,1.5932668E-3,1.1525E1,1.28905E2,6.132103E0,4.1554675E-2,1.249449E-3,1.1015356E-3,1.6678143E2,1.3508189E-1,1.38E2,1.2344754E-3,1.0676698E7,-6.1292213E-4,1.1717839E-3,1.53925E2,1.5659747E-1,2.2370744E-1,9.562267E0,-9.146954E-4,-1.0221191E-4,3.4411114E-1,3.1925E1,1.422E1,-1.5757369E-3,2.7549582E0,1.2171711E7,-1.0335696E-3,-2.2207359E-4,2.4797E2,-1.1853607E-3,2.9938165E-4,1.7774072E-1,1.1517006E0,-3.2502338E-3,2.3048737E1,3.4142154E-1,1.3916346E-3,6.2979996E1,-2.1918153E-3,-6.056813E-3,1.6373007E2,-7.4063346E-2,6.3385415E-1,1.2293422E7,9.304471E-2,-1.3233523E-3,1.0503426E0,1.744E1,-1.3482785E-3,2.214E1,-4.4313485E-5,-2.7042925E-3,-7.657545E-4,-3.4626976E-3,-2.456978E-4,-1.0567158E-3,-2.4884304E-3,-2.0120805E-3,8.218016E-3,-7.2957546E-4,-1.5362658E-3,-4.835501E-3,1.0682888E-3,-2.8225444E-3,-5.468389E-3,-3.0238805E-3,-2.4173995E-3,-6.4664375E-4,-4.5158016E-4,-3.8871658E-3,-7.88779E-4,8.0308135E-5],"split_indices":[9,9,11,11,10,16,10,4,13,0,1,0,12,18,0,0,5,14,0,0,4,0,0,0,14,19,12,0,0,18,0,0,0,13,4,0,0,1,0,0,17,15,0,9,13,0,0,0,0,8,16,11,4,18,0,11,0,0,2,0,0,0,0,0,0,0,0,0,0,0,0,0,0,0,0,0,0,0,0,0,0],"split_type":[0,0,0,0,0,0,0,0,0,0,0,0,0,0,0,0,0,0,0,0,0,0,0,0,0,0,0,0,0,0,0,0,0,0,0,0,0,0,0,0,0,0,0,0,0,0,0,0,0,0,0,0,0,0,0,0,0,0,0,0,0,0,0,0,0,0,0,0,0,0,0,0,0,0,0,0,0,0,0,0,0],"sum_hessian":[1.178E3,1.103E3,7.5E1,7.1E1,1.032E3,3.1E1,4.4E1,4E0,6.7E1,1E0,1.031E3,2E0,2.9E1,4.3E1,1E0,1E0,3E0,5.4E1,1.3E1,1E0,1.03E3,1E0,1E0,2E0,2.7E1,2.6E1,1.7E1,2E0,1E0,5E1,4E0,1E1,3E0,9.93E2,3.7E1,1E0,1E0,2.5E1,2E0,1E0,2.5E1,1.5E1,2E0,1.2E1,3.8E1,1E0,3E0,3E0,7E0,9.87E2,6E0,1.4E1,2.3E1,2.3E1,2E0,1.2E1,1.3E1,1.1E1,4E0,4E0,8E0,2E0,3.6E1,1E0,2E0,8.58E2,1.29E2,1E0,5E0,3E0,1.1E1,2E0,2.1E1,1.8E1,5E0,1E1,2E0,1E0,1.2E1,1E0,3E0],"tree_param":{"num_deleted":"0","num_feature":"20","num_nodes":"81","size_leaf_vector":"0"}},{"base_weights":[-4.773084E-2,-7.409861E-2,-4.735037E-2,-8.76459E-2,-4.6095148E-2,-4.666693E-2,-5.8954507E-2,-9.2720985E-2,-2.3522604E-2,-4.7264867E-2,1.7097274E-2,-9.873896E-2,-5.3639125E-2,-1.0376713E-1,-3.9721712E-2,-5.5543616E-2,-4.6131052E-2,-1.8974852E-2,1.19614564E-1,-1.5381191E-2,-1.1233428E-1,-3.1576604E-2,-6.919925E-2,-4.9632475E-2,-9.950095E-3,-5.287669E-2,-1.1004138E-1,2.430094E-2,-4.6301853E-2,3.080349E-2,-3.7597734E-2,1.602513E-1,1.9170541E-2,-5.3141113E-2,-3.7866281E-3,-1.796896E-2,-7.387932E-2,-5.6264702E-2,-1.9880813E-2,-4.761762E-2,-3.572602E-2,1.1638358E-2,-4.7743477E-2,-7.988665E-2,-2.9406186E-2,1.7149042E-2,-2.119054E-2,-2.2629859E-2,-1.993131E-3,-8.256031E-2,-4.5414843E-2,-8.113128E-2,-4.809266E-2,-4.6541862E-2,2.600075E-3,-4.549497E-3,-4.791593E-2,-3.9780684E-2,-2.1000186E-3,-1.2996467E-2,-5.2093584E-2,-3.679975E-2,-1.6131384E-2,-2.6330488E-2,3.1111045E-2,-2.3816979E-2,-2.7159564E-3,-5.1562417E-2,-1.01511866E-1,-4.890464E-2,-8.748233E-3],"categories":[],"categories_nodes":[],"categories_segments":[],"categories_sizes":[],"default_left":[1,1,1,1,0,1,1,1,0,1,1,1,1,0,1,1,1,1,1,0,0,1,1,0,0,1,0,0,1,0,1,0,0,1,1,1,1,1,1,1,1,0,1,0,1,1,1,0,0,1,1,0,0,0,0,0,0,0,0,0,0,0,0,0,0,0,0,0,0,0,0],"id":46,"left_children":[1,3,5,7,-1,9,11,13,-1,15,17,19,21,-1,23,25,27,29,31,-1,-1,33,35,-1,-1,37,-1,-1,39,-1,41,-1,-1,43,45,47,49,51,53,55,57,-1,59,-1,61,63,65,-1,-1,67,69,-1,-1,-1,-1,-1,-1,-1,-1,-1,-1,-1,-1,-1,-1,-1,-1,-1,-1,-1,-1],"loss_changes":[8.319378E-3,1.6505122E-3,6.4878464E-3,7.478446E-4,0E0,4.293847E-2,7.603377E-3,5.616918E-4,0E0,7.7159405E-3,4.2947855E-2,5.071819E-3,1.7039463E-2,0E0,3.9133057E-4,1.2639791E-2,1.2782335E-2,9.501288E-3,9.173047E-3,0E0,0E0,1.47807095E-2,6.34481E-3,0E0,0E0,1.2631655E-2,0E0,0E0,1.175499E-2,0E0,4.0524118E-3,0E0,0E0,6.5380856E-3,4.7357483E-3,2.5274255E-4,3.416434E-3,1.8654555E-2,7.912746E-3,1.0792255E-2,1.5050441E-2,0E0,2.298886E-4,0E0,2.897014E-4,4.461537E-3,2.7497066E-4,0E0,0E0,7.10243E-3,7.2380155E-4,0E0,0E0,0E0,0E0,0E0,0E0,0E0,0E0,0E0,0E0,0E0,0E0,0E0,0E0,0E0,0E0,0E0,0E0,0E0,0E0],"parents":[2147483647,0,0,1,1,2,2,3,3,5,5,6,6,7,7,9,9,10,10,11,11,12,12,14,14,15,15,16,16,17,17,18,18,21,21,22,22,25,25,28,28,30,30,33,33,34,34,35,35,36,36,37,37,38,38,39,39,40,40,42,42,44,