{"learner":{"attributes":{"best_iteration":"199","best_ntree_limit":"200","scikit_learn":"{\"n_estimators\": 200, \"objective\": \"reg:squarederror\", \"max_depth\": 7, \"max_leaves\": null, \"max_bin\": null, \"grow_policy\": null, \"learning_rate\": 0.05, \"verbosity\": null, \"booster\": null, \"tree_method\": null, \"gamma\": null, \"min_child_weight\": null, \"max_delta_step\": null, \"subsample\": null, \"sampling_method\": null, \"colsample_bytree\": null, \"colsample_bylevel\": null, \"colsample_bynode\": null, \"reg_alpha\": null, \"reg_lambda\": null, \"scale_pos_weight\": null, \"base_score\": null, \"missing\": NaN, \"num_parallel_tree\": null, \"random_state\": 42, \"n_jobs\": null, \"monotone_constraints\": null, \"interaction_constraints\": null, \"importance_type\": null, \"gpu_id\": null, \"validate_parameters\": null, \"predictor\": null, \"enable_categorical\": false, \"feature_types\": null, \"max_cat_to_onehot\": null, \"max_cat_threshold\": null, \"eval_metric\": null, \"early_stopping_rounds\": null, \"callbacks\": null, \"evals_result_\": {\"validation_0\": {\"rmse\": [0.4753345088289282, 0.4529392006424198, 0.4317073100107446, 0.4115821190318384, 0.3913534258223788, 0.3732711462705907, 0.3550467642799352, 0.338813461450322, 0.32344347635507953, 0.3078822213577901, 0.2941057928965381, 0.28011055330948686, 0.27021333791946706, 0.25763005643764497, 0.2489664563200846, 0.24056774641735174, 0.23016773295800297, 0.22282769980977288, 0.21326373570901477, 0.20677507695388303, 0.19887303912108384, 0.1925641783246063, 0.1860121017775777, 0.17910094825795062, 0.17306997393674498, 0.16711601209336133, 0.1617101621020746, 0.15645385726944558, 0.1514710909457881, 0.1464393886694192, 0.1420291544871232, 0.13811504603159924, 0.13409226332192759, 0.12988798300074983, 0.12622107231439486, 0.12280438738613415, 0.12001601582485012, 0.11747121532632357, 0.11445915925979828, 0.11212402269640376, 0.10960840441571544, 0.10749086301448728, 0.10564526887697212, 0.10380351380562271, 0.10210493378089135, 0.1001356922878539, 0.09866425348254756, 0.09736400450959955, 0.09613176940021605, 0.09492652261497904, 0.09375820781803745, 0.09316409582300095, 0.09190450759667285, 0.09118138555507893, 0.09036163817055466, 0.08972652242261504, 0.08881581688408906, 0.08802419831782009, 0.0871636105974012, 0.08646581298010837, 0.08563459548416483, 0.08495274847218615, 0.08426089328391458, 0.08361910707635926, 0.08322673385914597, 0.08283670218927047, 0.08231064539707507, 0.08178978173695917, 0.0814075578556167, 0.08095682974081415, 0.08067355649101003, 0.08025693511498354, 0.07981692728087343, 0.0796202726326981, 0.07928425376705492, 0.0790468158211334, 0.07875055175050247, 0.07876729891605229, 0.07852502167188515, 0.0784251325807702, 0.07829410319101754, 0.07823917760870308, 0.07802829379454893, 0.07778182760159251, 0.07764265400358662, 0.07751501315882804, 0.07740235773835526, 0.0773602042490478, 0.0772889535203306, 0.07724409054425734, 0.07720569790020586, 0.07707982437446746, 0.07699948143089161, 0.07701856806786539, 0.07698416308169015, 0.0769195977264555, 0.07693416055316113, 0.07686376214816931, 0.07669961493188458, 0.07659898586258237, 0.07646969244593776, 0.07638145288171003, 0.07638425766163755, 0.07632103559242587, 0.07620494726692428, 0.07614500675231156, 0.07607501331020176, 0.07598018574634237, 0.07596410885867408, 0.07593849501760815, 0.07587518339013347, 0.07581726037511381, 0.07571174319509048, 0.07570295954613263, 0.07569119772537436, 0.07566063623009953, 0.07563027234826779, 0.07560137352207139, 0.07557673371080832, 0.07555360189786839, 0.07558304695347788, 0.07562636249744058, 0.0756441961855977, 0.07565378484639114, 0.07568740512436528, 0.0755319359401218, 0.07548994492446555, 0.07553021045310257, 0.07553599488612306, 0.07552560815538518, 0.07546661738843359, 0.0754655392513137, 0.07544969735202468, 0.07541186021978517, 0.07542152063545936, 0.07556634907118648, 0.07561374560239235, 0.0756029920789093, 0.07556294447192365, 0.07561122740785359, 0.07559123735757262, 0.0755848683877123, 0.07557800115073483, 0.07558767494719391, 0.07557688613764607, 0.07557985115820443, 0.0755725404992341, 0.07554440285260602, 0.07553146782663675, 0.07548066465389797, 0.0754957058548829, 0.07549241836380856, 0.07552332702921241, 0.07552491636505992, 0.07550596944616088, 0.07552613040401088, 0.07550819482125642, 0.07549857049492224, 0.07558351403269581, 0.0755946297883068, 0.07558303205328205, 0.07556538796010101, 0.07556112805758261, 0.07550127566946492, 0.07550438086148846, 0.07549180003660266, 0.07551641706293033, 0.07556132931815543, 0.0755698956098607, 0.07561240607403857, 0.07562352156060516, 0.07561139846215767, 0.07564212099831379, 0.07564443978919383, 0.07561274173507658, 0.07560463307630454, 0.07559520229141, 0.07562541365577582, 0.0755920796284377, 0.07558737192915041, 0.07554023509977403, 0.07552482250075339, 0.07555870091051156, 0.07553123015694484, 0.07555080302122717, 0.07555495286045306, 0.07554635143494451, 0.07556247566706815, 0.07555568714546666, 0.07556129268142438, 0.07554993731492096, 0.07551247120753636, 0.0754874815786876, 0.07548943789538501, 0.0754658591011864, 0.07547963294118526, 0.07549538677723486, 0.07549940521392273, 0.0755057491839398, 0.07550916328748242]}}, \"_estimator_type\": \"regressor\"}"},"feature_names":[],"feature_types":[],"gradient_booster":{"model":{"gbtree_model_param":{"num_parallel_tree":"1","num_trees":"200","size_leaf_vector":"0"},"tree_info":[0,0,0,0,0,0,0,0,0,0,0,0,0,0,0,0,0,0,0,0,0,0,0,0,0,0,0,0,0,0,0,0,0,0,0,0,0,0,0,0,0,0,0,0,0,0,0,0,0,0,0,0,0,0,0,0,0,0,0,0,0,0,0,0,0,0,0,0,0,0,0,0,0,0,0,0,0,0,0,0,0,0,0,0,0,0,0,0,0,0,0,0,0,0,0,0,0,0,0,0,0,0,0,0,0,0,0,0,0,0,0,0,0,0,0,0,0,0,0,0,0,0,0,0,0,0,0,0,0,0,0,0,0,0,0,0,0,0,0,0,0,0,0,0,0,0,0,0,0,0,0,0,0,0,0,0,0,0,0,0,0,0,0,0,0,0,0,0,0,0,0,0,0,0,0,0,0,0,0,0,0,0,0,0,0,0,0,0,0,0,0,0,0,0,0,0,0,0,0,0],"trees":[{"base_weights":[-4.9952987E-1,-1.3432539E-1,-4.9972585E-1],"categories":[],"categories_nodes":[],"categories_segments":[],"categories_sizes":[],"default_left":[1,0,0],"id":0,"left_children":[1,-1,-1],"loss_changes":[1.727295E-2,0E0,0E0],"parents":[2147483647,0,0],"right_children":[2,-1,-1],"split_conditions":[-1.237624E-1,-6.7162695E-3,-2.4986293E-2],"split_indices":[10,0,0],"split_type":[0,0,0],"sum_hessian":[1.178E3,1E0,1.177E3],"tree_param":{"num_deleted":"0","num_feature":"20","num_nodes":"3","size_leaf_vector":"0"}},{"base_weights":[-4.7458026E-1,-1.3096724E-1,-4.7476077E-1],"categories":[],"categories_nodes":[],"categories_segments":[],"categories_sizes":[],"default_left":[1,0,0],"id":1,"left_children":[1,-1,-1],"loss_changes":[1.0955811E-2,0E0,0E0],"parents":[2147483647,0,0],"right_children":[2,-1,-1],"split_conditions":[-1.237624E-1,-6.5483623E-3,-2.373804E-2],"split_indices":[10,0,0],"split_type":[0,0,0],"sum_hessian":[1.178E3,1E0,1.177E3],"tree_param":{"num_deleted":"0","num_feature":"20","num_nodes":"3","size_leaf_vector":"0"}},{"base_weights":[-4.5087695E-1,-1.2769306E-1,-4.510429E-1],"categories":[],"categories_nodes":[],"categories_segments":[],"categories_sizes":[],"default_left":[1,0,0],"id":2,"left_children":[1,-1,-1],"loss_changes":[5.645752E-3,0E0,0E0],"parents":[2147483647,0,0],"right_children":[2,-1,-1],"split_conditions":[-1.237624E-1,-6.384653E-3,-2.2552146E-2],"split_indices":[10,0,0],"split_type":[0,0,0],"sum_hessian":[1.178E3,1E0,1.177E3],"tree_param":{"num_deleted":"0","num_feature":"20","num_nodes":"3","size_leaf_vector":"0"}},{"base_weights":[-4.2835766E-1,-1.2450074E-1,-4.285099E-1],"categories":[],"categories_nodes":[],"categories_segments":[],"categories_sizes":[],"default_left":[1,0,0],"id":3,"left_children":[1,-1,-1],"loss_changes":[1.2054443E-3,0E0,0E0],"parents":[2147483647,0,0],"right_children":[2,-1,-1],"split_conditions":[-1.237624E-1,-6.225037E-3,-2.1425495E-2],"split_indices":[10,0,0],"split_type":[0,0,0],"sum_hessian":[1.178E3,1E0,1.177E3],"tree_param":{"num_deleted":"0","num_feature":"20","num_nodes":"3","size_leaf_vector":"0"}},{"base_weights":[-4.0696323E-1],"categories":[],"categories_nodes":[],"categories_segments":[],"categories_sizes":[],"default_left":[0],"id":4,"left_children":[-1],"loss_changes":[0E0],"parents":[2147483647],"right_children":[-1],"split_conditions":[-2.0348161E-2],"split_indices":[0],"split_type":[0],"sum_hessian":[1.178E3],"tree_param":{"num_deleted":"0","num_feature":"20","num_nodes":"1","size_leaf_vector":"0"}},{"base_weights":[-3.8663232E-1,-1.1121413E-1,-3.867717E-1],"categories":[],"categories_nodes":[],"categories_segments":[],"categories_sizes":[],"default_left":[1,0,0],"id":5,"left_children":[1,-1,-1],"loss_changes":[2.243042E-3,0E0,0E0],"parents":[2147483647,0,0],"right_children":[2,-1,-1],"split_conditions":[-1.237624E-1,-5.560707E-3,-1.9338585E-2],"split_indices":[10,0,0],"split_type":[0,0,0],"sum_hessian":[1.178E3,1E0,1.177E3],"tree_param":{"num_deleted":"0","num_feature":"20","num_nodes":"3","size_leaf_vector":"0"}},{"base_weights":[-3.6732182E-1],"categories":[],"categories_nodes":[],"categories_segments":[],"categories_sizes":[],"default_left":[0],"id":6,"left_children":[-1],"loss_changes":[0E0],"parents":[2147483647],"right_children":[-1],"split_conditions":[-1.8366091E-2],"split_indices":[0],"split_type":[0],"sum_hessian":[1.178E3],"tree_param":{"num_deleted":"0","num_feature":"20","num_nodes":"1","size_leaf_vector":"0"}},{"base_weights":[-3.489713E-1,-9.9250734E-2,-3.4909904E-1],"categories":[],"categories_nodes":[],"categories_segments":[],"categories_sizes":[],"default_left":[1,0,0],"id":7,"left_children":[1,-1,-1],"loss_changes":[2.960205E-3,0E0,0E0],"parents":[2147483647,0,0],"right_children":[2,-1,-1],"split_conditions":[-1.237624E-1,-4.962537E-3,-1.7454952E-2],"split_indices":[10,0,0],"split_type":[0,0,0],"sum_hessian":[1.178E3,1E0,1.177E3],"tree_param":{"num_deleted":"0","num_feature":"20","num_nodes":"3","size_leaf_vector":"0"}},{"base_weights":[-3.3154178E-1,-9.676947E-2,-3.316589E-1],"categories":[],"categories_nodes":[],"categories_segments":[],"categories_sizes":[],"default_left":[1,0,0],"id":8,"left_children":[1,-1,-1],"loss_changes":[3.2043457E-4,0E0,0E0],"parents":[2147483647,0,0],"right_children":[2,-1,-1],"split_conditions":[-1.237624E-1,-4.8384736E-3,-1.6582945E-2],"split_indices":[10,0,0],"split_type":[0,0,0],"sum_hessian":[1.178E3,1E0,1.177E3],"tree_param":{"num_deleted":"0","num_feature":"20","num_nodes":"3","size_leaf_vector":"0"}},{"base_weights":[-3.1498286E-1],"categories":[],"categories_nodes":[],"categories_segments":[],"categories_sizes":[],"default_left":[0],"id":9,"left_children":[-1],"loss_changes":[0E0],"parents":[2147483647],"right_children":[-1],"split_conditions":[-1.5749143E-2],"split_indices":[0],"split_type":[0],"sum_hessian":[1.178E3],"tree_param":{"num_deleted":"0","num_feature":"20","num_nodes":"1","size_leaf_vector":"0"}},{"base_weights":[-2.9924706E-1,-8.6475655E-2,-2.9935426E-1],"categories":[],"categories_nodes":[],"categories_segments":[],"categories_sizes":[],"default_left":[1,0,0],"id":10,"left_children":[1,-1,-1],"loss_changes":[1.0070801E-3,0E0,0E0],"parents":[2147483647,0,0],"right_children":[2,-1,-1],"split_conditions":[-1.237624E-1,-4.323783E-3,-1.4967713E-2],"split_indices":[10,0,0],"split_type":[0,0,0],"sum_hessian":[1.178E3,1E0,1.177E3],"tree_param":{"num_deleted":"0","num_feature":"20","num_nodes":"3","size_leaf_vector":"0"}},{"base_weights":[-2.8430107E-1],"categories":[],"categories_nodes":[],"categories_segments":[],"categories_sizes":[],"default_left":[0],"id":11,"left_children":[-1],"loss_changes":[0E0],"parents":[2147483647],"right_children":[-1],"split_conditions":[-1.4215054E-2],"split_indices":[0],"split_type":[0],"sum_hessian":[1.178E3],"tree_param":{"num_deleted":"0","num_feature":"20","num_nodes":"1","size_leaf_vector":"0"}},{"base_weights":[-2.7009806E-1,-7.720624E-2,-2.701963E-1,-2.7029428E-1,-7.7424526E-2],"categories":[],"categories_nodes":[],"categories_segments":[],"categories_sizes":[],"default_left":[1,0,1,0,0],"id":12,"left_children":[1,-1,3,-1,-1],"loss_changes":[1.4724731E-3,0E0,1.3275146E-3,0E0,0E0],"parents":[2147483647,0,0,2,2],"right_children":[2,-1,4,-1,-1],"split_conditions":[-1.237624E-1,-3.860312E-3,2.8984623E0,-1.3514714E-2,-3.8712265E-3],"split_indices":[10,0,8,0,0],"split_type":[0,0,0,0,0],"sum_hessian":[1.178E3,1E0,1.177E3,1.176E3,1E0],"tree_param":{"num_deleted":"0","num_feature":"20","num_nodes":"5","size_leaf_vector":"0"}},{"base_weights":[-2.5661117E-1],"categories":[],"categories_nodes":[],"categories_segments":[],"categories_sizes":[],"default_left":[0],"id":13,"left_children":[-1],"loss_changes":[0E0],"parents":[2147483647],"right_children":[-1],"split_conditions":[-1.2830558E-2],"split_indices":[0],"split_type":[0],"sum_hessian":[1.178E3],"tree_param":{"num_deleted":"0","num_feature":"20","num_nodes":"1","size_leaf_vector":"0"}},{"base_weights":[-2.437915E-1,-6.88608E-2,-2.4388154E-1,-2.4397138E-1,-6.907363E-2,-2.440608E-1,-6.94082E-2],"categories":[],"categories_nodes":[],"categories_segments":[],"categories_sizes":[],"default_left":[1,0,1,1,0,0,0],"id":14,"left_children":[1,-1,3,5,-1,-1,-1],"loss_changes":[1.7776489E-3,0E0,1.6479492E-3,1.4343262E-3,0E0,0E0,0E0],"parents":[2147483647,0,0,2,2,3,3],"right_children":[2,-1,4,6,-1,-1,-1],"split_conditions":[-1.237624E-1,-3.44304E-3,2.8984623E0,3.14975E0,-3.4536817E-3,-1.22030405E-2,-3.4704101E-3],"split_indices":[10,0,8,2,0,0,0],"split_type":[0,0,0,0,0,0,0],"sum_hessian":[1.178E3,1E0,1.177E3,1.176E3,1E0,1.175E3,1E0],"tree_param":{"num_deleted":"0","num_feature":"20","num_nodes":"7","size_leaf_vector":"0"}},{"base_weights":[-2.3162107E-1,-2.303936E-1,-2.790657E-1,-6.713928E-2,-2.3047689E-1,-2.3055996E-1,-6.73468E-2],"categories":[],"categories_nodes":[],"categories_segments":[],"categories_sizes":[],"default_left":[1,1,0,0,1,0,0],"id":15,"left_children":[1,3,-1,-1,5,-1,-1],"loss_changes":[4.360199E-3,2.3269653E-4,0E0,0E0,1.1444092E-4,0E0,0E0],"parents":[2147483647,0,0,1,1,4,4],"right_children":[2,4,-1,-1,6,-1,-1],"split_conditions":[2.7859678E0,-1.237624E-1,-1.3953285E-2,-3.356964E-3,2.8984623E0,-1.1527998E-2,-3.36734E-3],"split_indices":[13,10,0,0,8,0,0],"split_type":[0,0,0,0,0,0,0],"sum_hessian":[1.178E3,1.154E3,2.4E1,1E0,1.153E3,1.152E3,1E0],"tree_param":{"num_deleted":"0","num_feature":"20","num_nodes":"7","size_leaf_vector":"0"}},{"base_weights":[-2.2006734E-1,-2.1888971E-1,-2.6567054E-1,-2.189721E-1,-6.1908998E-2,-2.7022818E-1,-7.814352E-2],"categories":[],"categories_nodes":[],"categories_segments":[],"categories_sizes":[],"default_left":[1,1,1,0,0,0,0],"id":16,"left_children":[1,3,5,-1,-1,-1,-1],"loss_changes":[5.1651E-3,1.3809204E-3,2.5057793E-4,0E0,0E0,0E0,0E0],"parents":[2147483647,0,0,1,1,2,2],"right_children":[2,4,6,-1,-1,-1,-1],"split_conditions":[2.7859678E0,3.14975E0,2.8177142E0,-1.0948605E-2,-3.0954499E-3,-1.3511409E-2,-3.907176E-3],"split_indices":[13,2,5,0,0,0,0],"split_type":[0,0,0,0,0,0,0],"sum_hessian":[1.178E3,1.154E3,2.4E1,1.153E3,1E0,2.3E1,1E0],"tree_param":{"num_deleted":"0","num_feature":"20","num_nodes":"7","size_leaf_vector":"0"}},{"base_weights":[-2.0909066E-1,-2.079574E-1,-2.5308377E-1,-5.9986502E-2,-2.0803364E-1,-2.0810966E-1,-6.0188834E-2,-2.0829222E-1,-1.03598185E-1,-2.0836844E-1,-6.0361274E-2],"categories":[],"categories_nodes":[],"categories_segments":[],"categories_sizes":[],"default_left":[1,1,0,0,1,1,0,1,0,0,0],"id":17,"left_children":[1,3,-1,-1,5,7,-1,9,-1,-1,-1],"loss_changes":[6.1454773E-3,5.531311E-4,0E0,0E0,4.4250488E-4,4.196167E-4,0E0,3.8909912E-4,0E0,0E0,0E0],"parents":[2147483647,0,0,1,1,4,4,5,5,7,7],"right_children":[2,4,-1,-1,6,8,-1,10,-1,-1,-1],"split_conditions":[2.7859678E0,-1.237624E-1,-1.2654188E-2,-2.999325E-3,2.8984623E0,9.265013E1,-3.0094418E-3,3.14975E0,-5.1799095E-3,-1.0418422E-2,-3.0180637E-3],"split_indices":[13,10,0,0,8,9,0,2,0,0,0],"split_type":[0,0,0,0,0,0,0,0,0,0,0],"sum_hessian":[1.178E3,1.154E3,2.4E1,1E0,1.153E3,1.152E3,1E0,1.149E3,3E0,1.148E3,1E0],"tree_param":{"num_deleted":"0","num_feature":"20","num_nodes":"11","size_leaf_vector":"0"}},{"base_weights":[-1.9866775E-1,-1.975993E-1,-2.418536E-1,-9.749551E-2,-1.977752E-1,-2.4629395E-1,-6.986284E-2,-1.4025868E-1,1.5396997E-2],"categories":[],"categories_nodes":[],"categories_segments":[],"categories_sizes":[],"default_left":[1,1,1,1,0,0,0,0,0],"id":18,"left_children":[1,3,5,7,-1,-1,-1,-1,-1],"loss_changes":[6.6108704E-3,1.0719299E-3,1.1219978E-3,2.147013E-2,0E0,0E0,0E0,0E0,0E0],"parents":[2147483647,0,0,1,1,2,2,3,3],"right_children":[2,4,6,8,-1,-1,-1,-1,-1],"split_conditions":[2.8026605E0,-2.3360817E-1,2.8177142E0,4.861E-1,-9.88876E-3,-1.2314698E-2,-3.493142E-3,-7.0129344E-3,7.6984987E-4],"split_indices":[13,17,5,0,0,0,0,0,0],"split_type":[0,0,0,0,0,0,0,0,0],"sum_hessian":[1.178E3,1.155E3,2.3E1,3E0,1.152E3,2.2E1,1E0,2E0,1E0],"tree_param":{"num_deleted":"0","num_feature":"20","num_nodes":"9","size_leaf_vector":"0"}},{"base_weights":[-1.8876146E-1,-1.8771487E-1,-2.2956353E-1,-1.8788324E-1,-9.22967E-2,-5.354245E-2,-1.8795344E-1,-1.8802342E-1,-5.3739738E-2,-1.8809322E-1,-5.3907864E-2,-5.4855123E-2,-1.8816149E-1],"categories":[],"categories_nodes":[],"categories_segments":[],"categories_sizes":[],"default_left":[1,1,0,1,0,0,1,1,0,1,0,0,0],"id":19,"left_children":[1,3,-1,5,-1,-1,7,9,-1,11,-1,-1,-1],"loss_changes":[7.2517395E-3,1.2130737E-3,0E0,8.010864E-4,0E0,0E0,7.05719E-4,6.2942505E-4,0E0,1.296997E-4,0E0,0E0,0E0],"parents":[2147483647,0,0,1,1,3,3,6,6,7,7,9,9],"right_children":[2,4,-1,6,-1,-1,8,10,-1,12,-1,-1,-1],"split_conditions":[2.7859678E0,9.265013E1,-1.1478177E-2,-1.237624E-1,-4.614835E-3,-2.6771226E-3,2.8984623E0,3.14975E0,-2.686987E-3,2.4626486E0,-2.6953933E-3,-2.7427562E-3,-9.408074E-3],"split_indices":[13,9,0,10,0,0,8,2,0,12,0,0,0],"split_type":[0,0,0,0,0,0,0,0,0,0,0,0,0],"sum_hessian":[1.178E3,1.154E3,2.4E1,1.151E3,3E0,1E0,1.15E3,1.149E3,1E0,1.148E3,1E0,1E0,1.147E3],"tree_param":{"num_deleted":"0","num_feature":"20","num_nodes":"13","size_leaf_vector":"0"}},{"base_weights":[-1.7935419E-1,-1.7836723E-1,-2.1941967E-1,-8.712546E-2,-1.7852907E-1,-2.2353555E-1,-6.2377185E-2,-1.2931135E-1,1.9716106E-2,-1.786858E-1,-8.883557E-2,-5.2203894E-2,-1.7875044E-1],"categories":[],"categories_nodes":[],"categories_segments":[],"categories_sizes":[],"default_left":[1,1,1,1,1,0,0,0,0,1,0,0,0],"id":20,"left_children":[1,3,5,7,9,-1,-1,-1,-1,11,-1,-1,-1],"loss_changes":[7.484436E-3,1.5182495E-3,1.5693903E-3,2.057834E-2,3.3569336E-4,0E0,0E0,0E0,0E0,7.247925E-5,0E0,0E0,0E0],"parents":[2147483647,0,0,1,1,2,2,3,3,4,4,9,9],"right_children":[2,4,6,8,10,-1,-1,-1,-1,12,-1,-1,-1],"split_conditions":[2.8026605E0,-2.3360817E-1,2.8177142E0,4.861E-1,9.265013E1,-1.1176778E-2,-3.1188594E-3,-6.4655677E-3,9.858053E-4,-1.237624E-1,-4.4417786E-3,-2.6101947E-3,-8.937522E-3],"split_indices":[13,17,5,0,9,0,0,0,0,10,0,0,0],"split_type":[0,0,0,0,0,0,0,0,0,0,0,0,0],"sum_hessian":[1.178E3,1.155E3,2.3E1,3E0,1.152E3,2.2E1,1E0,2E0,1E0,1.149E3,3E0,1E0,1.148E3],"tree_param":{"num_deleted":"0","num_feature":"20","num_nodes":"13","size_leaf_vector":"0"}},{"base_weights":[-1.704168E-1,-1.6946743E-1,-2.0904434E-1,-1.6953117E-1,-4.792748E-2,-2.1284471E-1,-6.0817756E-2,-1.1779415E-1,-1.6988014E-1,-1.334182E-1,1.9223206E-2,-1.6994457E-1,-4.8091404E-2,-4.9014986E-2,-1.7000748E-1],"categories":[],"categories_nodes":[],"categories_segments":[],"categories_sizes":[],"default_left":[1,1,1,1,0,0,0,1,1,0,0,1,0,0,0],"id":21,"left_children":[1,3,5,7,-1,-1,-1,9,11,-1,-1,13,-1,-1,-1],"loss_changes":[7.8125E-3,8.277893E-4,5.749464E-4,8.430481E-4,0E0,0E0,0E0,2.6113167E-2,8.125305E-4,0E0,0E0,3.7002563E-4,0E0,0E0,0E0],"parents":[2147483647,0,0,1,1,2,2,3,3,7,7,8,8,11,11],"right_children":[2,4,6,8,-1,-1,-1,10,12,-1,-1,14,-1,-1,-1],"split_conditions":[2.8026605E0,2.8984623E0,2.8177142E0,-1.0219901E-1,-2.396374E-3,-1.0642236E-2,-3.0408879E-3,2.6094036E0,3.14975E0,-6.6709104E-3,9.611603E-4,2.4626486E0,-2.4045703E-3,-2.4507493E-3,-8.500374E-3],"split_indices":[13,8,5,16,0,0,0,13,2,0,0,12,0,0,0],"split_type":[0,0,0,0,0,0,0,0,0,0,0,0,0,0,0],"sum_hessian":[1.178E3,1.155E3,2.3E1,1.154E3,1E0,2.2E1,1E0,1E1,1.144E3,9E0,1E0,1.143E3,1E0,1E0,1.142E3],"tree_param":{"num_deleted":"0","num_feature":"20","num_nodes":"15","size_leaf_vector":"0"}},{"base_weights":[-1.6192578E-1,-1.6099611E-1,-1.9839986E-1,-1.61142E-1,-7.872607E-2,-2.2974195E-1,-1.5179624E-1,-1.603546E-1,-1.996572E-1,-1.6046074E-1,-6.684955E-2,-2.1150953E-1,6.842293E-3,-4.6648607E-2,-1.6052014E-1,-2.3426151E-1,-1.2696196E-1,-1.6057919E-1,-4.688912E-2],"categories":[],"categories_nodes":[],"categories_segments":[],"categories_sizes":[],"default_left":[1,1,1,1,0,0,0,1,1,1,0,1,0,0,1,0,0,0,0],"id":22,"left_children":[1,3,5,7,-1,-1,-1,9,11,13,-1,15,-1,-1,17,-1,-1,-1,-1],"loss_changes":[8.03566E-3,1.1768341E-3,1.6424656E-3,2.9239655E-3,0E0,0E0,0E0,5.264282E-4,4.794967E-2,1.6403198E-4,0E0,4.8829913E-3,0E0,0E0,6.1035156E-5,0E0,0E0,0E0,0E0],"parents":[2147483647,0,0,1,1,2,2,3,3,7,7,8,8,9,9,11,11,14,14],"right_children":[2,4,6,8,-1,-1,-1,10,12,14,-1,16,-1,-1,18,-1,-1,-1,-1],"split_conditions":[2.7859678E0,6.211531E-1,9.751556E-1,5.4934764E-1,-3.9363033E-3,-1.14870975E-2,-7.589812E-3,3.0453365E0,2.6055999E0,-1.237624E-1,-3.3424776E-3,8.781673E1,3.4211465E-4,-2.3324303E-3,3.14975E0,-1.1713075E-2,-6.348098E-3,-8.02896E-3,-2.344456E-3],"split_indices":[13,17,15,19,0,0,0,7,3,10,0,9,0,0,2,0,0,0,0],"split_type":[0,0,0,0,0,0,0,0,0,0,0,0,0,0,0,0,0,0,0],"sum_hessian":[1.178E3,1.154E3,2.4E1,1.151E3,3E0,1.2E1,1.2E1,1.133E3,1.8E1,1.131E3,2E0,1.7E1,1E0,1E0,1.13E3,1.2E1,5E0,1.129E3,1E0],"tree_param":{"num_deleted":"0","num_feature":"20","num_nodes":"19","size_leaf_vector":"0"}},{"base_weights":[-1.5387766E-1,-1.5290268E-1,-1.8612249E-1,-4.3775134E-2,-1.5295956E-1,-2.0675829E-1,-1.1499917E-1,-1.5305726E-1,-6.462123E-2],"categories":[],"categories_nodes":[],"categories_segments":[],"categories_sizes":[],"default_left":[1,1,1,0,1,0,0,0,0],"id":23,"left_children":[1,3,5,-1,7,-1,-1,-1,-1],"loss_changes":[8.607864E-3,4.4250488E-4,2.025354E-2,0E0,2.2888184E-5,0E0,0E0,0E0,0E0],"parents":[2147483647,0,0,1,1,2,2,4,4],"right_children":[2,4,6,-1,8,-1,-1,-1,-1],"split_conditions":[8.350142E1,2.4626486E0,4.5994824E-1,-2.1887568E-3,3.0453365E0,-1.0337914E-2,-5.7499586E-3,-7.6528634E-3,-3.2310616E-3],"split_indices":[9,12,17,0,7,0,0,0,0],"split_type":[0,0,0,0,0,0,0,0,0],"sum_hessian":[1.178E3,1.149E3,2.9E1,1E0,1.148E3,2.1E1,8E0,1.146E3,2E0],"tree_param":{"num_deleted":"0","num_feature":"20","num_nodes":"9","size_leaf_vector":"0"}},{"base_weights":[-1.4620851E-1,-1.4531314E-1,-1.8172622E-1,-9.8167315E-2,-1.4563915E-1,-2.1145467E-1,-1.3801883E-1,-1.1330075E-1,2.6583537E-2,-1.4577362E-1,-7.08411E-2,-1.06112145E-1,-2.3244622E-1,-1.4501403E-1,-1.8303663E-1,-2.4416326E-1,-6.349642E-2,-1.4559929E-1,-1.1346231E-1,-2.192639E-1,-1.1842144E-1,-4.1655973E-2,-1.4565596E-1,-1.190647E-1,1.0497667E-2,-1.4571232E-1,-4.1890457E-2,-5.7261422E-2,-1.2516701E-1],"categories":[],"categories_nodes":[],"categories_segments":[],"categories_sizes":[],"default_left":[1,1,1,1,1,1,0,0,0,1,0,0,1,1,1,0,0,1,1,0,0,0,1,1,0,0,0,0,0],"id":24,"left_children":[1,3,5,7,9,11,-1,-1,-1,13,-1,-1,15,17,19,-1,-1,21,23,-1,-1,-1,25,27,-1,-1,-1,-1,-1],"loss_changes":[1.1087418E-2,3.4561157E-3,3.299117E-3,2.3778945E-2,1.1863708E-3,4.0815473E-3,0E0,0E0,0E0,5.7811737E-3,0E0,0E0,4.2924285E-3,4.234314E-3,1.8510282E-2,0E0,0E0,4.1389465E-4,1.861173E-2,0E0,0E0,0E0,3.2424927E-4,1.8841922E-3,0E0,0E0,0E0,0E0,0E0],"parents":[2147483647,0,0,1,1,2,2,3,3,4,4,5,5,9,9,12,12,13,13,14,14,17,17,18,18,22,22,23,23],"right_children":[2,4,6,8,10,12,-1,-1,-1,14,-1,-1,16,18,20,-1,-1,22,24,-1,-1,-1,26,28,-1,-1,-1,-1,-1],"split_conditions":[2.7859678E0,-1.0219901E-1,9.751556E-1,2.6094036E0,9.265013E1,4.8389575E-1,-6.9009415E-3,-5.6650373E-3,1.329177E-3,8.5575424E1,-3.542055E-3,-5.3056073E-3,2.1001E0,7.494409E-2,8.781673E1,-1.2208163E-2,-3.174821E-3,-1.237624E-1,2.38355E0,-1.0963195E-2,-5.9210723E-3,-2.0827986E-3,3.14975E0,7.949193E-2,5.2488333E-4,-7.285616E-3,-2.0945228E-3,-2.8630712E-3,-6.258351E-3],"split_indices":[13,16,15,13,9,15,0,0,0,9,0,0,0,16,9,0,0,10,0,0,0,0,2,16,0,0,0,0,0],"split_type":[0,0,0,0,0,0,0,0,0,0,0,0,0,0,0,0,0,0,0,0,0,0,0,0,0,0,0,0,0],"sum_hessian":[1.178E3,1.154E3,2.4E1,1E1,1.144E3,1.2E1,1.2E1,9E0,1E0,1.141E3,3E0,3E0,9E0,1.123E3,1.8E1,8E0,1E0,1.099E3,2.4E1,1E1,8E0,1E0,1.098E3,2.3E1,1E0,1.097E3,1E0,3E0,2E1],"tree_param":{"num_deleted":"0","num_feature":"20","num_nodes":"29","size_leaf_vector":"0"}},{"base_weights":[-1.3895951E-1,-1.3808629E-1,-1.7374349E-1,-1.3839583E-1,-9.331341E-2,-2.0247337E-1,-1.3164873E-1,-1.3860582E-1,-7.543145E-2,-1.0782854E-1,2.5918946E-2,-1.0213294E-1,-2.223622E-1,-1.3784927E-1,-1.7810594E-1,-1.1345619E-1,-2.8589863E-2,-2.3331156E-1,-6.1909012E-2,-5.657718E-2,-1.379438E-1,-2.0929736E-1,-1.1295448E-1,-3.903795E-2,-1.3799725E-1,-1.3808952E-1,-5.7610117E-2],"categories":[],"categories_nodes":[],"categories_segments":[],"categories_sizes":[],"default_left":[1,1,1,1,1,1,0,1,0,1,0,0,1,1,1,0,0,0,0,0,1,0,0,0,1,0,0],"id":25,"left_children":[1,3,5,7,9,11,-1,13,-1,15,-1,-1,17,19,21,-1,-1,-1,-1,-1,23,-1,-1,-1,25,-1,-1],"loss_changes":[1.18198395E-2,3.0918121E-3,3.57908E-3,4.6844482E-3,2.1832205E-2,3.2330155E-3,0E0,9.515762E-3,0E0,1.2155846E-3,0E0,0E0,3.1244755E-3,8.239746E-4,1.2937963E-2,0E0,0E0,0E0,0E0,0E0,5.3977966E-4,0E0,0E0,0E0,3.528595E-4,0E0,0E0],"parents":[2147483647,0,0,1,1,2,2,3,3,4,4,5,5,7,7,9,9,12,12,13,13,14,14,20,20,24,24],"right_children":[2,4,6,8,10,12,-1,14,-1,16,-1,-1,18,20,22,-1,-1,-1,-1,-1,24,-1,-1,-1,26,-1,-1],"split_conditions":[2.7859678E0,2.4890728E0,9.751556E-1,1.7155066E-1,6.5959203E-1,4.8389575E-1,-6.5824366E-3,8.5575424E1,-3.7715726E-3,6.3500965E-1,1.2959474E-3,-5.106647E-3,2.1001E0,2.958E-1,8.781673E1,-5.6728097E-3,-1.4294932E-3,-1.1665578E-2,-3.0954506E-3,-2.828859E-3,2.4626486E0,-1.04648685E-2,-5.647724E-3,-1.9518975E-3,3.0453365E0,-6.9044763E-3,-2.880506E-3],"split_indices":[13,13,15,16,6,15,0,9,0,8,0,0,0,2,9,0,0,0,0,0,12,0,0,0,7,0,0],"split_type":[0,0,0,0,0,0,0,0,0,0,0,0,0,0,0,0,0,0,0,0,0,0,0,0,0,0,0],"sum_hessian":[1.178E3,1.154E3,2.4E1,1.144E3,1E1,1.2E1,1.2E1,1.139E3,5E0,9E0,1E0,3E0,9E0,1.122E3,1.7E1,8E0,1E0,8E0,1E0,2E0,1.12E3,1E1,7E0,1E0,1.119E3,1.117E3,2E0],"tree_param":{"num_deleted":"0","num_feature":"20","num_nodes":"27","size_leaf_vector":"0"}},{"base_weights":[-1.320681E-1,-1.3121682E-1,-1.6611432E-1,-8.845772E-2,-1.3151301E-1,-1.9387798E-1,-1.2557264E-1,-1.02357686E-1,2.5270969E-2,-1.3163348E-1,-6.424318E-2,-9.8302945E-2,-2.1272019E-1,-1.309706E-1,-1.6227242E-1,-2.2294214E-1,-6.036129E-2,-5.4080818E-2,-1.3105953E-1,-1.7225388E-1,1.3687469E-2,-1.3110979E-1,-3.7390955E-2,-1.9781603E-1,-1.0017359E-1,-5.4691266E-2,-1.3119757E-1],"categories":[],"categories_nodes":[],"categories_segments":[],"categories_sizes":[],"default_left":[1,1,1,1,1,1,0,0,0,1,0,0,1,1,1,0,0,0,1,1,0,1,0,0,0,0,0],"id":26,"left_children":[1,3,5,7,9,11,-1,-1,-1,13,-1,-1,15,17,19,-1,-1,-1,21,23,-1,25,-1,-1,-1,-1,-1],"loss_changes":[1.2374878E-2,2.9964447E-3,3.7938952E-3,1.9975752E-2,8.201599E-4,2.4999976E-3,0E0,0E0,0E0,1.9416809E-3,0E0,0E0,2.1169782E-3,5.912781E-4,3.7484348E-2,0E0,0E0,0E0,3.7384033E-4,1.5192151E-2,0E0,3.3950806E-4,0E0,0E0,0E0,0E0,0E0],"parents":[2147483647,0,0,1,1,2,2,3,3,4,4,5,5,9,9,12,12,13,13,14,14,18,18,19,19,21,21],"right_children":[2,4,6,8,10,12,-1,-1,-1,14,-1,-1,16,18,20,-1,-1,-1,22,24,-1,26,-1,-1,-1,-1,-1],"split_conditions":[2.7859678E0,-1.0219901E-1,9.751556E-1,2.6094036E0,2.345202E-1,4.8389575E-1,-6.2786317E-3,-5.1178844E-3,1.2635485E-3,5.4934764E-1,-3.2121593E-3,-4.9151476E-3,2.1001E0,-1.2028831E-1,2.6055999E0,-1.1147107E-2,-3.0180644E-3,-2.7040408E-3,3.14975E0,8.781673E1,6.843735E-4,2.958E-1,-1.8695478E-3,-9.890801E-3,-5.00868E-3,-2.7345633E-3,-6.5598786E-3],"split_indices":[13,16,15,13,14,15,0,0,0,19,0,0,0,10,3,0,0,0,2,9,0,2,0,0,0,0,0],"split_type":[0,0,0,0,0,0,0,0,0,0,0,0,0,0,0,0,0,0,0,0,0,0,0,0,0,0,0],"sum_hessian":[1.178E3,1.154E3,2.4E1,1E1,1.144E3,1.2E1,1.2E1,9E0,1E0,1.141E3,3E0,3E0,9E0,1.122E3,1.9E1,8E0,1E0,2E0,1.12E3,1.8E1,1E0,1.119E3,1E0,1.2E1,6E0,2E0,1.117E3],"tree_param":{"num_deleted":"0","num_feature":"20","num_nodes":"27","size_leaf_vector":"0"}},{"base_weights":[-1.2551603E-1,-1.2468642E-1,-1.5882295E-1,-1.24965355E-1,-8.431656E-2,-1.856518E-1,-1.1977697E-1,-1.2515315E-1,-6.8454884E-2,-9.767605E-2,2.4639197E-2,-9.4616584E-2,-2.035007E-1,-1.24435894E-1,-1.629497E-1,-1.0306335E-1,-2.4595175E-2,-2.1303362E-1,-5.8852255E-2,-1.24882005E-1,-9.643357E-2,-1.9170064E-1,-1.0304844E-1,-2.8526098E-2,-1.08814746E-1,-1.24934964E-1,-3.3288945E-2,-1.0229663E-1,1.3345279E-2,-1.2502225E-1,-5.1316533E-2,-1.05848245E-1,-1.563209E-2],"categories":[],"categories_nodes":[],"categories_segments":[],"categories_sizes":[],"default_left":[1,1,1,1,1,1,0,1,0,1,0,0,1,1,1,1,0,0,0,1,1,0,0,0,0,1,0,1,0,0,0,0,0],"id":27,"left_children":[1,3,5,7,9,11,-1,13,-1,15,-1,-1,17,19,21,23,-1,-1,-1,25,27,-1,-1,-1,-1,29,-1,31,-1,-1,-1,-1,-1],"loss_changes":[1.2773514E-2,2.4681091E-3,3.9521456E-3,3.5858154E-3,1.8418193E-2,1.868844E-3,0E0,1.0627747E-2,0E0,1.4022291E-3,0E0,0E0,1.2516975E-3,1.9874573E-3,1.1245459E-2,7.5417757E-4,0E0,0E0,0E0,1.1863708E-3,1.5525252E-2,0E0,0E0,0E0,0E0,6.580353E-4,0E0,4.809156E-3,0E0,0E0,0E0,0E0,0E0],"parents":[2147483647,0,0,1,1,2,2,3,3,4,4,5,5,7,7,9,9,12,12,13,13,14,14,15,15,19,19,20,20,25,25,27,27],"right_children":[2,4,6,8,10,12,-1,14,-1,16,-1,-1,18,20,22,24,-1,-1,-1,26,28,-1,-1,-1,-1,30,-1,32,-1,-1,-1,-1,-1],"split_conditions":[2.7859678E0,2.4890728E0,9.751556E-1,1.7155066E-1,6.5959203E-1,4.8389575E-1,-5.988849E-3,8.5575424E1,-3.4227443E-3,6.3500965E-1,1.2319599E-3,-4.7308295E-3,2.1001E0,7.494409E-2,8.781673E1,4.0911183E0,-1.2297587E-3,-1.0651681E-2,-2.9426129E-3,6.3979375E-1,2.38355E0,-9.585032E-3,-5.152422E-3,-1.4263049E-3,-5.4407376E-3,3.0453365E0,-1.6644472E-3,8.1571904E8,6.672639E-4,-6.2511126E-3,-2.5658268E-3,-5.2924124E-3,-7.816045E-4],"split_indices":[13,13,15,16,6,15,0,9,0,8,0,0,0,16,9,12,0,0,0,18,0,0,0,0,0,7,0,4,0,0,0,0,0],"split_type":[0,0,0,0,0,0,0,0,0,0,0,0,0,0,0,0,0,0,0,0,0,0,0,0,0,0,0,0,0,0,0,0,0],"sum_hessian":[1.178E3,1.154E3,2.4E1,1.144E3,1E1,1.2E1,1.2E1,1.139E3,5E0,9E0,1E0,3E0,9E0,1.122E3,1.7E1,8E0,1E0,8E0,1E0,1.101E3,2.1E1,1E1,7E0,1E0,7E0,1.1E3,1E0,2E1,1E0,1.098E3,2E0,1.9E1,1E0],"tree_param":{"num_deleted":"0","num_feature":"20","num_nodes":"33","size_leaf_vector":"0"}},{"base_weights":[-1.19295545E-1,-1.1848752E-1,-1.5185437E-1,-7.9603694E-2,-1.187576E-1,-1.7777884E-1,-1.14248805E-1,-9.236871E-2,2.402322E-2,-3.1656504E-2,-1.18806064E-1,-9.106847E-2,-1.946851E-1,-3.2923706E-2,-1.1828225E-1,-4.7793135E-2,-1.0464493E-1,-4.811071E-2,-1.18887745E-1,-2.0356546E-1,-5.738095E-2,-1.7401573E-1,-1.1849227E-1,-1.1857237E-1,-4.8688922E-2,-1.1788224E-1,-1.4252736E-1],"categories":[],"categories_nodes":[],"categories_segments":[],"categories_sizes":[],"default_left":[1,1,1,1,1,1,1,1,0,0,1,0,1,0,0,0,0,0,1,0,0,0,1,1,0,0,0],"id":28,"left_children":[1,3,5,7,9,11,13,15,-1,-1,17,-1,19,-1,-1,-1,-1,-1,21,-1,-1,-1,23,25,-1,-1,-1],"loss_changes":[1.3025284E-2,2.6741028E-3,4.0615797E-3,1.6769782E-2,1.0738373E-3,1.3276637E-3,3.6998093E-4,4.708916E-4,0E0,0E0,8.869171E-4,0E0,5.123019E-4,0E0,0E0,0E0,0E0,0E0,4.278183E-3,0E0,0E0,0E0,5.8460236E-4,1.961708E-3,0E0,0E0,0E0],"parents":[2147483647,0,0,1,1,2,2,3,3,4,4,5,5,6,6,7,7,10,10,12,12,18,18,22,22,23,23],"right_children":[2,4,6,8,10,12,14,16,-1,-1,18,-1,20,-1,-1,-1,-1,-1,22,-1,-1,-1,24,26,-1,-1,-1],"split_conditions":[2.7859678E0,-1.0219901E-1,9.751556E-1,2.6094036E0,2.4626486E0,4.8389575E-1,3.57124E-1,7.274396E8,1.2011611E-3,-1.5828252E-3,-1.2028831E-1,-4.5534237E-3,2.1001E0,-1.6461853E-3,-5.9141126E-3,-2.3896568E-3,-5.2322466E-3,-2.4055354E-3,-1.0807153E-1,-1.0178274E-2,-2.8690475E-3,-8.700787E-3,2.4913657E-1,4.6049026E-1,-2.4344462E-3,-5.894112E-3,-7.126368E-3],"split_indices":[13,16,15,13,12,15,6,4,0,0,10,0,0,0,0,0,0,0,10,0,0,0,14,19,0,0,0],"split_type":[0,0,0,0,0,0,0,0,0,0,0,0,0,0,0,0,0,0,0,0,0,0,0,0,0,0,0],"sum_hessian":[1.178E3,1.154E3,2.4E1,1E1,1.144E3,1.2E1,1.2E1,9E0,1E0,1E0,1.143E3,3E0,9E0,1E0,1.1E1,3E0,6E0,2E0,1.141E3,8E0,1E0,5E0,1.136E3,1.134E3,2E0,1.108E3,2.6E1],"tree_param":{"num_deleted":"0","num_feature":"20","num_nodes":"27","size_leaf_vector":"0"}},{"base_weights":[-1.1338143E-1,-1.1259308E-1,-1.452681E-1,-1.12844445E-1,-7.619206E-2,-1.5077426E-1,-5.463143E-2,-1.1302016E-1,-6.0651332E-2,-8.849579E-2,2.3422636E-2,-1.1233908E-1,-1.4923279E-1,-9.36546E-2,-2.1033239E-2,-1.1276313E-1,-8.599186E-2,-1.7684454E-1,-9.2612565E-2,-2.4865888E-2,-9.914496E-2,-1.1167187E-1,-1.2661564E-1,-2.3572998E-2,-9.8553106E-2,-1.117755E-1,-2.515331E-3,-1.2179356E-2,-1.2803589E-1,-3.7753664E-2,1.657483E-2],"categories":[],"categories_nodes":[],"categories_segments":[],"categories_sizes":[],"default_left":[1,1,1,1,1,0,0,1,0,1,0,1,1,1,0,1,1,0,0,0,0,1,1,1,0,0,0,0,0,0,0],"id":29,"left_children":[1,3,5,7,9,-1,-1,11,-1,13,-1,15,17,19,-1,21,23,-1,-1,-1,-1,25,27,29,-1,-1,-1,-1,-1,-1,-1],"loss_changes":[1.32808685E-2,1.9712448E-3,4.2394996E-3,3.6468506E-3,1.5554763E-2,0E0,0E0,1.1350632E-2,0E0,1.510404E-3,0E0,2.8505325E-3,1.1762857E-2,9.33744E-4,0E0,2.5196075E-3,1.4926091E-2,0E0,0E0,0E0,0E0,1.1370659E-2,1.0305047E-2,3.4723752E-3,0E0,0E0,0E0,0E0,0E0,0E0,0E0],"parents":[2147483647,0,0,1,1,2,2,3,3,4,4,7,7,9,9,11,11,12,12,13,13,15,15,16,16,21,21,22,22,23,23],"right_children":[2,4,6,8,10,-1,-1,12,-1,14,-1,16,18,20,-1,22,24,-1,-1,-1,-1,26,28,30,-1,-1,-1,-1,-1,-1,-1],"split_conditions":[2.7859678E0,2.4890728E0,2.6449213E0,1.7155066E-1,6.5959203E-1,-7.538713E-3,-2.7315717E-3,8.5575424E1,-3.0325667E-3,6.3500965E-1,1.1711319E-3,7.494409E-2,8.781673E1,4.0911183E0,-1.0516619E-3,1.6657267E0,7.949193E-2,-8.842227E-3,-4.6306285E-3,-1.2432944E-3,-4.957248E-3,1.658772E0,3.166E-1,1.48145E0,-4.927655E-3,-5.588775E-3,-1.2576654E-4,-6.089678E-4,-6.4017945E-3,-1.8876832E-3,8.287415E-4],"split_indices":[13,13,5,16,6,0,0,9,0,8,0,16,9,12,0,13,16,0,0,0,0,13,0,0,0,0,0,0,0,0,0],"split_type":[0,0,0,0,0,0,0,0,0,0,0,0,0,0,0,0,0,0,0,0,0,0,0,0,0,0,0,0,0,0,0],"sum_hessian":[1.178E3,1.154E3,2.4E1,1.144E3,1E1,2.2E1,2E0,1.139E3,5E0,9E0,1E0,1.122E3,1.7E1,8E0,1E0,1.101E3,2.1E1,1E1,7E0,1E0,7E0,1.029E3,7.2E1,4E0,1.7E1,1.028E3,1E0,1E0,7.1E1,3E0,1E0],"tree_param":{"num_deleted":"0","num_feature":"20","num_nodes":"31","size_leaf_vector":"0"}},{"base_weights":[-1.0775609E-1,-1.06999174E-1,-1.384155E-1,-7.176546E-2,-1.07244216E-1,-1.6328499E-1,-1.0289867E-1,-8.350942E-2,2.2837073E-2,-1.0734969E-1,-5.0321534E-2,-8.199936E-2,-1.7947073E-1,-2.8331256E-2,-1.0675169E-1,-4.1809313E-2,-9.5408134E-2,-1.06704235E-1,-1.3988318E-1,-1.8781702E-1,-5.2177068E-2,-1.07213E-1,-8.296082E-2,-1.6880614E-1,-8.899031E-2,-1.0726207E-1,-2.6715279E-2,-8.723052E-2,1.6160458E-2,-1.0734312E-1,-4.195072E-2],"categories":[],"categories_nodes":[],"categories_segments":[],"categories_sizes":[],"default_left":[1,1,1,1,1,1,1,1,0,1,0,0,1,0,0,0,0,1,1,0,0,1,1,0,0,1,0,0,0,0,0],"id":30,"left_children":[1,3,5,7,9,11,13,15,-1,17,-1,-1,19,-1,-1,-1,-1,21,23,-1,-1,25,27,-1,-1,29,-1,-1,-1,-1,-1],"loss_changes":[1.2550354E-2,2.2764206E-3,5.280286E-3,1.4128204E-2,1.4715195E-3,2.3872256E-3,7.106066E-4,9.7282976E-4,0E0,9.054184E-3,0E0,0E0,8.2454085E-4,0E0,0E0,0E0,0E0,4.6834946E-3,1.2945384E-2,0E0,0E0,1.4677048E-3,1.32597685E-2,0E0,0E0,1.2989044E-3,0E0,0E0,0E0,0E0,0E0],"parents":[2147483647,0,0,1,1,2,2,3,3,4,4,5,5,6,6,7,7,9,9,12,12,17,17,18,18,21,21,22,22,25,25],"right_children":[2,4,6,8,10,12,14,16,-1,18,-1,-1,20,-1,-1,-1,-1,22,24,-1,-1,26,28,-1,-1,30,-1,-1,-1,-1,-1],"split_conditions":[2.7859678E0,-1.0219901E-1,9.751556E-1,2.6094036E0,9.265013E1,4.8389575E-1,3.57124E-1,7.274396E8,1.1418536E-3,8.5575424E1,-2.5160767E-3,-4.0999684E-3,2.1001E0,-1.4165628E-3,-5.3375843E-3,-2.0904657E-3,-4.770407E-3,7.1493536E-2,8.781673E1,-9.3908515E-3,-2.6088534E-3,6.3979375E-1,2.38355E0,-8.440307E-3,-4.4495156E-3,3.0453365E0,-1.335764E-3,-4.361526E-3,8.080229E-4,-5.367156E-3,-2.097536E-3],"split_indices":[13,16,15,13,9,15,6,4,0,9,0,0,0,0,0,0,0,16,9,0,0,18,0,0,0,7,0,0,0,0,0],"split_type":[0,0,0,0,0,0,0,0,0,0,0,0,0,0,0,0,0,0,0,0,0,0,0,0,0,0,0,0,0,0,0],"sum_hessian":[1.178E3,1.154E3,2.4E1,1E1,1.144E3,1.2E1,1.2E1,9E0,1E0,1.141E3,3E0,3E0,9E0,1E0,1.1E1,3E0,6E0,1.123E3,1.8E1,8E0,1E0,1.096E3,2.7E1,1E1,8E0,1.095E3,1E0,2.6E1,1E0,1.093E3,2E0],"tree_param":{"num_deleted":"0","num_feature":"20","num_nodes":"31","size_leaf_vector":"0"}},{"base_weights":[-1.0241607E-1,-1.0165081E-1,-1.3130234E-1,-1.0177155E-1,-2.1444961E-2,-1.5732266E-1,-9.590328E-2,-1.0121364E-1,-1.2697266E-1,2.2266142E-2,-5.4433584E-2,-7.892439E-2,-1.7152905E-1,-2.7622974E-2,-9.903077E-2,-1.01662375E-1,-7.6279685E-2,-1.6133763E-1,-8.1064716E-2,-1.7850743E-1,-5.0872643E-2,-4.2903654E-2,-1.0533536E-1,-1.0170922E-1,-2.4905607E-2,-2.0150822E-2,-8.649791E-2,-1.6785376E-1,-4.808816E-2,-3.91274E-2,-1.01787075E-1,-3.3066753E-2,1.575645E-2,-3.6795937E-2,-8.997614E-2,-9.191293E-3,-4.9499802E-2,-3.9203066E-2,-1.01865016E-1,-3.7975922E-2,-9.169623E-3],"categories":[],"categories_nodes":[],"categories_segments":[],"categories_sizes":[],"default_left":[1,1,1,1,1,1,1,1,1,0,0,0,1,0,1,1,1,1,0,0,0,0,0,1,0,1,1,0,0,1,1,1,0,0,0,0,0,0,0,0,0],"id":31,"left_children":[1,3,5,7,9,11,13,15,17,-1,-1,-1,19,-1,21,23,25,27,-1,-1,-1,-1,-1,29,-1,31,33,-1,-1,35,37,39,-1,-1,-1,-1,-1,-1,-1,-1,-1],"loss_changes":[1.271534E-2,8.983612E-3,9.781778E-3,3.3302307E-3,5.537933E-3,2.0547807E-3,2.541095E-4,4.9009323E-3,2.005133E-2,0E0,0E0,0E0,1.8069148E-4,0E0,8.0898404E-5,1.4505386E-3,1.2021914E-2,4.5627356E-5,0E0,0E0,0E0,0E0,0E0,1.411438E-3,0E0,2.8398936E-3,1.4671683E-4,0E0,0E0,4.7656102E-4,1.3961792E-3,1.2103515E-4,0E0,0E0,0E0,0E0,0E0,0E0,0E0,0E0,0E0],"parents":[2147483647,0,0,1,1,2,2,3,3,4,4,5,5,6,6,7,7,8,8,12,12,14,14,15,15,16,16,17,17,23,23,25,25,26,26,29,29,30,30,31,31],"right_children":[2,4,6,8,10,12,14,16,18,-1,-1,-1,20,-1,22,24,26,28,-1,-1,-1,-1,-1,30,-1,32,34,-1,-1,36,38,40,-1,-1,-1,-1,-1,-1,-1,-1,-1],"split_conditions":[2.706135E0,2.6094036E0,9.1884184E-1,8.5575424E1,5.8715E-1,4.8389575E-1,3.57124E-1,7.494409E-2,1.0337551E0,1.1133071E-3,-2.7216792E-3,-3.9462196E-3,2.1001E0,-1.3811487E-3,1.1049559E0,3.14975E0,7.949193E-2,8.781673E1,-4.053236E-3,-8.925372E-3,-2.5436322E-3,-2.1451828E-3,-5.2667684E-3,2.958E-1,-1.2452804E-3,1.48145E0,3.3445E-1,-8.392688E-3,-2.404408E-3,3.1634998E-1,-1.2028831E-1,4.6314996E-1,7.8782253E-4,-1.8397969E-3,-4.4988072E-3,-4.5956468E-4,-2.4749902E-3,-1.9601535E-3,-5.093251E-3,-1.8987962E-3,-4.5848117E-4],"split_indices":[13,13,15,9,0,15,6,16,13,0,0,0,0,0,15,2,16,9,0,0,0,0,0,2,0,0,0,0,0,0,10,0,0,0,0,0,0,0,0,0,0],"split_type":[0,0,0,0,0,0,0,0,0,0,0,0,0,0,0,0,0,0,0,0,0,0,0,0,0,0,0,0,0,0,0,0,0,0,0,0,0,0,0,0,0],"sum_hessian":[1.178E3,1.152E3,2.6E1,1.15E3,2E0,1.3E1,1.3E1,1.13E3,2E1,1E0,1E0,3E0,1E1,1E0,1.2E1,1.107E3,2.3E1,1E1,1E1,9E0,1E0,2E0,1E1,1.106E3,1E0,4E0,1.9E1,9E0,1E0,2E0,1.104E3,3E0,1E0,2E0,1.7E1,1E0,1E0,2E0,1.102E3,2E0,1E0],"tree_param":{"num_deleted":"0","num_feature":"20","num_nodes":"41","size_leaf_vector":"0"}},{"base_weights":[-9.734599E-2,-9.659915E-2,-1.2563382E-1,-9.67125E-2,-2.0908838E-2,-1.505576E-1,-9.173619E-2,-9.6169874E-2,-1.21331185E-1,2.1709487E-2,-5.3072743E-2,-7.596473E-2,-1.6399524E-1,-2.6932398E-2,-9.4649374E-2,-9.6589394E-2,-7.27952E-2,-1.542523E-1,-7.737996E-2,-2.2840496E-2,-9.663538E-2,-1.9457173E-2,-8.2489945E-2,-9.6736014E-2,-4.4701103E-2,-3.2002736E-2,1.5362538E-2,-9.6781105E-2,-2.350077E-2,-3.6710057E-2,-8.940384E-3],"categories":[],"categories_nodes":[],"categories_segments":[],"categories_sizes":[],"default_left":[1,1,1,1,1,1,1,1,1,0,0,0,0,0,0,1,1,0,0,0,1,1,0,1,0,1,0,0,0,0,0],"id":32,"left_children":[1,3,5,7,9,11,13,15,17,-1,-1,-1,-1,-1,-1,19,21,-1,-1,-1,23,25,-1,27,-1,29,-1,-1,-1,-1,-1],"loss_changes":[1.2773514E-2,7.86972E-3,8.999556E-3,3.706932E-3,5.2644974E-3,1.5750527E-3,9.3862414E-5,4.058838E-3,1.8449366E-2,0E0,0E0,0E0,0E0,0E0,0E0,1.5506744E-3,1.08053535E-2,0E0,0E0,0E0,1.4619827E-3,2.6758076E-3,0E0,1.3713837E-3,0E0,1.0604551E-4,0E0,0E0,0E0,0E0,0E0],"parents":[2147483647,0,0,1,1,2,2,3,3,4,4,5,5,6,6,7,7,8,8,15,15,16,16,20,20,21,21,23,23,25,25],"right_children":[2,4,6,8,10,12,14,16,18,-1,-1,-1,-1,-1,-1,20,22,-1,-1,-1,24,26,-1,28,-1,30,-1,-1,-1,-1,-1],"split_conditions":[2.706135E0,2.6094036E0,9.1884184E-1,8.5575424E1,5.8715E-1,4.8389575E-1,3.57124E-1,7.494409E-2,1.0337551E0,1.0854744E-3,-2.6536372E-3,-3.7982364E-3,-8.199762E-3,-1.3466199E-3,-4.7324686E-3,2.4626486E0,7.949193E-2,-7.712615E-3,-3.8689978E-3,-1.1420249E-3,3.0373442E0,1.48145E0,-4.1244975E-3,6.3979375E-1,-2.2350552E-3,4.6314996E-1,7.681269E-4,-4.8390552E-3,-1.1750385E-3,-1.8355029E-3,-4.470192E-4],"split_indices":[13,13,15,9,0,15,6,16,13,0,0,0,0,0,0,12,16,0,0,0,7,0,0,18,0,0,0,0,0,0,0],"split_type":[0,0,0,0,0,0,0,0,0,0,0,0,0,0,0,0,0,0,0,0,0,0,0,0,0,0,0,0,0,0,0],"sum_hessian":[1.178E3,1.152E3,2.6E1,1.15E3,2E0,1.3E1,1.3E1,1.13E3,2E1,1E0,1E0,3E0,1E1,1E0,1.2E1,1.107E3,2.3E1,1E1,1E1,1E0,1.106E3,4E0,1.9E1,1.103E3,3E0,3E0,1E0,1.102E3,1E0,2E0,1E0],"tree_param":{"num_deleted":"0","num_feature":"20","num_nodes":"31","size_leaf_vector":"0"}},{"base_weights":[-9.251793E-2,-9.1817304E-2,-1.21185854E-1,-9.12044E-2,-1.1247005E-1,-1.4320703E-1,-8.984269E-2,-9.1301925E-2,9.304423E-3,-1.1940788E-1,-1.2539573E-2,-3.9713822E-2,-1.4852197E-1,-2.6259089E-2,-9.295306E-2,-5.6000285E-2,-9.1536224E-2,-1.3333562E-1,-6.0566403E-2,-3.3787835E-2,1.4978476E-2,-6.6926256E-2,2.116675E-2,-9.72676E-2,-8.964836E-2,-3.279223E-2,-7.8527905E-2,-6.5419823E-3,-9.7586475E-2,6.919779E-3,-8.988345E-2,-9.26342E-2,-1.0598329E-1,3.514129E-2,-2.476162E-2,-1.0656608E-1,-8.8753514E-2],"categories":[],"categories_nodes":[],"categories_segments":[],"categories_sizes":[],"default_left":[1,1,1,1,1,1,1,1,0,1,1,0,0,0,0,1,1,0,0,0,0,1,0,1,1,0,0,0,1,1,1,0,0,0,0,0,0],"id":33,"left_children":[1,3,5,7,9,11,13,15,-1,17,19,-1,-1,-1,-1,21,23,-1,-1,-1,-1,25,-1,27,29,-1,-1,-1,31,33,35,-1,-1,-1,-1,-1,-1],"loss_changes":[1.2554169E-2,4.3621063E-3,4.3892264E-3,1.1897087E-2,1.8608391E-2,1.2524128E-3,1.3012439E-4,4.187584E-3,0E0,1.4051586E-2,2.260222E-3,0E0,0E0,0E0,0E0,9.8478645E-3,3.3655167E-3,0E0,0E0,0E0,0E0,9.889901E-4,0E0,7.028103E-3,1.998663E-2,0E0,0E0,0E0,1.1603832E-3,3.5524461E-3,6.583214E-3,0E0,0E0,0E0,0E0,0E0,0E0],"parents":[2147483647,0,0,1,1,2,2,3,3,4,4,5,5,6,6,7,7,9,9,10,10,15,15,16,16,21,21,23,23,24,24,28,28,29,29,30,30],"right_children":[2,4,6,8,10,12,14,16,-1,18,20,-1,-1,-1,-1,22,24,-1,-1,-1,-1,26,-1,28,30,-1,-1,-1,32,34,36,-1,-1,-1,-1,-1,-1],"split_conditions":[2.7859678E0,4.6049026E-1,9.751556E-1,4.5463187E-1,2.6055999E0,3.7755275E0,3.57124E-1,-1.0219901E-1,4.6522115E-4,1.1496946E9,2.3597E0,-1.9856913E-3,-7.426099E-3,-1.3129545E-3,-4.647653E-3,2.6094036E0,-4.1954994E-2,-6.666781E-3,-3.0283201E-3,-1.6893918E-3,7.489238E-4,7.274396E8,1.0583375E-3,2.958E-1,1.8809626E1,-1.6396114E-3,-3.9263954E-3,-3.2709911E-4,7.4445224E0,6.7055E-1,1.8588897E-2,-4.6317102E-3,-5.2991644E-3,1.7570645E-3,-1.238081E-3,-5.328304E-3,-4.4376757E-3],"split_indices":[13,19,15,19,3,12,6,16,0,4,0,0,0,0,0,13,17,0,0,0,0,4,0,2,9,0,0,0,12,0,14,0,0,0,0,0,0],"split_type":[0,0,0,0,0,0,0,0,0,0,0,0,0,0,0,0,0,0,0,0,0,0,0,0,0,0,0,0,0,0,0,0,0,0,0,0,0],"sum_hessian":[1.178E3,1.154E3,2.4E1,1.126E3,2.8E1,1.2E1,1.2E1,1.125E3,1E0,2.6E1,2E0,1E0,1.1E1,1E0,1.1E1,9E0,1.116E3,2E1,6E0,1E0,1E0,8E0,1E0,2.64E2,8.52E2,3E0,5E0,1E0,2.63E2,2E0,8.5E2,1.73E2,9E1,1E0,1E0,4.8E1,8.02E2],"tree_param":{"num_deleted":"0","num_feature":"20","num_nodes":"37","size_leaf_vector":"0"}},{"base_weights":[-8.793406E-2,-8.725604E-2,-1.1574146E-1,-8.666507E-2,-1.07213296E-1,-1.239288E-1,-5.8206324E-2,-8.675815E-2,9.071812E-3,-1.1379656E-1,-1.2226082E-2,-1.4261486E-1,-8.316796E-2,-5.3651035E-2,-8.697688E-2,-1.269863E-1,-5.7970703E-2,-3.294314E-2,1.4604017E-2,-6.8906575E-2,-1.5783669E-1,-6.419839E-2,2.063758E-2,-8.778596E-2,-7.598196E-2,-3.6350273E-2,-7.9206824E-2,-1.2013871E-1,-8.7416604E-2,2.130242E-2,-7.741072E-2,-3.142464E-2,-1.4099635E-1,-8.546011E-2,-9.271258E-2,-7.849772E-2,-2.2257963E-2],"categories":[],"categories_nodes":[],"categories_segments":[],"categories_sizes":[],"default_left":[1,1,1,1,1,1,0,1,0,1,1,1,0,1,1,0,0,0,0,0,0,1,0,1,1,0,0,1,1,0,1,0,0,0,0,0,0],"id":34,"left_children":[1,3,5,7,9,11,-1,13,-1,15,17,19,-1,21,23,-1,-1,-1,-1,-1,-1,25,-1,27,29,-1,-1,31,33,-1,35,-1,-1,-1,-1,-1,-1],"loss_changes":[1.2129784E-2,4.330635E-3,4.5630634E-3,1.0830879E-2,1.6743213E-2,4.13388E-3,0E0,3.487587E-3,0E0,1.251936E-2,2.1486243E-3,3.7096739E-3,0E0,9.160385E-3,3.2663345E-3,0E0,0E0,0E0,0E0,0E0,0E0,8.824207E-4,0E0,1.8539429E-3,1.3324678E-2,0E0,0E0,1.2222528E-2,2.7079582E-3,0E0,3.2288134E-3,0E0,0E0,0E0,0E0,0E0,0E0],"parents":[2147483647,0,0,1,1,2,2,3,3,4,4,5,5,7,7,9,9,10,10,11,11,13,13,14,14,21,21,23,23,24,24,27,27,28,28,30,30],"right_children":[2,4,6,8,10,12,-1,14,-1,16,18,20,-1,22,24,-1,-1,-1,-1,-1,-1,26,-1,28,30,-1,-1,32,34,-1,36,-1,-1,-1,-1,-1,-1],"split_conditions":[2.7859678E0,4.6049026E-1,2.23505E0,4.5463187E-1,2.6055999E0,1.1578903E0,-2.9103162E-3,-1.0219901E-1,4.5359062E-4,1.1496946E9,2.3597E0,4.8389575E-1,-4.158398E-3,2.6094036E0,2.9012507E-1,-6.349315E-3,-2.8985352E-3,-1.647157E-3,7.3020085E-4,-3.445329E-3,-7.891835E-3,2.3211586E-1,1.031879E-3,-1.0590633E-1,9.6003256E7,-1.8175136E-3,-3.960341E-3,-1.2028831E-1,5.6644028E1,1.065121E-3,2.1833718E0,-1.5712321E-3,-7.0498176E-3,-4.2730058E-3,-4.6356292E-3,-3.924886E-3,-1.1128982E-3],"split_indices":[13,19,0,19,3,15,0,16,0,4,0,15,0,13,19,0,0,0,0,0,0,14,0,10,4,0,0,10,9,0,13,0,0,0,0,0,0],"split_type":[0,0,0,0,0,0,0,0,0,0,0,0,0,0,0,0,0,0,0,0,0,0,0,0,0,0,0,0,0,0,0,0,0,0,0,0,0],"sum_hessian":[1.178E3,1.154E3,2.4E1,1.126E3,2.8E1,2E1,4E0,1.125E3,1E0,2.6E1,2E0,1.2E1,8E0,9E0,1.116E3,2E1,6E0,1E0,1E0,3E0,9E0,8E0,1E0,1.033E3,8.3E1,4E0,4E0,8E0,1.025E3,1E0,8.2E1,2E0,6E0,7.61E2,2.64E2,8E1,2E0],"tree_param":{"num_deleted":"0","num_feature":"20","num_nodes":"37","size_leaf_vector":"0"}},{"base_weights":[-8.358347E-2,-8.289838E-2,-1.09743744E-1,-8.312211E-2,-4.522336E-2,-1.317706E-1,-7.9878055E-2,-8.261816E-2,-1.06161304E-1,-6.1587192E-2,8.03337E-3,-6.632258E-2,-1.4359073E-1,-3.3949036E-2,-8.470381E-2,-8.303904E-2,-6.2426846E-2,-1.3639739E-1,-6.6274196E-2,-1.2142148E-2,-6.7804344E-2,-8.0715865E-3,2.0121641E-2,-1.4988326E-1,-4.033274E-2,-2.352341E-2,-8.812717E-2,-8.197358E-2,-9.709809E-2,-6.5923184E-2,1.4238916E-2,-3.8465623E-2,-1.42344E-1,-8.211868E-2,-5.0247214E-3,-9.017335E-2,-1.4122437E-1,-7.113709E-2,-3.6687296E-2,-8.444227E-2,-7.742964E-2,-1.7271023E-2,9.733941E-3,-4.2419285E-3,-9.1449745E-2,-1.8839695E-1,-9.41007E-2,-4.5916192E-2,-8.046781E-2,-4.164812E-2,-5.9415847E-3],"categories":[],"categories_nodes":[],"categories_segments":[],"categories_sizes":[],"default_left":[1,1,1,1,1,1,1,1,1,1,1,0,1,0,1,1,1,1,0,0,0,0,0,0,0,0,0,1,1,1,0,0,0,1,1,1,1,1,1,0,0,0,0,0,0,0,0,0,0,0,0],"id":35,"left_children":[1,3,5,7,9,11,13,15,17,19,21,-1,23,-1,25,27,29,31,-1,-1,-1,-1,-1,-1,-1,-1,-1,33,35,37,-1,-1,-1,39,41,43,45,47,49,-1,-1,-1,-1,-1,-1,-1,-1,-1,-1,-1,-1],"loss_changes":[1.2032509E-2,5.9599876E-3,7.236272E-3,4.523754E-3,8.3381105E-3,1.3071448E-3,2.2738427E-4,4.3759346E-3,1.6286999E-2,1.3285615E-3,7.464569E-4,0E0,1.1021048E-3,0E0,4.402548E-4,8.50296E-3,8.175999E-3,9.306222E-4,0E0,0E0,0E0,0E0,0E0,0E0,0E0,0E0,0E0,1.106596E-2,9.26584E-3,1.3534352E-3,0E0,0E0,0E0,4.640579E-3,7.1033224E-4,6.741464E-3,5.5283308E-5,1.2471378E-3,6.6768844E-4,0E0,0E0,0E0,0E0,0E0,0E0,0E0,0E0,0E0,0E0,0E0,0E0],"parents":[2147483647,0,0,1,1,2,2,3,3,4,4,5,5,6,6,7,7,8,8,9,9,10,10,12,12,14,14,15,15,16,16,17,17,27,27,28,28,29,29,33,33,34,34,35,35,36,36,37,37,38,38],"right_children":[2,4,6,8,10,12,14,16,18,20,22,-1,24,-1,26,28,30,32,-1,-1,-1,-1,-1,-1,-1,-1,-1,34,36,38,-1,-1,-1,40,42,44,46,48,50,-1,-1,-1,-1,-1,-1,-1,-1,-1,-1,-1,-1],"split_conditions":[2.706135E0,2.4890728E0,9.1884184E-1,8.5575424E1,6.3500965E-1,4.8389575E-1,1.1049559E0,7.1493536E-2,8.781673E1,4.0911183E0,5.2674997E-1,-3.316129E-3,2.1001E0,-1.6974518E-3,3.57124E-1,1.6657267E0,2.38355E0,6.024E-1,-3.3137097E-3,-6.071074E-4,-3.3902172E-3,-4.0357932E-4,1.006082E-3,-7.494163E-3,-2.016637E-3,-1.1761705E-3,-4.4063586E-3,1.6508374E0,7.062E-1,8.109381E8,7.119458E-4,-1.9232811E-3,-7.1172E-3,5.9465003E-1,5.054E-1,3.166E-1,1.17348105E-1,4.6726096E-1,1.115397E0,-4.2221136E-3,-3.8714819E-3,-8.6355116E-4,4.8669707E-4,-2.1209642E-4,-4.5724874E-3,-9.419847E-3,-4.705035E-3,-2.2958096E-3,-4.023391E-3,-2.082406E-3,-2.9707924E-4],"split_indices":[13,13,15,9,8,15,15,16,9,12,0,0,0,0,6,13,0,0,0,0,0,0,0,0,0,0,0,13,0,4,0,0,0,5,0,0,14,8,11,0,0,0,0,0,0,0,0,0,0,0,0],"split_type":[0,0,0,0,0,0,0,0,0,0,0,0,0,0,0,0,0,0,0,0,0,0,0,0,0,0,0,0,0,0,0,0,0,0,0,0,0,0,0,0,0,0,0,0,0,0,0,0,0,0,0],"sum_hessian":[1.178E3,1.152E3,2.6E1,1.144E3,8E0,1.3E1,1.3E1,1.124E3,2E1,6E0,2E0,3E0,1E1,2E0,1.1E1,1.098E3,2.6E1,1E1,1E1,1E0,5E0,1E0,1E0,9E0,1E0,1E0,1E1,1.027E3,7.1E1,2.5E1,1E0,1E0,9E0,1.025E3,2E0,6.4E1,7E0,2E1,5E0,6.74E2,3.51E2,1E0,1E0,1E0,6.3E1,2E0,5E0,7E0,1.3E1,4E0,1E0],"tree_param":{"num_deleted":"0","num_feature":"20","num_nodes":"51","size_leaf_vector":"0"}},{"base_weights":[-7.9464704E-2,-7.843613E-2,-9.562186E-2,-7.854185E-2,1.96186E-2,-1.21311545E-1,-8.181523E-2,-1.022133E-1,-7.810342E-2,-3.9116617E-2,-8.7242104E-2,-2.779617E-2,-1.1028251E-1,-7.851894E-2,-5.8728524E-2,-7.869799E-3,-4.3012787E-2,-9.0470046E-2,-3.5573065E-2,-4.5293294E-2,-1.1679675E-1,-7.807076E-2,-1.2273023E-1,-6.205523E-2,1.38829425E-2,-1.1512984E-1,-7.707272E-2,-8.0697924E-2,-7.355022E-2,-6.4073995E-2,-5.793046E-3,9.1165304E-5,-8.0820285E-2,-1.9416222E-3,-7.408376E-2,-3.2380827E-2,-6.856885E-2],"categories":[],"categories_nodes":[],"categories_segments":[],"categories_sizes":[],"default_left":[1,1,1,1,0,0,1,1,1,1,1,0,1,1,1,0,0,1,0,0,0,1,0,1,0,0,0,1,1,1,0,0,0,0,0,0,0],"id":36,"left_children":[1,3,5,7,-1,-1,9,11,13,15,17,-1,19,21,23,-1,-1,25,-1,-1,-1,27,-1,29,-1,-1,-1,31,33,35,-1,-1,-1,-1,-1,-1,-1],"loss_changes":[1.2093544E-2,1.3089657E-2,1.3484299E-2,3.5676956E-3,0E0,0E0,7.2464943E-3,7.142842E-3,4.220009E-3,5.13698E-4,3.4531057E-3,0E0,1.0602176E-3,1.1640072E-2,7.383555E-3,0E0,0E0,3.350556E-3,0E0,0E0,0E0,6.6890717E-3,0E0,2.5819018E-3,0E0,0E0,0E0,6.5512657E-3,1.5215158E-2,1.3410896E-3,0E0,0E0,0E0,0E0,0E0,0E0,0E0],"parents":[2147483647,0,0,1,1,2,2,3,3,6,6,7,7,8,8,9,9,10,10,12,12,13,13,14,14,17,17,21,21,23,23,27,27,28,28,29,29],"right_children":[2,4,6,8,-1,-1,10,12,14,16,18,-1,20,22,24,-1,-1,26,-1,-1,-1,28,-1,30,-1,-1,-1,32,34,36,-1,-1,-1,-1,-1,-1,-1],"split_conditions":[8.447911E8,8.403704E8,8.907887E-1,-9.408856E-2,9.8093E-4,-6.0655773E-3,1.0796173E0,-1.2028831E-1,6.820883E-2,4.967E-1,7.179811E-1,-1.3898085E-3,2.0573178E8,4.7400925E-1,4.2898196E-1,-3.9348993E-4,-2.1506394E-3,1.2098855E0,-1.7786532E-3,-2.2646647E-3,-5.8398372E-3,5.6556106E-1,-6.136512E-3,8.198517E8,6.9414714E-4,-5.7564923E-3,-3.8536359E-3,-7.4733585E-2,3.44338E-1,9.2955366E-2,-2.8965232E-4,4.558265E-6,-4.0410142E-3,-9.7081116E-5,-3.7041882E-3,-1.6190413E-3,-3.4284424E-3],"split_indices":[4,4,15,10,0,0,15,10,16,0,19,0,4,19,10,0,0,13,0,0,0,8,0,4,0,0,0,10,15,14,0,0,0,0,0,0,0],"split_type":[0,0,0,0,0,0,0,0,0,0,0,0,0,0,0,0,0,0,0,0,0,0,0,0,0,0,0,0,0,0,0,0,0,0,0,0,0],"sum_hessian":[1.178E3,1.113E3,6.5E1,1.112E3,1E0,2E1,4.5E1,1.6E1,1.096E3,6E0,3.9E1,2E0,1.4E1,1.07E3,2.6E1,1E0,5E0,3.6E1,3E0,2E0,1.2E1,1.062E3,8E0,2.5E1,1E0,1E1,2.6E1,6.61E2,4.01E2,2.4E1,1E0,1E0,6.6E2,3E0,3.98E2,4E0,2E1],"tree_param":{"num_deleted":"0","num_feature":"20","num_nodes":"37","size_leaf_vector":"0"}},{"base_weights":[-7.5531445E-2,-7.486811E-2,-1.0012502E-1,-7.49664E-2,1.9128136E-2,-1.2092385E-1,-7.403778E-2,-7.448596E-2,-9.727163E-2,-5.979244E-2,-1.3216038E-1,-2.1008508E-2,-7.6324984E-2,-1.0681292E-1,-7.416055E-2,-1.2549588E-1,-6.020451E-2,-1.3788195E-1,-3.7472326E-2,-7.88399E-2,-2.1815551E-2,-2.6869634E-2,-1.2581533E-1,-7.452546E-2,-5.346833E-2,-3.5483476E-2,-1.3094877E-1,-7.3338374E-2,-8.227786E-2,-1.2652155E-2,-6.139531E-2,-7.406987E-2,-5.87907E-2,-8.761032E-2,-6.970837E-2,-2.258313E-2,1.3535872E-2,-2.8527858E-2,-6.577496E-2],"categories":[],"categories_nodes":[],"categories_segments":[],"categories_sizes":[],"default_left":[1,1,1,1,0,1,1,1,1,0,1,0,1,1,1,1,0,0,0,0,0,0,0,1,1,0,0,1,1,1,1,0,0,0,0,0,0,0,0],"id":37,"left_children":[1,3,5,7,-1,9,11,13,15,-1,17,-1,19,21,23,25,-1,-1,-1,-1,-1,-1,-1,27,29,-1,-1,31,33,35,37,-1,-1,-1,-1,-1,-1,-1,-1],"loss_changes":[1.17378235E-2,1.2076378E-2,6.239414E-3,5.089283E-3,0E0,1.7144531E-3,2.1585077E-4,3.975868E-3,1.4414594E-2,0E0,7.9265237E-4,0E0,1.9927323E-4,1.029142E-2,4.495144E-3,7.5258315E-4,0E0,0E0,0E0,0E0,0E0,0E0,0E0,4.0979385E-3,6.6648424E-3,0E0,0E0,5.9041977E-3,3.1424165E-3,1.6060455E-3,8.5859E-4,0E0,0E0,0E0,0E0,0E0,0E0,0E0,0E0],"parents":[2147483647,0,0,1,1,2,2,3,3,5,5,6,6,7,7,8,8,10,10,12,12,13,13,14,14,15,15,23,23,24,24,27,27,28,28,29,29,30,30],"right_children":[2,4,6,8,-1,10,12,14,16,-1,18,-1,20,22,24,26,-1,-1,-1,-1,-1,-1,-1,28,30,-1,-1,32,34,36,38,-1,-1,-1,-1,-1,-1,-1,-1],"split_conditions":[2.659576E0,2.6094036E0,9.1884184E-1,8.5575424E1,9.564068E-4,4.8389575E-1,3.57124E-1,-1.0590633E-1,8.781673E1,-2.989622E-3,2.1001E0,-1.0504255E-3,2.8177142E0,-1.2028831E-1,7.494409E-2,6.024E-1,-3.0102255E-3,-6.8940977E-3,-1.8736164E-3,-3.941995E-3,-1.0907776E-3,-1.3434817E-3,-6.290767E-3,8.268764E-1,7.949193E-2,-1.7741738E-3,-6.5474384E-3,2.401E0,5.222977E8,1.48145E0,5.3733835E0,-3.7034936E-3,-2.939535E-3,-4.3805162E-3,-3.4854186E-3,-1.1291566E-3,6.767936E-4,-1.4263929E-3,-3.2887482E-3],"split_indices":[13,13,15,9,0,15,6,10,9,0,0,0,5,10,16,0,0,0,0,0,0,0,0,11,16,0,0,5,4,0,12,0,0,0,0,0,0,0,0],"split_type":[0,0,0,0,0,0,0,0,0,0,0,0,0,0,0,0,0,0,0,0,0,0,0,0,0,0,0,0,0,0,0,0,0,0,0,0,0,0,0],"sum_hessian":[1.178E3,1.151E3,2.7E1,1.15E3,1E0,1.3E1,1.4E1,1.13E3,2E1,3E0,1E1,1E0,1.3E1,8E0,1.122E3,1E1,1E1,9E0,1E0,1.2E1,1E0,2E0,6E0,1.1E3,2.2E1,1E0,9E0,9.63E2,1.37E2,4E0,1.8E1,9.13E2,5E1,9.2E1,4.5E1,3E0,1E0,3E0,1.5E1],"tree_param":{"num_deleted":"0","num_feature":"20","num_nodes":"39","size_leaf_vector":"0"}},{"base_weights":[-7.180197E-2,-7.082514E-2,-8.7201774E-2,-7.0922285E-2,1.8649936E-2,-1.10912114E-1,-7.44818E-2,-8.9589536E-2,-7.039336E-2,-3.224485E-2,-1.1323323E-1,-3.437207E-2,-7.963896E-2,-7.40598E-2,-2.4668136E-1,-7.5695254E-2,-6.86605E-2,-1.1302969E-2,-4.1339118E-2,-8.265157E-2,-3.1862605E-2,-1.1817928E-2,-7.607676E-2,-4.1626997E-2,-7.675946E-2,1.5912525E-2,-6.888399E-2,-1.0590654E-1,-7.0116155E-2,-7.807909E-2,-1.40104275E-2,-1.7513823E-2,-6.2237404E-2,-7.135206E-2,-8.67146E-2,4.023529E-2,-1.63665E-2,-2.5836304E-3,-6.90414E-2,-1.10400915E-1,-3.0481383E-2,-2.0483295E-2,-7.123729E-2,-3.3345412E-2,-8.063009E-2,-2.4032302E-2,7.539291E-3,-1.6281467E-2,-6.965602E-2,-7.2320834E-2,4.473217E-2,-9.5411785E-2,-6.6223286E-2,-1.707292E-2,1.3197474E-2,-6.8483904E-2,-1.076847E-1],"categories":[],"categories_nodes":[],"categories_segments":[],"categories_sizes":[],"default_left":[1,1,1,1,0,1,1,1,1,0,0,1,1,1,0,1,1,0,0,1,0,0,1,1,1,1,1,1,1,1,0,1,1,1,1,0,0,1,1,0,0,0,0,0,0,0,0,0,0,0,0,0,0,0,0,0,0],"id":38,"left_children":[1,3,5,7,-1,9,11,13,15,-1,-1,17,19,21,-1,23,25,-1,-1,27,-1,-1,29,31,33,35,37,39,41,43,-1,45,47,49,51,-1,-1,53,55,-1,-1,-1,-1,-1,-1,-1,-1,-1,-1,-1,-1,-1,-1,-1,-1,-1,-1],"loss_changes":[1.1559486E-2,1.1005878E-2,1.1644304E-2,4.682541E-3,0E0,1.8331409E-4,6.777853E-3,4.7599882E-2,4.7898293E-3,0E0,0E0,6.5780897E-4,3.1237602E-3,2.3649484E-3,0E0,6.1585903E-3,1.6784668E-2,0E0,0E0,3.3601224E-3,0E0,0E0,2.0130128E-3,3.8798098E-3,7.2169304E-3,3.0138562E-3,8.462667E-3,3.6370754E-4,4.324317E-5,5.0127506E-5,0E0,1.1610361E-3,5.70545E-4,2.201569E-2,8.473456E-3,0E0,0E0,9.112904E-4,1.0420322E-2,0E0,0E0,0E0,0E0,0E0,0E0,0E0,0E0,0E0,0E0,0E0,0E0,0E0,0E0,0E0,0E0,0E0,0E0],"parents":[2147483647,0,0,1,1,2,2,3,3,5,5,6,6,7,7,8,8,11,11,12,12,13,13,15,15,16,16,19,19,22,22,23,23,24,24,25,25,26,26,27,27,28,28,29,29,31,31,32,32,33,33,34,34,37,37,38,38],"right_children":[2,4,6,8,-1,10,12,14,16,-1,-1,18,20,22,-1,24,26,-1,-1,28,-1,-1,30,32,34,36,38,40,42,44,-1,46,48,50,52,-1,-1,54,56,-1,-1,-1,-1,-1,-1,-1,-1,-1,-1,-1,-1,-1,-1,-1,-1,-1,-1],"split_conditions":[8.447911E8,8.403704E8,8.907887E-1,1.5957922E-2,9.324968E-4,-2.955459E-1,1.0796173E0,8.119495E-1,-4.244706E-2,-1.6122425E-3,-5.6616617E-3,9.507963E8,7.179811E-1,-1.9867387E-2,-1.2334068E-2,-8.166927E-2,1.8809626E1,-5.651485E-4,-2.066956E-3,1.2098855E0,-1.5931303E-3,-5.908964E-4,6.2695E-1,-1.198432E-1,7.4445224E0,6.7055E-1,-4.202754E-2,8.765256E1,3.57124E-1,-7.3799584E-3,-7.005214E-4,4.4943985E1,3.4256867E8,7.378705E0,4.7339837E8,2.0117646E-3,-8.1832503E-4,1.3985E0,4.7047177E-1,-5.5200458E-3,-1.5240692E-3,-1.0241647E-3,-3.5618644E-3,-1.6672707E-3,-4.0315045E-3,-1.2016151E-3,3.7696454E-4,-8.1407337E-4,-3.4828011E-3,-3.6160417E-3,2.2366084E-3,-4.7705895E-3,-3.3111644E-3,-8.53646E-4,6.598737E-4,-3.4241953E-3,-5.384235E-3],"split_indices":[4,4,15,14,0,11,15,13,17,0,0,4,19,10,0,16,9,0,0,13,0,0,1,17,12,0,17,9,6,16,0,9,4,12,4,0,0,0,19,0,0,0,0,0,0,0,0,0,0,0,0,0,0,0,0,0,0],"split_type":[0,0,0,0,0,0,0,0,0,0,0,0,0,0,0,0,0,0,0,0,0,0,0,0,0,0,0,0,0,0,0,0,0,0,0,0,0,0,0,0,0,0,0,0,0,0,0,0,0,0,0,0,0,0,0,0,0],"sum_hessian":[1.178E3,1.113E3,6.5E1,1.112E3,1E0,2E1,4.5E1,2.6E1,1.086E3,1E0,1.9E1,6E0,3.9E1,2.5E1,1E0,2.57E2,8.29E2,2E0,4E0,3.6E1,3E0,1E0,2.4E1,9E0,2.48E2,2E0,8.27E2,1E1,2.6E1,2.3E1,1E0,5E0,4E0,1.66E2,8.2E1,1E0,1E0,2E0,8.25E2,9E0,1E0,1E0,2.5E1,2E0,2.1E1,4E0,1E0,1E0,3E0,1.65E2,1E0,5.5E1,2.7E1,1E0,1E0,8.16E2,9E0],"tree_param":{"num_deleted":"0","num_feature":"20","num_nodes":"57","size_leaf_vector":"0"}},{"base_weights":[-6.826608E-2,-6.73655E-2,-8.4811494E-2,-6.744334E-2,9.989075E-3,-8.725156E-2,-3.066776E-2,-1.0099633E-1,-6.708128E-2,-8.9228615E-2,-2.3898715E-2,-2.324238E-2,-1.1752953E-1,-6.744465E-2,-4.5995805E-2,-9.010671E-2,-2.2222858E-2,-8.582578E-2,-6.691582E-2,-4.941156E-2,1.286754E-2,-2.4221357E-2,-9.093999E-2,-7.062566E-2,-2.4051434E-1,-7.813273E-2,-6.6145316E-2,-5.719986E-2,-2.9605592E-2,-9.180024E-2,-2.4393797E-2,-1.1522479E-2,-7.252889E-2,-2.1600047E-2,-7.963217E-2,-7.247575E-2,-6.474951E-2,-2.1933416E-2,-6.124982E-2,-5.383505E-2,-9.4890945E-2],"categories":[],"categories_nodes":[],"categories_segments":[],"categories_sizes":[],"default_left":[1,1,1,1,0,1,0,1,1,1,0,0,0,1,1,1,0,1,1,1,0,0,1,1,0,1,1,1,0,1,0,0,0,0,0,0,0,0,0,0,0],"id":39,"left_children":[1,3,5,7,-1,9,-1,11,13,15,-1,-1,-1,17,19,21,-1,23,25,27,-1,-1,29,31,-1,33,35,37,-1,39,-1,-1,-1,-1,-1,-1,-1,-1,-1,-1,-1],"loss_changes":[1.1854172E-2,7.4362755E-3,4.8546493E-3,6.855488E-3,0E0,4.6312213E-3,0E0,1.0123536E-2,5.425453E-3,1.0571182E-3,0E0,0E0,0E0,4.8718452E-3,5.0591864E-3,5.9723854E-4,0E0,4.6498165E-2,4.0450096E-3,1.5459172E-3,0E0,0E0,6.2298775E-4,2.088949E-3,0E0,3.620267E-3,4.178524E-3,6.561689E-4,0E0,6.4113736E-4,0E0,0E0,0E0,0E0,0E0,0E0,0E0,0E0,0E0,0E0,0E0],"parents":[2147483647,0,0,1,1,2,2,3,3,5,5,7,7,8,8,9,9,13,13,14,14,15,15,17,17,18,18,19,19,22,22,23,23,25,25,26,26,27,27,29,29],"right_children":[2,4,6,8,-1,10,-1,12,14,16,-1,-1,-1,18,20,22,-1,24,26,28,-1,-1,30,32,-1,34,36,38,-1,40,-1,-1,-1,-1,-1,-1,-1,-1,-1,-1,-1],"split_conditions":[1.6762066E-1,1.6216281E-1,7.179811E-1,-1.050767E-1,4.994538E-4,3.327E0,-1.533388E-3,-1.2028831E-1,7.421749E-2,2.499222E0,-1.1949358E-3,-1.1621191E-3,-5.8764764E-3,1.5957922E-2,2.38355E0,-7.255673E-2,-1.1111429E-3,8.119495E-1,3.357E-1,1.465095E0,6.43377E-4,-1.2110679E-3,2.436501E9,-1.9867387E-2,-1.2025717E-2,2.958E-1,5.7139166E-2,6.0101805E0,-1.4802796E-3,3.7587398E-1,-1.2196898E-3,-5.76124E-4,-3.6264446E-3,-1.0800024E-3,-3.9816084E-3,-3.6237878E-3,-3.2374754E-3,-1.0966709E-3,-3.062491E-3,-2.6917525E-3,-4.7445474E-3],"split_indices":[17,17,19,10,0,1,0,10,16,6,0,0,0,14,0,10,0,13,2,13,0,0,4,10,0,2,18,12,0,6,0,0,0,0,0,0,0,0,0,0,0],"split_type":[0,0,0,0,0,0,0,0,0,0,0,0,0,0,0,0,0,0,0,0,0,0,0,0,0,0,0,0,0,0,0,0,0,0,0,0,0,0,0,0,0],"sum_hessian":[1.178E3,1.122E3,5.6E1,1.121E3,1E0,5.3E1,3E0,9E0,1.112E3,5.1E1,2E0,2E0,7E0,1.091E3,2.1E1,5E1,1E0,2.6E1,1.065E3,2E1,1E0,1E0,4.9E1,2.5E1,1E0,6.2E1,1.003E3,1.3E1,7E0,4.8E1,1E0,1E0,2.4E1,2E0,6E1,1.72E2,8.31E2,2E0,1.1E1,5E0,4.3E1],"tree_param":{"num_deleted":"0","num_feature":"20","num_nodes":"41","size_leaf_vector":"0"}},{"base_weights":[-6.489806E-2,-6.430783E-2,-8.9570515E-2,-6.3784905E-2,-8.24123E-2,-9.642495E-2,-4.2867776E-2,-6.402249E-2,-2.25506E-2,-8.74829E-2,-9.306103E-3,-1.1195284E-1,-6.32819E-2,-8.2135536E-2,-6.351694E-2,1.7433457E-2,-3.07531E-2,-1.0132777E-1,-4.853452E-2,-2.6505008E-2,1.2545854E-2,-5.1338654E-2,-1.2500323E-1,-1.8625336E-2,-6.653581E-2,-6.725602E-2,-2.3450148E-1,-6.87923E-2,-6.1730582E-2,-3.347207E-2,-7.219646E-3,-1.0391853E-1,-2.7347077E-2,-5.109275E-2,-1.4034331E-2,-5.7971932E-2,-1.571941E-2,-1.1234418E-2,-6.904751E-2,-3.1015147E-2,-6.9686644E-2,1.7673032E-2,-6.1944496E-2,-6.598294E-2,-1.1738774E-1,-7.208434E-2,-2.274931E-2,-4.1103717E-2,1.9802421E-2,1.9319542E-3,-6.9969535E-2,4.0848147E-2,-1.4338598E-2,-6.016905E-2,-6.985579E-2],"categories":[],"categories_nodes":[],"categories_segments":[],"categories_sizes":[],"default_left":[1,1,1,1,1,1,0,1,1,1,1,1,1,1,1,0,1,1,1,0,0,1,0,0,0,1,0,1,1,0,0,1,0,0,0,0,0,0,1,1,1,1,1,0,0,0,0,0,0,0,0,0,0,0,0],"id":40,"left_children":[1,3,5,7,9,11,-1,13,15,17,19,21,23,25,27,-1,29,31,33,-1,-1,35,-1,-1,-1,37,-1,39,41,-1,-1,43,-1,-1,-1,-1,-1,-1,45,47,49,51,53,-1,-1,-1,-1,-1,-1,-1,-1,-1,-1,-1,-1],"loss_changes":[1.1408806E-2,5.678177E-3,3.8695037E-3,9.5973015E-3,9.935945E-3,3.7228912E-3,0E0,5.0387383E-3,3.1598872E-3,9.641454E-3,1.4600172E-3,3.866002E-3,6.8519264E-5,4.5440927E-2,6.0629845E-3,0E0,2.062507E-4,7.997751E-4,7.728487E-5,0E0,0E0,3.3804215E-5,0E0,0E0,0E0,1.8336996E-3,0E0,6.8933964E-3,1.5141964E-2,0E0,0E0,1.4517456E-3,0E0,0E0,0E0,0E0,0E0,0E0,1.8751323E-3,4.9153646E-3,5.423069E-3,2.8113248E-3,7.3850155E-3,0E0,0E0,0E0,0E0,0E0,0E0,0E0,0E0,0E0,0E0,0E0,0E0],"parents":[2147483647,0,0,1,1,2,2,3,3,4,4,5,5,7,7,8,8,9,9,10,10,11,11,12,12,13,13,14,14,16,16,17,17,18,18,21,21,25,25,27,27,28,28,31,31,38,38,39,39,40,40,41,41,42,42],"right_children":[2,4,6,8,10,12,-1,14,16,18,20,22,24,26,28,-1,30,32,34,-1,-1,36,-1,-1,-1,38,-1,40,42,-1,-1,44,-1,-1,-1,-1,-1,-1,46,48,50,52,54,-1,-1,-1,-1,-1,-1,-1,-1,-1,-1,-1,-1],"split_conditions":[2.7859678E0,4.6049026E-1,2.23505E0,4.143111E-1,2.6055999E0,1.1578903E0,-2.1433888E-3,1.5957922E-2,4.732601E1,1.0337551E0,2.3597E0,4.8389575E-1,3.57124E-1,8.119495E-1,-4.1954994E-2,8.716729E-4,3.2018905E0,8.781673E1,9.265013E1,-1.3252505E-3,6.272927E-4,5.997E-1,-6.2501617E-3,-9.312668E-4,-3.3267904E-3,-1.9867387E-2,-1.1725075E-2,-1.0251318E-1,1.8809626E1,-1.6736034E-3,-3.6098232E-4,7.340293E1,-1.3673538E-3,-2.5546376E-3,-7.017166E-4,-2.8985967E-3,-7.8597054E-4,-5.6172087E-4,6.1654997E-1,2.6094036E0,2.958E-1,6.7055E-1,8.2653356E-1,-3.299147E-3,-5.869387E-3,-3.604217E-3,-1.1374656E-3,-2.0551858E-3,9.90121E-4,9.659771E-5,-3.4984767E-3,2.0424074E-3,-7.169299E-4,-3.0084525E-3,-3.4927893E-3],"split_indices":[13,19,0,19,3,15,0,14,9,13,0,15,6,13,17,0,15,9,9,0,0,0,0,0,0,10,0,16,9,0,0,9,0,0,0,0,0,0,0,13,2,0,11,0,0,0,0,0,0,0,0,0,0,0,0],"split_type":[0,0,0,0,0,0,0,0,0,0,0,0,0,0,0,0,0,0,0,0,0,0,0,0,0,0,0,0,0,0,0,0,0,0,0,0,0,0,0,0,0,0,0,0,0,0,0,0,0,0,0,0,0,0,0],"sum_hessian":[1.178E3,1.154E3,2.4E1,1.126E3,2.8E1,2E1,4E0,1.119E3,7E0,2.6E1,2E0,1.2E1,8E0,2.6E1,1.093E3,1E0,6E0,1.8E1,8E0,1E0,1E0,3E0,9E0,1E0,7E0,2.5E1,1E0,2.67E2,8.26E2,5E0,1E0,1.7E1,1E0,7E0,1E0,2E0,1E0,1E0,2.4E1,7E0,2.6E2,2E0,8.24E2,6E0,1.1E1,2.2E1,2E0,6E0,1E0,1E0,2.59E2,1E0,1E0,6.8E2,1.44E2],"tree_param":{"num_deleted":"0","num_feature":"20","num_nodes":"55","size_leaf_vector":"0"}},{"base_weights":[-6.170291E-2,-6.0867608E-2,-7.797791E-2,-9.347159E-2,-6.0521226E-2,-1.00718096E-1,-6.750089E-2,-2.0298658E-2,-1.09227486E-1,-7.3819086E-2,-5.9841998E-2,-1.0942568E-1,-2.9412547E-2,-9.7491585E-2,-5.9341013E-2,-6.1915874E-2,-1.2857144E-1,-2.6402932E-3,-5.9946842E-2,-4.1386593E-2,-1.1165626E-1,-6.63524E-2,-4.0957443E-2,-4.196843E-2,-6.828365E-2,-8.161338E-2,-2.2863895E-1,-1.5730396E-2,1.1769956E-2,-7.3292084E-2,-5.9300575E-2,-2.0904226E-2,-6.9685355E-2,-4.4089697E-2,-8.256638E-3,-6.980789E-2,-1.1278214E-2,-1.1823651E-2,-7.587612E-2,-5.8024928E-2,-6.6441745E-2,-1.81597E-2,-7.135365E-2,-1.617957E-2,-4.8053764E-2,-1.2112016E-2,-7.137974E-2,1.8836558E-3,-1.9619133E-2,-7.7662155E-2,-4.3119863E-4,-6.3877456E-2,-5.577614E-2,-7.2155364E-2,-5.3799942E-2,-2.8572945E-2,-7.451968E-2],"categories":[],"categories_nodes":[],"categories_segments":[],"categories_sizes":[],"default_left":[1,1,1,1,1,1,1,0,0,1,1,0,0,1,1,1,1,1,1,0,0,1,0,1,1,0,0,0,0,1,1,0,1,1,0,1,0,1,1,1,1,0,1,0,0,0,0,0,0,0,0,0,0,0,0,0,0],"id":41,"left_children":[1,3,5,7,9,11,13,-1,-1,15,17,-1,-1,19,21,23,25,27,29,-1,-1,31,-1,33,35,-1,-1,-1,-1,37,39,-1,41,43,-1,45,-1,47,49,51,53,-1,55,-1,-1,-1,-1,-1,-1,-1,-1,-1,-1,-1,-1,-1,-1],"loss_changes":[1.1281967E-2,7.059574E-3,6.0669184E-3,9.311885E-3,5.671501E-3,6.094992E-3,4.0035546E-3,0E0,0E0,2.4625838E-2,6.246805E-3,0E0,0E0,9.4189495E-4,1.6647875E-3,2.596125E-3,1.8931821E-2,7.51041E-4,4.8475266E-3,0E0,0E0,2.0272434E-3,0E0,5.656183E-4,1.9062757E-3,0E0,0E0,0E0,0E0,6.2505007E-3,5.4547787E-3,0E0,5.093962E-4,5.5016205E-4,0E0,1.8561333E-3,0E0,3.5752088E-4,5.76064E-3,7.953167E-3,6.8081617E-3,0E0,5.7965517E-4,0E0,0E0,0E0,0E0,0E0,0E0,0E0,0E0,0E0,0E0,0E0,0E0,0E0,0E0],"parents":[2147483647,0,0,1,1,2,2,3,3,4,4,5,5,6,6,9,9,10,10,13,13,14,14,15,15,16,16,17,17,18,18,21,21,23,23,24,24,29,29,30,30,32,32,33,33,35,35,37,37,38,38,39,39,40,40,42,42],"right_children":[2,4,6,8,10,12,14,-1,-1,16,18,-1,-1,20,22,24,26,28,30,-1,-1,32,-1,34,36,-1,-1,-1,-1,38,40,-1,42,44,-1,46,-1,48,50,52,54,-1,56,-1,-1,-1,-1,-1,-1,-1,-1,-1,-1,-1,-1,-1,-1],"split_conditions":[9.196159E8,-1.050767E-1,9.387862E-1,-1.2028831E-1,1.7717835E-2,5.90366E-1,1.0337551E0,-1.0149329E-3,-5.4613743E-3,2.5353463E-2,1.8103685E-2,-5.471284E-3,-1.4706274E-3,1.02383386E9,7.31E-1,3.4555092E0,2.0161872E8,6.426E-1,3.4719998E-1,-2.0693296E-3,-5.582813E-3,1.0306883E0,-2.0478722E-3,2.2538827E8,1.17796045E-2,-4.080669E-3,-1.1431947E-2,-7.865198E-4,5.884978E-4,2.3662842E1,8.268764E-1,-1.0452113E-3,3.57124E-1,3.1695327E-1,-4.1283193E-4,3.3425E-1,-5.639107E-4,3.2314998E-1,9.6498704E-1,-4.1954994E-2,5.222977E8,-9.07985E-4,4.8189998E-1,-8.0897857E-4,-2.4026881E-3,-6.056008E-4,-3.5689871E-3,9.418279E-5,-9.809567E-4,-3.8831078E-3,-2.1559932E-5,-3.1938727E-3,-2.788807E-3,-3.6077683E-3,-2.6899972E-3,-1.4286473E-3,-3.725984E-3],"split_indices":[4,10,15,10,14,6,13,0,0,17,14,0,0,4,6,12,4,0,1,0,0,15,0,4,16,0,0,0,0,9,11,0,6,15,0,0,0,0,15,17,4,0,1,0,0,0,0,0,0,0,0,0,0,0,0,0,0],"split_type":[0,0,0,0,0,0,0,0,0,0,0,0,0,0,0,0,0,0,0,0,0,0,0,0,0,0,0,0,0,0,0,0,0,0,0,0,0,0,0,0,0,0,0,0,0,0,0,0,0,0,0,0,0,0,0,0,0],"sum_hessian":[1.178E3,1.125E3,5.3E1,9E0,1.116E3,1.4E1,3.9E1,2E0,7E0,4.9E1,1.067E3,1.2E1,2E0,6E0,3.3E1,4.2E1,7E0,2E0,1.065E3,2E0,4E0,2.2E1,1.1E1,1.2E1,3E1,6E0,1E0,1E0,1E0,4.4E1,1.021E3,2E0,2E1,1.1E1,1E0,2.9E1,1E0,2E0,4.2E1,8.74E2,1.47E2,1E0,1.9E1,2E0,9E0,1E0,2.8E1,1E0,1E0,4.1E1,1E0,2.35E2,6.39E2,9.8E1,4.9E1,2E0,1.7E1],"tree_param":{"num_deleted":"0","num_feature":"20","num_nodes":"57","size_leaf_vector":"0"}},{"base_weights":[-5.86783E-2,-5.7880603E-2,-7.518659E-2,-8.944564E-2,-5.7547092E-2,-7.7649385E-2,-2.683641E-2,-1.962204E-2,-1.0444879E-1,-5.9619624E-2,-5.3652566E-2,-7.974431E-2,-1.9644076E-2,-7.8834325E-2,-5.8846004E-2,7.631303E-3,-5.413611E-2,-9.541432E-2,-6.82065E-2,-6.354217E-2,-2.2292297E-1,-5.834585E-2,-9.0652704E-2,-1.7305827E-2,4.1221347E-2,-5.4514114E-2,1.3553652E-2,-5.3652987E-2,-1.0834379E-1,-5.794933E-3,-7.492649E-2,-1.0549068E-2,-6.538757E-2,-5.8537494E-2,-2.0382848E-2,-2.5506642E-2,-9.560763E-2,-2.0005789E-2,-5.526884E-2,-5.7381764E-4,2.0904295E-2,-1.1353345E-1,-2.5628734E-2,-6.5899403E-3,-1.7049555E-3,-9.417802E-2,-6.186384E-2,-2.5811667E-2,-6.792757E-2,-5.5196952E-2,-6.212084E-2,-2.5813906E-2,-1.0189046E-1,-4.7859047E-2,6.5395595E-3,-5.390952E-2,-7.524715E-2,-3.1304494E-2,-7.054186E-2],"categories":[],"categories_nodes":[],"categories_segments":[],"categories_sizes":[],"default_left":[1,1,1,1,1,1,0,0,0,1,1,1,0,1,1,1,1,1,1,1,0,1,1,0,0,1,1,0,1,1,1,0,1,1,0,0,1,1,1,0,0,0,0,0,0,0,1,0,0,0,0,0,0,0,0,0,0,0,0],"id":42,"left_children":[1,3,5,7,9,11,-1,-1,-1,13,15,17,-1,19,21,23,25,27,29,31,-1,33,35,-1,-1,37,39,-1,41,43,45,-1,47,49,-1,-1,51,53,55,-1,-1,-1,-1,-1,-1,-1,57,-1,-1,-1,-1,-1,-1,-1,-1,-1,-1,-1,-1],"loss_changes":[1.1173725E-2,6.738186E-3,3.9890707E-3,8.426234E-3,5.841017E-3,4.266292E-3,0E0,0E0,0E0,6.0932636E-3,1.2236834E-2,1.8088222E-3,0E0,4.092063E-2,5.815029E-3,4.0639266E-3,1.0871291E-2,3.366217E-3,1.2147948E-2,1.657255E-3,0E0,3.8268566E-3,4.6651065E-4,0E0,0E0,9.1558695E-3,3.2353326E-4,0E0,2.2414476E-3,1.7706916E-6,9.636432E-4,0E0,5.5870414E-4,4.782915E-3,0E0,0E0,8.778274E-4,7.706722E-3,6.398797E-3,0E0,0E0,0E0,0E0,0E0,0E0,0E0,2.830416E-3,0E0,0E0,0E0,0E0,0E0,0E0,0E0,0E0,0E0,0E0,0E0,0E0],"parents":[2147483647,0,0,1,1,2,2,3,3,4,4,5,5,9,9,10,10,11,11,13,13,14,14,15,15,16,16,17,17,18,18,19,19,21,21,22,22,25,25,26,26,28,28,29,29,30,30,32,32,33,33,36,36,37,37,38,38,46,46],"right_children":[2,4,6,8,10,12,-1,-1,-1,14,16,18,-1,20,22,24,26,28,30,32,-1,34,36,-1,-1,38,40,-1,42,44,46,-1,48,50,-1,-1,52,54,56,-1,-1,-1,-1,-1,-1,-1,58,-1,-1,-1,-1,-1,-1,-1,-1,-1,-1,-1,-1],"split_conditions":[1.8058032E-1,-1.050767E-1,7.179811E-1,-1.2028831E-1,5.819775E-1,3.327E0,-1.3418206E-3,-9.811021E-4,-5.2224393E-3,1.5957922E-2,3.44338E-1,1.1911998E0,-9.822039E-4,8.119495E-1,2.6559625E0,6.309E-1,4.90862E-1,8.542404E-1,1.2984176E0,-1.9867387E-2,-1.1146149E-2,1.0222712E-1,3.7755275E0,-8.6529134E-4,2.0610674E-3,5.689222E-1,5.2674997E-1,-2.6826493E-3,8.781673E1,5.2470005E-1,3.2298166E-1,-5.2745343E-4,-7.3799584E-3,2.7133115E-3,-1.0191425E-3,-1.2753321E-3,-6.8148226E-2,5.4618E-1,1.249353E1,-2.8690882E-5,1.0452148E-3,-5.676673E-3,-1.2814368E-3,-3.29497E-4,-8.5247775E-5,-4.708901E-3,5.582E-1,-1.2905834E-3,-3.3963786E-3,-2.7598476E-3,-3.106042E-3,-1.2906953E-3,-5.094523E-3,-2.3929523E-3,3.2697798E-4,-2.6954762E-3,-3.7623576E-3,-1.5652247E-3,-3.527093E-3],"split_indices":[17,10,19,10,7,1,0,0,0,14,15,13,0,13,13,0,18,11,13,10,0,16,12,0,0,8,0,0,9,0,19,0,16,16,0,0,10,6,12,0,0,0,0,0,0,0,0,0,0,0,0,0,0,0,0,0,0,0,0],"split_type":[0,0,0,0,0,0,0,0,0,0,0,0,0,0,0,0,0,0,0,0,0,0,0,0,0,0,0,0,0,0,0,0,0,0,0,0,0,0,0,0,0,0,0,0,0,0,0,0,0,0,0,0,0,0,0,0,0,0,0],"sum_hessian":[1.178E3,1.128E3,5E1,9E0,1.119E3,4.7E1,3E0,2E0,7E0,7.21E2,3.98E2,4.5E1,2E0,2.4E1,6.97E2,3E0,3.95E2,1.6E1,2.9E1,2.3E1,1E0,6.89E2,8E0,2E0,1E0,3.93E2,2E0,5E0,1.1E1,3E0,2.6E1,1E0,2.2E1,6.85E2,4E0,1E0,7E0,9E0,3.84E2,1E0,1E0,1E1,1E0,2E0,1E0,8E0,1.8E1,2E0,2E1,3.63E2,3.22E2,1E0,6E0,4E0,5E0,3.63E2,2.1E1,5E0,1.3E1],"tree_param":{"num_deleted":"0","num_feature":"20","num_nodes":"59","size_leaf_vector":"0"}},{"base_weights":[-5.580003E-2,-5.4979857E-2,-7.097986E-2,-5.505379E-2,1.3985714E-2,-7.20238E-2,-6.259553E-3,-8.5593715E-2,-5.472993E-2,-7.415119E-2,-2.5830045E-2,-1.8967977E-2,-9.987915E-2,-6.754825E-2,-5.4076128E-2,-5.218337E-2,-7.86622E-2,-5.6162983E-2,-1.20300524E-1,-7.55844E-4,-5.417583E-2,-1.9008072E-2,-6.1129797E-2,-7.9730675E-2,-1.7427333E-2,-3.7798878E-2,-6.2052354E-2,-7.5386345E-2,-2.1734989E-1,-1.3957212E-2,1.2823446E-2,-5.9117395E-2,-5.244185E-2,-3.1391412E-2,-4.416488E-3,-9.9331215E-2,-6.8194896E-2,-3.9837066E-2,-6.670298E-3,-6.347753E-2,-9.648519E-3,-5.5889815E-2,-6.893984E-2,1.9301882E-2,-5.2647132E-2,-2.3495506E-2,-1.036929E-1,-4.593011E-3,-7.030236E-2],"categories":[],"categories_nodes":[],"categories_segments":[],"categories_sizes":[],"default_left":[1,1,1,1,0,1,0,1,1,1,0,0,0,1,1,1,1,1,1,1,1,1,0,1,0,1,1,0,0,0,0,1,1,0,0,1,1,0,0,0,0,0,0,0,0,0,0,0,0],"id":43,"left_children":[1,3,5,7,-1,9,-1,11,13,15,-1,-1,-1,17,19,21,23,25,27,29,31,33,-1,35,-1,37,39,-1,-1,-1,-1,41,43,-1,-1,45,47,-1,-1,-1,-1,-1,-1,-1,-1,-1,-1,-1,-1],"loss_changes":[1.0776043E-2,6.4959526E-3,3.4003556E-3,6.412983E-3,0E0,3.5878718E-3,0E0,7.62327E-3,5.674839E-3,1.1473E-3,0E0,0E0,0E0,2.3273483E-2,5.6152344E-3,2.399642E-3,1.3584793E-3,2.3050606E-3,1.8485926E-2,7.1677513E-4,5.9998035E-3,5.841305E-4,0E0,2.4965405E-3,0E0,5.590711E-4,1.7027706E-3,0E0,0E0,0E0,0E0,4.6432614E-3,1.2724638E-2,0E0,0E0,1.863718E-3,3.5642087E-3,0E0,0E0,0E0,0E0,0E0,0E0,0E0,0E0,0E0,0E0,0E0,0E0],"parents":[2147483647,0,0,1,1,2,2,3,3,5,5,7,7,8,8,9,9,13,13,14,14,15,15,16,16,17,17,18,18,19,19,20,20,21,21,23,23,25,25,26,26,31,31,32,32,35,35,36,36],"right_children":[2,4,6,8,-1,10,-1,12,14,16,-1,-1,-1,18,20,22,24,26,28,30,32,34,-1,36,-1,38,40,-1,-1,-1,-1,42,44,-1,-1,46,48,-1,-1,-1,-1,-1,-1,-1,-1,-1,-1,-1,-1],"split_conditions":[1.6762066E-1,1.6216281E-1,3.1169E0,-1.050767E-1,6.992857E-4,7.179811E-1,-3.1297767E-4,-1.2028831E-1,1.7717835E-2,-1.2887616E-2,-1.2915023E-3,-9.4839884E-4,-4.993958E-3,2.5353463E-2,1.8103685E-2,6.2335E-1,2.499222E0,3.4555092E0,2.0161872E8,6.426E-1,-4.244706E-2,4.9925E-1,-3.0564899E-3,1.2256258E0,-8.7136665E-4,2.2538827E8,1.17796045E-2,-3.7693174E-3,-1.0867494E-2,-6.978606E-4,6.411723E-4,4.9056362E1,1.8809626E1,-1.5695706E-3,-2.2082441E-4,5.84259E0,9.537394E-1,-1.9918534E-3,-3.335149E-4,-3.1738766E-3,-4.8242594E-4,-2.794491E-3,-3.4469923E-3,9.6509414E-4,-2.6323567E-3,-1.1747753E-3,-5.184645E-3,-2.2965056E-4,-3.515118E-3],"split_indices":[17,17,2,10,0,19,0,10,14,16,0,0,0,17,14,0,6,12,4,0,17,0,0,13,0,4,16,0,0,0,0,9,9,0,0,12,11,0,0,0,0,0,0,0,0,0,0,0,0],"split_type":[0,0,0,0,0,0,0,0,0,0,0,0,0,0,0,0,0,0,0,0,0,0,0,0,0,0,0,0,0,0,0,0,0,0,0,0,0,0,0,0,0,0,0,0,0,0,0,0,0],"sum_hessian":[1.178E3,1.122E3,5.6E1,1.121E3,1E0,5.5E1,1E0,9E0,1.112E3,5.2E1,3E0,2E0,7E0,4.9E1,1.063E3,1.1E1,4.1E1,4.2E1,7E0,2E0,1.061E3,3E0,8E0,4E1,1E0,1.2E1,3E1,6E0,1E0,1E0,1E0,2.67E2,7.94E2,1E0,2E0,1.2E1,2.8E1,1.1E1,1E0,2.9E1,1E0,2.06E2,6.1E1,2E0,7.92E2,1E0,1.1E1,1E0,2.7E1],"tree_param":{"num_deleted":"0","num_feature":"20","num_nodes":"49","size_leaf_vector":"0"}},{"base_weights":[-5.30535E-2,-5.2272383E-2,-6.8358704E-2,-8.190827E-2,-5.196027E-2,-8.980272E-2,-5.860823E-2,-1.8335711E-2,-9.550944E-2,-6.4583205E-2,-5.1320657E-2,-9.790683E-2,-2.4750696E-2,-8.6796194E-2,-5.1081054E-2,-5.3493943E-2,-1.161151E-1,-6.41315E-2,-5.0707564E-2,-3.6157947E-2,-9.9819906E-2,-5.7573114E-2,-3.4381185E-2,-1.3101184E-2,-5.5144783E-2,-7.21555E-2,-2.1191615E-1,-7.709769E-3,-6.6576466E-2,-4.950925E-2,-5.741235E-2,-1.6642848E-2,-6.067872E-2,-5.964183E-2,-3.2528397E-2,4.7868304E-3,-1.6351484E-2,-6.827384E-2,2.356749E-3,-4.965261E-2,8.759339E-3,-6.293169E-2,-4.557261E-2,-1.5165536E-2,-6.2196102E-2,-6.0917683E-2,-9.407306E-3,-1.0115198E-2,-3.748714E-2,-6.9271356E-2,-1.3688017E-2,-5.4670397E-2,-4.771081E-2,1.1850838E-2,1.2881719E-3,-5.530438E-2,-8.711342E-2,-1.76086E-2,-5.196362E-2,-2.4461383E-2,-6.502988E-2],"categories":[],"categories_nodes":[],"categories_segments":[],"categories_sizes":[],"default_left":[1,1,1,1,1,1,1,0,0,1,1,0,0,1,1,1,1,1,1,0,0,1,0,0,1,0,0,1,1,1,1,0,1,1,1,0,0,1,0,1,1,1,1,0,1,0,0,0,0,0,0,0,0,0,0,0,0,0,0,0,0],"id":44,"left_children":[1,3,5,7,9,11,13,-1,-1,15,17,-1,-1,19,21,23,25,27,29,-1,-1,31,-1,-1,33,-1,-1,35,37,39,41,-1,43,45,47,-1,-1,49,-1,51,53,55,57,-1,59,-1,-1,-1,-1,-1,-1,-1,-1,-1,-1,-1,-1,-1,-1,-1,-1],"loss_changes":[1.052165E-2,6.1593056E-3,6.027639E-3,6.895378E-3,5.7036877E-3,5.484566E-3,4.053384E-3,0E0,0E0,2.2361085E-2,5.13649E-3,0E0,0E0,1.0071993E-3,1.7067268E-3,2.1448508E-3,1.8400088E-2,5.694434E-3,5.3846836E-3,0E0,0E0,1.9137412E-3,0E0,0E0,2.2299439E-3,0E0,0E0,4.0224788E-4,5.192131E-3,7.7524185E-3,6.8688393E-3,0E0,5.070418E-4,1.5419498E-3,6.2108226E-4,0E0,0E0,1.3387054E-3,0E0,5.9075356E-3,5.4025368E-5,1.344198E-2,8.199625E-3,0E0,5.4790825E-4,0E0,0E0,0E0,0E0,0E0,0E0,0E0,0E0,0E0,0E0,0E0,0E0,0E0,0E0,0E0,0E0],"parents":[2147483647,0,0,1,1,2,2,3,3,4,4,5,5,6,6,9,9,10,10,13,13,14,14,15,15,16,16,17,17,18,18,21,21,24,24,27,27,28,28,29,29,30,30,32,32,33,33,34,34,37,37,39,39,40,40,41,41,42,42,44,44],"right_children":[2,4,6,8,10,12,14,-1,-1,16,18,-1,-1,20,22,24,26,28,30,-1,-1,32,-1,-1,34,-1,-1,36,38,40,42,-1,44,46,48,-1,-1,50,-1,52,54,56,58,-1,60,-1,-1,-1,-1,-1,-1,-1,-1,-1,-1,-1,-1,-1,-1,-1,-1],"split_conditions":[9.196159E8,-1.050767E-1,9.387862E-1,-1.2028831E-1,1.7717835E-2,5.90366E-1,1.0337551E0,-9.1678556E-4,-4.775472E-3,2.5353463E-2,3.4719998E-1,-4.8953416E-3,-1.2375348E-3,1.02383386E9,7.31E-1,3.1695327E-1,2.0161872E8,2.3662842E1,8.2653356E-1,-1.8078974E-3,-4.9909954E-3,1.0306883E0,-1.7190593E-3,-6.550592E-4,1.1694057E-2,-3.6077749E-3,-1.0595808E-2,3.2314998E-1,9.6498704E-1,8.242103E-1,5.222977E8,-8.321424E-4,3.57124E-1,1.17796045E-2,5.2098177E-2,2.3934152E-4,-8.175742E-4,9.721521E0,1.1783745E-4,-4.1954994E-2,6.9085E-1,5.537484E0,7.4170634E-2,-7.582768E-4,4.8189998E-1,-3.0458842E-3,-4.703653E-4,-5.057599E-4,-1.8743571E-3,-3.463568E-3,-6.8440085E-4,-2.73352E-3,-2.3855406E-3,5.925419E-4,6.4408596E-5,-2.765219E-3,-4.355671E-3,-8.8043E-4,-2.5981811E-3,-1.2230692E-3,-3.2514941E-3],"split_indices":[4,10,15,10,14,6,13,0,0,17,1,0,0,4,6,15,4,9,11,0,0,15,0,0,17,0,0,0,15,11,4,0,6,16,19,0,0,12,0,17,0,12,17,0,1,0,0,0,0,0,0,0,0,0,0,0,0,0,0,0,0],"split_type":[0,0,0,0,0,0,0,0,0,0,0,0,0,0,0,0,0,0,0,0,0,0,0,0,0,0,0,0,0,0,0,0,0,0,0,0,0,0,0,0,0,0,0,0,0,0,0,0,0,0,0,0,0,0,0,0,0,0,0,0,0],"sum_hessian":[1.178E3,1.125E3,5.3E1,9E0,1.116E3,1.4E1,3.9E1,2E0,7E0,4.9E1,1.067E3,1.2E1,2E0,6E0,3.3E1,4.2E1,7E0,4.4E1,1.023E3,2E0,4E0,2.2E1,1.1E1,2E0,4E1,6E0,1E0,2E0,4.2E1,8.75E2,1.48E2,2E0,2E1,3.2E1,8E0,1E0,1E0,4.1E1,1E0,8.73E2,2E0,9.8E1,5E1,1E0,1.9E1,3.1E1,1E0,2E0,6E0,4E1,1E0,2.36E2,6.37E2,1E0,1E0,7.7E1,2.1E1,1E1,4E1,2E0,1.7E1],"tree_param":{"num_deleted":"0","num_feature":"20","num_nodes":"61","size_leaf_vector":"0"}},{"base_weights":[-5.0457507E-2,-4.9931847E-2,-7.2724834E-2,-4.945466E-2,-6.67545E-2,-7.867158E-2,-3.3203535E-2,-4.9675766E-2,-1.2317737E-2,-7.1257725E-2,-3.9739483E-3,-9.226897E-2,-5.0289616E-2,-6.1769146E-2,-4.90648E-2,2.2248711E-2,-2.0434188E-2,-8.369467E-2,-3.7084445E-2,-2.2642259E-2,1.6681336E-2,-4.082099E-2,-1.0362127E-1,-1.4786398E-2,-5.2879218E-2,-5.0971605E-2,-1.1208479E-1,-5.3794205E-2,-4.7466658E-2,-2.3262836E-2,-1.7311517E-3,-5.3312864E-2,-9.3616046E-2,-3.9099164E-2,-1.0483343E-2,-4.694308E-2,-1.1227363E-2,-3.4109786E-2,-5.6398448E-2,-6.906312E-2,-2.0661823E-1,-5.253332E-2,-8.7418266E-2,2.0248845E-2,-4.765957E-2,-9.765808E-2,-2.2555823E-2,-3.5910495E-2,-6.250661E-3,-1.6919525E-2,-5.85377E-2,-9.936281E-2,-5.158529E-2,-2.7210811E-2,-1.0295229E-1,4.0901035E-2,-1.0527767E-2,-5.352469E-2,-4.5804244E-2],"categories":[],"categories_nodes":[],"categories_segments":[],"categories_sizes":[],"default_left":[1,1,1,1,1,1,0,1,1,1,1,1,1,1,1,0,1,1,1,0,0,1,0,0,0,1,1,1,1,0,0,0,1,0,0,0,0,1,1,0,0,1,1,1,1,0,0,0,0,0,0,0,0,0,0,0,0,0,0],"id":45,"left_children":[1,3,5,7,9,11,-1,13,15,17,19,21,23,25,27,-1,29,31,33,-1,-1,35,-1,-1,-1,37,39,41,43,-1,-1,-1,45,-1,-1,-1,-1,47,49,-1,-1,51,53,55,57,-1,-1,-1,-1,-1,-1,-1,-1,-1,-1,-1,-1,-1,-1],"loss_changes":[1.0169029E-2,5.970478E-3,3.263414E-3,8.642197E-3,7.915556E-3,3.4641623E-3,0E0,5.244732E-3,2.6990892E-3,8.371532E-3,1.5345009E-3,3.36276E-3,4.5558438E-5,2.1451116E-2,5.541563E-3,0E0,3.3005862E-4,7.362217E-4,7.245317E-5,0E0,0E0,1.9765226E-4,0E0,0E0,0E0,2.0110384E-3,1.8266194E-2,6.557822E-3,1.1533022E-2,0E0,0E0,0E0,1.5312061E-3,0E0,0E0,0E0,0E0,4.27695E-4,1.6276836E-3,0E0,0E0,6.2396526E-3,4.680693E-3,2.33741E-3,6.329775E-3,0E0,0E0,0E0,0E0,0E0,0E0,0E0,0E0,0E0,0E0,0E0,0E0,0E0,0E0],"parents":[2147483647,0,0,1,1,2,2,3,3,4,4,5,5,7,7,8,8,9,9,10,10,11,11,12,12,13,13,14,14,16,16,17,17,18,18,21,21,25,25,26,26,27,27,28,28,32,32,37,37,38,38,41,41,42,42,43,43,44,44],"right_children":[2,4,6,8,10,12,-1,14,16,18,20,22,24,26,28,-1,30,32,34,-1,-1,36,-1,-1,-1,38,40,42,44,-1,-1,-1,46,-1,-1,-1,-1,48,50,-1,-1,52,54,56,58,-1,-1,-1,-1,-1,-1,-1,-1,-1,-1,-1,-1,-1,-1],"split_conditions":[2.7859678E0,4.6049026E-1,2.23505E0,4.143111E-1,2.6055999E0,1.1578903E0,-1.6601768E-3,1.7717835E-2,4.732601E1,1.0337551E0,2.3597E0,4.8389575E-1,3.57124E-1,2.5353463E-2,-4.1954994E-2,1.1124356E-3,3.2018905E0,7.340293E1,9.265013E1,-1.1321129E-3,8.340668E-4,5.997E-1,-5.1810634E-3,-7.393199E-4,-2.643961E-3,3.4555092E0,2.0161872E8,6.963E-1,1.8809626E1,-1.1631418E-3,-8.6557586E-5,-2.6656433E-3,8.781673E1,-1.9549583E-3,-5.2416715E-4,-2.347154E-3,-5.613681E-4,2.2538827E8,3.4155E-1,-3.453156E-3,-1.0330912E-2,-1.07321516E-1,3.284523E8,6.7055E-1,5.7933364E-2,-4.8829042E-3,-1.1277911E-3,-1.7955247E-3,-3.1253305E-4,-8.459763E-4,-2.926885E-3,-4.9681407E-3,-2.5792646E-3,-1.3605406E-3,-5.1476145E-3,2.045052E-3,-5.2638835E-4,-2.6762346E-3,-2.2902123E-3],"split_indices":[13,19,0,19,3,15,0,14,9,13,0,15,6,17,17,0,15,9,9,0,0,0,0,0,0,12,4,11,9,0,0,0,9,0,0,0,0,4,0,0,0,10,4,0,18,0,0,0,0,0,0,0,0,0,0,0,0,0,0],"split_type":[0,0,0,0,0,0,0,0,0,0,0,0,0,0,0,0,0,0,0,0,0,0,0,0,0,0,0,0,0,0,0,0,0,0,0,0,0,0,0,0,0,0,0,0,0,0,0,0,0,0,0,0,0,0,0,0,0,0,0],"sum_hessian":[1.178E3,1.154E3,2.4E1,1.126E3,2.8E1,2E1,4E0,1.119E3,7E0,2.6E1,2E0,1.2E1,8E0,4.9E1,1.07E3,1E0,6E0,1.8E1,8E0,1E0,1E0,3E0,9E0,1E0,7E0,4.2E1,7E0,2.62E2,8.08E2,5E0,1E0,6E0,1.2E1,7E0,1E0,2E0,1E0,1.2E1,3E1,6E0,1E0,2.55E2,7E0,2E0,8.06E2,1.1E1,1E0,1.1E1,1E0,2E0,2.8E1,3E0,2.52E2,2E0,5E0,1E0,1E0,1.87E2,6.19E2],"tree_param":{"num_deleted":"0","num_feature":"20","num_nodes":"59","size_leaf_vector":"0"}},{"base_weights":[-4.798713E-2,-4.7242004E-2,-6.2635735E-2,-7.522842E-2,-4.694916E-2,-8.244903E-2,-5.3639855E-2,-1.5305068E-2,-8.829613E-2,-5.9073992E-2,-4.6337556E-2,-8.985377E-2,-2.2878796E-2,-8.009551E-2,-4.661546E-2,-1.3500123E-1,-6.233808E-2,-4.8559792E-2,-1.0820356E-1,-6.0069263E-2,-4.580034E-2,-3.3688206E-2,-9.192079E-2,-5.264679E-2,-3.1170784E-2,-5.0106816E-2,-1.12304995E-2,-6.610327E-2,-2.0145279E-1,-5.797516E-3,-6.3004866E-2,2.5925662E-3,-4.589682E-2,-1.49369715E-2,-5.5526916E-2,-5.4218404E-2,-2.9463574E-2,5.9567913E-3,-1.4653065E-2,-6.5068975E-2,3.587462E-3,-1.1270404E-2,1.5159253E-2,-4.455727E-2,-5.0825726E-2,-2.200128E-2,-5.789797E-2,-8.064121E-3,-5.5408724E-2,-9.3918545E-3,-3.385666E-2,-6.6310085E-2,-1.2056185E-2,-4.468094E-2,2.824134E-2,-5.2629832E-2,-2.6929574E-2,-2.256269E-2,-6.0727842E-2],"categories":[],"categories_nodes":[],"categories_segments":[],"categories_sizes":[],"default_left":[1,1,1,1,1,1,1,0,1,1,1,0,0,1,1,0,0,1,1,1,1,0,0,1,0,1,0,0,0,1,1,1,1,0,1,1,1,0,0,1,0,0,0,1,1,0,1,0,0,0,0,0,0,0,0,0,0,0,0],"id":46,"left_children":[1,3,5,7,9,11,13,-1,15,17,19,-1,-1,21,23,-1,-1,25,27,29,31,-1,-1,33,-1,35,-1,-1,-1,37,39,41,43,-1,45,47,49,-1,-1,51,-1,-1,-1,53,55,-1,57,-1,-1,-1,-1,-1,-1,-1,-1,-1,-1,-1,-1],"loss_changes":[9.909868E-3,5.6962967E-3,5.2023083E-3,6.479226E-3,5.546093E-3,4.560791E-3,3.6997125E-3,0E0,1.2832694E-3,2.0573556E-2,5.1271915E-3,0E0,0E0,7.4480847E-4,1.5261173E-3,0E0,0E0,1.9204989E-3,1.8089868E-2,5.5295825E-3,4.937649E-3,0E0,0E0,1.6686097E-3,0E0,1.8824637E-3,0E0,0E0,0E0,3.995578E-4,5.0443113E-3,6.934857E-4,4.5359135E-3,0E0,3.9547682E-4,1.3661385E-3,4.756134E-4,0E0,0E0,1.4375746E-3,0E0,0E0,0E0,8.626342E-3,7.7654123E-3,0E0,5.297139E-4,0E0,0E0,0E0,0E0,0E0,0E0,0E0,0E0,0E0,0E0,0E0,0E0],"parents":[2147483647,0,0,1,1,2,2,3,3,4,4,5,5,6,6,8,8,9,9,10,10,13,13,14,14,17,17,18,18,19,19,20,20,23,23,25,25,29,29,30,30,31,31,32,32,34,34,35,35,36,36,39,39,43,43,44,44,46,46],"right_children":[2,4,6,8,10,12,14,-1,16,18,20,-1,-1,22,24,-1,-1,26,28,30,32,-1,-1,34,-1,36,-1,-1,-1,38,40,42,44,-1,46,48,50,-1,-1,52,-1,-1,-1,54,56,-1,58,-1,-1,-1,-1,-1,-1,-1,-1,-1,-1,-1,-1],"split_conditions":[9.196159E8,-1.050767E-1,9.387862E-1,-1.2028831E-1,1.7717835E-2,5.90366E-1,1.0337551E0,-7.6525344E-4,-1.1572191E-1,2.5353463E-2,3.448E-1,-4.4926885E-3,-1.1439398E-3,1.02383386E9,7.31E-1,-6.7500616E-3,-3.116904E-3,1.1430588E-2,2.0161872E8,2.3662842E1,1.8103685E-2,-1.6844104E-3,-4.5960397E-3,1.0306883E0,-1.5585392E-3,1.1694057E-2,-5.61525E-4,-3.3051637E-3,-1.007264E-2,3.2314998E-1,9.6498704E-1,6.426E-1,6.309009E1,-7.468486E-4,4.8189998E-1,7.7121225E-3,5.2098177E-2,2.9783958E-4,-7.3265325E-4,9.721521E0,1.793731E-4,-5.635202E-4,7.5796264E-4,6.29801E1,6.21744E-2,-1.100064E-3,3.69372E-1,-4.0320607E-4,-2.7704362E-3,-4.6959272E-4,-1.692833E-3,-3.3155044E-3,-6.0280925E-4,-2.234047E-3,1.412067E-3,-2.6314917E-3,-1.3464787E-3,-1.1281346E-3,-3.0363922E-3],"split_indices":[4,10,15,10,14,6,13,0,10,17,1,0,0,4,6,0,0,16,4,9,14,0,0,15,0,17,0,0,0,0,15,0,9,0,1,14,19,0,0,12,0,0,0,9,16,0,6,0,0,0,0,0,0,0,0,0,0,0,0],"split_type":[0,0,0,0,0,0,0,0,0,0,0,0,0,0,0,0,0,0,0,0,0,0,0,0,0,0,0,0,0,0,0,0,0,0,0,0,0,0,0,0,0,0,0,0,0,0,0,0,0,0,0,0,0,0,0,0,0,0,0],"sum_hessian":[1.178E3,1.125E3,5.3E1,9E0,1.116E3,1.4E1,3.9E1,2E0,7E0,4.9E1,1.067E3,1.2E1,2E0,6E0,3.3E1,1E0,6E0,4.2E1,7E0,3.6E1,1.031E3,2E0,4E0,2.2E1,1.1E1,4E1,2E0,6E0,1E0,2E0,3.4E1,2E0,1.029E3,2E0,2E1,3.2E1,8E0,1E0,1E0,3.3E1,1E0,1E0,1E0,8.17E2,2.12E2,2E0,1.8E1,1E0,3.1E1,2E0,6E0,3.2E1,1E0,8.16E2,1E0,1.96E2,1.6E1,2E0,1.6E1],"tree_param":{"num_deleted":"0","num_feature":"20","num_nodes":"59","size_leaf_vector":"0"}},{"base_weights":[-4.5637116E-2,-4.488131E-2,-5.972714E-2,-6.54683E-2,-4.450568E-2,-6.071691E-2,-2.150111E-3,-1.11559756E-1,-5.273438E-2,-4.647925E-2,-4.0534586E-2,-6.253104E-2,-2.1500407E-2,-1.47949E-2,-5.7097524E-2,-5.9233923E-2,-4.559727E-2,-1.8931584E-2,-4.215628E-2,-4.1885357E-2,-6.694097E-2,-1.5209691E-2,-5.914969E-2,-4.785318E-2,-1.0446561E-1,-4.5143776E-2,-7.484526E-2,1.1697028E-2,-2.6098544E-2,1.2722119E-2,-4.2670358E-2,-1.2918513E-2,-5.0105583E-2,-8.2084E-2,-5.7322238E-2,-3.7797973E-2,-6.35091E-2,-6.327028E-2,-1.9641647E-1,-4.5380846E-2,-1.0910269E-2,-1.9764384E-2,-7.925982E-2,-6.4245504E-3,3.1960122E-2,-3.24184E-2,3.1366185E-3,-1.0367531E-2,4.0995535E-2,-4.3071106E-2,1.737163E-2,-2.6953004E-2,7.439852E-4,-1.4386308E-2,-5.2772205E-2,-3.9905053E-2,-9.496507E-2,-7.182434E-4,-5.931816E-2,-4.144551E-2,-1.491873E-2,-1.7020369E-2,-6.5964796E-2,-4.307319E-2,-4.961156E-2,6.645579E-3,-2.1349587E-2,-2.1287767E-2,-8.450044E-2,2.9019415E-3,-1.0500695E-2,-4.0845733E-2,-1.851628E-2,1.1561647E-2,-6.3339495E-3,2.5552347E-2,-4.3346472E-2,-1.0920465E-3,2.2080243E-3,-2.8098771E-2,-9.927257E-2,-7.6716274E-2,-4.85231E-2],"categories":[],"categories_nodes":[],"categories_segments":[],"categories_sizes":[],"default_left":[1,1,1,1,1,1,0,0,1,1,1,1,0,0,1,1,1,1,1,1,1,0,0,1,1,1,1,1,1,1,1,1,1,1,1,1,1,0,0,1,1,0,1,1,0,1,1,0,0,1,0,0,1,0,0,0,1,0,1,0,0,0,0,0,0,0,0,0,0,0,0,0,0,0,0,0,0,0,0,0,0,0,0],"id":47,"left_children":[1,3,5,7,9,11,-1,-1,13,15,17,19,-1,-1,21,23,25,27,29,31,33,-1,-1,35,37,39,41,43,45,47,49,51,53,55,57,59,61,-1,-1,63,65,-1,67,69,-1,71,73,-1,-1,75,-1,-1,77,-1,-1,-1,79,-1,81,-1,-1,-1,-1,-1,-1,-1,-1,-1,-1,-1,-1,-1,-1,-1,-1,-1,-1,-1,-1,-1,-1,-1,-1],"loss_changes":[9.874821E-3,5.7706833E-3,3.117755E-3,4.6816096E-3,6.7839622E-3,2.6396215E-3,0E0,0E0,1.8038191E-3,5.533695E-3,1.2339532E-2,2.021581E-3,0E0,0E0,3.0380115E-4,1.7650872E-2,5.7598352E-3,6.45167E-3,1.0360599E-2,2.2100788E-3,1.412347E-3,0E0,0E0,3.4241453E-3,1.7876245E-2,5.0315857E-3,6.2189624E-4,2.4085247E-3,4.35121E-3,3.0363156E-3,9.049416E-3,7.870375E-4,9.804964E-5,3.8167536E-3,3.2337233E-3,1.4680065E-3,3.6136433E-4,0E0,0E0,4.4629574E-3,1.2415068E-3,0E0,6.3164905E-4,1.8253693E-4,0E0,1.4696866E-3,4.721799E-4,0E0,0E0,7.5891614E-3,0E0,0E0,1.0475332E-5,0E0,0E0,0E0,9.083003E-5,0E0,1.5362725E-3,0E0,0E0,0E0,0E0,0E0,0E0,0E0,0E0,0E0,0E0,0E0,0E0,0E0,0E0,0E0,0E0,0E0,0E0,0E0,0E0,0E0,0E0,0E0,0E0],"parents":[2147483647,0,0,1,1,2,2,3,3,4,4,5,5,8,8,9,9,10,10,11,11,14,14,15,15,16,16,17,17,18,18,19,19,20,20,23,23,24,24,25,25,26,26,27,27,28,28,29,29,30,30,31,31,32,32,33,33,34,34,35,35,36,36,39,39,40,40,42,42,43,43,45,45,46,46,49,49,52,52,56,56,58,58],"right_children":[2,4,6,8,10,12,-1,-1,14,16,18,20,-1,-1,22,24,26,28,30,32,34,-1,-1,36,38,40,42,44,46,48,50,52,54,56,58,60,62,-1,-1,64,66,-1,68,70,-1,72,74,-1,-1,76,-1,-1,78,-1,-1,-1,80,-1,82,-1,-1,-1,-1,-1,-1,-1,-1,-1,-1,-1,-1,-1,-1,-1,-1,-1,-1,-1,-1,-1,-1,-1,-1],"split_conditions":[1.6762066E-1,-9.408856E-2,3.1169E0,-1.6614392E-1,5.8523095E-1,7.179811E-1,-1.0750555E-4,-5.577988E-3,-1.1742658E-1,1.7705493E-2,5.7709396E-1,-1.2887616E-2,-1.0750204E-3,-7.3974504E-4,1.8966854E8,2.5353463E-2,2.6559625E0,5.410783E-1,3.44338E-1,6.2335E-1,1.2256258E0,-7.6048455E-4,-2.9574845E-3,5.2365625E-1,2.0161872E8,2.4890728E0,3.7755275E0,6.2804997E-1,1.5932256E-1,6.309E-1,1.5093732E-1,4.9925E-1,5.456855E1,3.222297E8,9.537394E-1,1.2224846E-2,-6.600694E-3,-3.163514E-3,-9.820824E-3,1.0240364E-2,-1.3173103E-2,-9.882193E-4,-6.8148226E-2,6.014E-1,1.5980061E-3,8.3060837E-1,6.669E-1,-5.183766E-4,2.0497767E-3,4.9675E-1,8.685815E-4,-1.3476502E-3,5.2470005E-1,-7.1931543E-4,-2.6386103E-3,-1.9952527E-3,7.630074E-1,-3.5912173E-5,2.9900303E-1,-2.0722754E-3,-7.459365E-4,-8.5101847E-4,-3.2982398E-3,-2.1536595E-3,-2.4805781E-3,3.3227896E-4,-1.0674794E-3,-1.0643884E-3,-4.225022E-3,1.4509707E-4,-5.2503473E-4,-2.0422868E-3,-9.25814E-4,5.7808234E-4,-3.166975E-4,1.2776174E-3,-2.1673236E-3,-5.4602326E-5,1.1040121E-4,-1.4049386E-3,-4.9636285E-3,-3.8358138E-3,-2.426155E-3],"split_indices":[17,10,2,17,7,19,0,0,10,14,6,16,0,0,4,17,13,15,15,0,13,0,0,7,4,13,12,0,18,0,17,0,9,4,11,17,16,0,0,16,10,0,10,0,0,15,0,0,0,3,0,0,0,0,0,0,13,0,19,0,0,0,0,0,0,0,0,0,0,0,0,0,0,0,0,0,0,0,0,0,0,0,0],"split_type":[0,0,0,0,0,0,0,0,0,0,0,0,0,0,0,0,0,0,0,0,0,0,0,0,0,0,0,0,0,0,0,0,0,0,0,0,0,0,0,0,0,0,0,0,0,0,0,0,0,0,0,0,0,0,0,0,0,0,0,0,0,0,0,0,0,0,0,0,0,0,0,0,0,0,0,0,0,0,0,0,0,0,0],"sum_hessian":[1.178E3,1.122E3,5.6E1,1.7E1,1.105E3,5.5E1,1E0,2E0,1.5E1,7.31E2,3.74E2,5.2E1,3E0,2E0,1.3E1,4.3E1,6.88E2,2.7E1,3.47E2,1.1E1,4.1E1,1E0,1.2E1,3.6E1,7E0,6.8E2,8E0,5E0,2.2E1,3E0,3.44E2,3E0,8E0,1.3E1,2.8E1,2.4E1,1.2E1,6E0,1E0,6.75E2,5E0,1E0,7E0,3E0,2E0,1.8E1,4E0,2E0,1E0,3.42E2,2E0,1E0,2E0,1E0,7E0,4E0,9E0,1E0,2.7E1,2E1,4E0,1E0,1.1E1,4.44E2,2.31E2,2E0,3E0,1E0,6E0,1E0,2E0,1E1,8E0,2E0,2E0,1E0,3.41E2,1E0,1E0,1E0,8E0,8E0,1.9E1],"tree_param":{"num_deleted":"0","num_feature":"20","num_nodes":"83","size_leaf_vector":"0"}},{"base_weights":[-4.3407936E-2,-4.26743E-2,-5.710033E-2,-7.0049986E-2,-4.239025E-2,-5.8045108E-2,-2.0963587E-3,-1.288372E-1,-4.920283E-2,-4.4198457E-2,-3.8823675E-2,-5.9768856E-2,-2.069414E-2,-1.4301739E-2,-5.713146E-2,-5.6725677E-2,-4.333431E-2,-2.4736045E-2,-4.1261666E-2,-4.017857E-2,-6.394301E-2,-4.5648832E-2,-1.0086537E-1,-7.232204E-2,-4.288758E-2,-2.8472155E-2,5.4495398E-2,1.2468864E-2,-4.1800983E-2,-1.2595551E-2,-4.797341E-2,-7.857721E-2,-5.4673295E-2,-3.6020804E-2,-6.065282E-2,-6.0558695E-2,-1.9150606E-1,-2.5586292E-2,-8.2019925E-2,-4.3102115E-2,4.1980557E-3,-3.6775943E-2,-9.929001E-3,-1.0021946E-2,3.9970648E-2,-4.2219672E-2,1.6792575E-2,-2.627918E-2,7.253848E-4,-1.402665E-2,-5.046342E-2,-3.8308848E-2,-9.0853676E-2,-7.002875E-4,-5.6575894E-2,-3.9471913E-2,-1.432198E-2,-1.6594859E-2,-6.294141E-2,-8.844901E-2,-2.1722715E-2,-4.348129E-2,-1.615757E-2,-9.840274E-3,1.215759E-2,-8.044677E-2,-3.224112E-2,1.1315188E-2,-1.832444E-2,-2.5538726E-2,-4.379427E-2,-1.0647457E-3,2.152823E-3,-7.192318E-2,-4.5520693E-2],"categories":[],"categories_nodes":[],"categories_segments":[],"categories_sizes":[],"default_left":[1,1,1,1,1,1,0,0,1,1,1,1,0,0,0,1,1,1,1,1,1,1,1,1,1,1,0,1,1,1,1,1,1,1,1,0,0,0,1,1,1,1,1,0,0,1,0,0,1,0,0,0,0,0,1,0,0,0,0,0,0,0,0,0,0,0,0,0,0,0,0,0,0,0,0],"id":48,"left_children":[1,3,5,7,9,11,-1,-1,13,15,17,19,-1,-1,-1,21,23,25,27,29,31,33,35,37,39,41,-1,43,45,47,49,51,53,55,57,-1,-1,-1,59,61,63,65,67,-1,-1,69,-1,-1,71,-1,-1,-1,-1,-1,73,-1,-1,-1,-1,-1,-1,-1,-1,-1,-1,-1,-1,-1,-1,-1,-1,-1,-1,-1,-1],"loss_changes":[9.406805E-3,5.763054E-3,2.8403997E-3,5.9163086E-3,5.468607E-3,2.3686439E-3,0E0,0E0,1.6733818E-3,5.465865E-3,1.2133658E-2,1.764819E-3,0E0,0E0,0E0,1.6908467E-2,5.820751E-3,1.9016631E-2,9.9390745E-3,1.9758083E-3,1.4014244E-3,3.1602085E-3,1.763004E-2,1.980558E-3,7.0599318E-3,8.411624E-3,0E0,2.8747334E-3,8.608341E-3,7.4817747E-4,5.291775E-5,3.4404397E-3,2.93836E-3,1.3068095E-3,2.6629493E-4,0E0,0E0,0E0,7.9223514E-4,6.224394E-3,5.6658837E-4,5.129844E-3,3.5960758E-3,0E0,0E0,7.286668E-3,0E0,0E0,9.95811E-6,0E0,0E0,0E0,0E0,0E0,1.4766902E-3,0E0,0E0,0E0,0E0,0E0,0E0,0E0,0E0,0E0,0E0,0E0,0E0,0E0,0E0,0E0,0E0,0E0,0E0,0E0,0E0],"parents":[2147483647,0,0,1,1,2,2,3,3,4,4,5,5,8,8,9,9,10,10,11,11,15,15,16,16,17,17,18,18,19,19,20,20,21,21,22,22,23,23,24,24,25,25,27,27,28,28,29,29,30,30,31,31,32,32,33,33,34,34,38,38,39,39,40,40,41,41,42,42,45,45,48,48,54,54],"right_children":[2,4,6,8,10,12,-1,-1,14,16,18,20,-1,-1,-1,22,24,26,28,30,32,34,36,38,40,42,-1,44,46,48,50,52,54,56,58,-1,-1,-1,60,62,64,66,68,-1,-1,70,-1,-1,72,-1,-1,-1,-1,-1,74,-1,-1,-1,-1,-1,-1,-1,-1,-1,-1,-1,-1,-1,-1,-1,-1,-1,-1,-1,-1],"split_conditions":[1.6762066E-1,-1.050767E-1,3.1169E0,-1.4866549E-1,5.8523095E-1,7.179811E-1,-1.0481793E-4,-6.44186E-3,-1.1742658E-1,1.7705493E-2,6.13492E-1,-1.2887616E-2,-1.0347071E-3,-7.1508694E-4,-2.856573E-3,2.5353463E-2,-2.0782724E-1,6.1288E-1,3.44338E-1,6.2335E-1,1.2256258E0,5.2365625E-1,2.0161872E8,-3.2164752E-1,1.4530717E1,4.33456E-2,2.72477E-3,6.309E-1,1.5093732E-1,4.9925E-1,5.456855E1,3.222297E8,9.537394E-1,1.2224846E-2,-6.600694E-3,-3.0279348E-3,-9.575303E-3,-1.2793146E-3,5.3485E-1,7.166955E-2,4.1435E-1,2.9146226E-2,5.4109716E-1,-5.0109735E-4,1.9985323E-3,3.9479986E-2,8.3962874E-4,-1.313959E-3,5.2470005E-1,-7.013325E-4,-2.523171E-3,-1.9154424E-3,-4.5426837E-3,-3.501438E-5,3.212397E-1,-1.9735957E-3,-7.16099E-4,-8.2974293E-4,-3.1470705E-3,-4.4224504E-3,-1.0861357E-3,-2.1740645E-3,-8.078785E-4,-4.920137E-4,6.0787954E-4,-4.022339E-3,-1.612056E-3,5.6575943E-4,-9.1622205E-4,-1.2769363E-3,-2.1897135E-3,-5.3237287E-5,1.0764115E-4,-3.5961592E-3,-2.2760348E-3],"split_indices":[17,10,2,17,7,19,0,0,10,14,6,16,0,0,0,17,17,6,15,0,13,7,4,17,12,17,0,0,17,0,9,4,11,17,16,0,0,0,0,16,3,14,15,0,0,19,0,0,0,0,0,0,0,0,19,0,0,0,0,0,0,0,0,0,0,0,0,0,0,0,0,0,0,0,0],"split_type":[0,0,0,0,0,0,0,0,0,0,0,0,0,0,0,0,0,0,0,0,0,0,0,0,0,0,0,0,0,0,0,0,0,0,0,0,0,0,0,0,0,0,0,0,0,0,0,0,0,0,0,0,0,0,0,0,0,0,0,0,0,0,0,0,0,0,0,0,0,0,0,0,0,0,0],"sum_hessian":[1.178E3,1.122E3,5.6E1,9E0,1.113E3,5.5E1,1E0,1E0,8E0,7.31E2,3.82E2,5.2E1,3E0,2E0,6E0,4.3E1,6.88E2,5.8E1,3.24E2,1.1E1,4.1E1,3.6E1,7E0,8E0,6.8E2,5.6E1,2E0,3E0,3.21E2,3E0,8E0,1.3E1,2.8E1,2.4E1,1.2E1,6E0,1E0,2E0,6E0,6.77E2,3E0,3.8E1,1.8E1,2E0,1E0,3.19E2,2E0,1E0,2E0,1E0,7E0,4E0,9E0,1E0,2.7E1,2E1,4E0,1E0,1.1E1,5E0,1E0,6.67E2,1E1,1E0,2E0,2E0,3.6E1,5E0,1.3E1,2.9E1,2.9E2,1E0,1E0,9E0,1.8E1],"tree_param":{"num_deleted":"0","num_feature":"20","num_nodes":"75","size_leaf_vector":"0"}},{"base_weights":[-4.1289546E-2,-4.0593617E-2,-5.5036314E-2,-6.754884E-2,-4.031596E-2,-7.361725E-2,-4.6692558E-2,-1.2561628E-1,-4.7139537E-2,-5.1665165E-2,-3.974688E-2,-8.0423616E-2,-1.9583892E-2,-7.155219E-2,-4.0201087E-2,-1.3825013E-2,-5.468297E-2,-4.1955307E-2,-9.7397506E-2,-5.2844144E-2,-3.9238792E-2,-2.9392326E-2,-8.2537666E-2,-4.5760762E-2,-2.6194949E-2,-4.3412503E-2,-8.055181E-3,-5.7963323E-2,-1.867184E-1,-2.6584535E-3,-5.5635944E-2,-3.8196962E-2,-4.51565E-2,-1.9221127E-2,-5.0336417E-2,-1.1131058E-2,-2.8094621E-2,-4.706938E-2,-2.5180351E-2,8.135196E-3,-1.2122876E-2,-5.760533E-2,5.6616385E-3,-3.833318E-2,1.458393E-2,-5.028669E-2,-3.431247E-2,-2.5749428E-2,-5.5176318E-2,-8.387122E-3,-2.9352441E-2,-5.8395844E-3,-4.8175324E-2,-8.104104E-3,-2.890155E-2,-5.876968E-2,-9.590918E-3,-4.304715E-2,-3.6514077E-2,-4.3280825E-2,-7.283991E-2,-9.683396E-3,-4.0083382E-2],"categories":[],"categories_nodes":[],"categories_segments":[],"categories_sizes":[],"default_left":[1,1,1,1,1,1,1,0,1,1,1,0,0,1,1,0,0,1,1,1,1,0,0,1,1,1,0,0,0,1,1,1,1,0,1,0,1,1,1,0,0,1,0,1,0,1,1,0,0,0,0,0,0,0,0,0,0,0,0,0,0,0,0],"id":49,"left_children":[1,3,5,7,9,11,13,-1,15,17,19,-1,-1,21,23,-1,-1,25,27,29,31,-1,-1,33,35,37,-1,-1,-1,39,41,43,45,-1,47,-1,49,51,53,-1,-1,55,-1,57,-1,59,61,-1,-1,-1,-1,-1,-1,-1,-1,-1,-1,-1,-1,-1,-1,-1,-1],"loss_changes":[9.045124E-3,5.7041645E-3,4.9345046E-3,5.9296675E-3,5.1606894E-3,3.941551E-3,3.5785437E-3,0E0,1.5057586E-3,1.8116385E-2,5.033493E-3,0E0,0E0,8.160509E-4,1.4488623E-3,0E0,0E0,1.774475E-3,1.7355554E-2,5.0361007E-3,4.637599E-3,0E0,0E0,1.8255152E-3,3.067404E-5,1.5483573E-3,0E0,0E0,0E0,4.0508897E-4,4.551299E-3,6.914854E-3,6.5636933E-3,0E0,8.4021315E-4,0E0,1.703389E-6,1.2234077E-3,3.3767615E-4,0E0,0E0,1.3371259E-3,0E0,5.991578E-3,0E0,1.2489915E-2,6.860599E-3,0E0,0E0,0E0,0E0,0E0,0E0,0E0,0E0,0E0,0E0,0E0,0E0,0E0,0E0,0E0,0E0],"parents":[2147483647,0,0,1,1,2,2,3,3,4,4,5,5,6,6,8,8,9,9,10,10,13,13,14,14,17,17,18,18,19,19,20,20,23,23,24,24,25,25,29,29,30,30,31,31,32,32,34,34,36,36,37,37,38,38,41,41,43,43,45,45,46,46],"right_children":[2,4,6,8,10,12,14,-1,16,18,20,-1,-1,22,24,-1,-1,26,28,30,32,-1,-1,34,36,38,-1,-1,-1,40,42,44,46,-1,48,-1,50,52,54,-1,-1,56,-1,58,-1,60,62,-1,-1,-1,-1,-1,-1,-1,-1,-1,-1,-1,-1,-1,-1,-1,-1],"split_conditions":[9.196159E8,-1.050767E-1,9.387862E-1,-1.4866549E-1,1.7717835E-2,5.90366E-1,1.0337551E0,-6.2808143E-3,-1.1742658E-1,2.5353463E-2,3.448E-1,-4.021181E-3,-9.791947E-4,1.02383386E9,7.31E-1,-6.9125067E-4,-2.7341486E-3,1.1430588E-2,2.0161872E8,2.3662842E1,8.2653356E-1,-1.4696163E-3,-4.1268836E-3,1.0774243E0,4.1031097E1,1.1694057E-2,-4.0275906E-4,-2.8981662E-3,-9.33592E-3,3.2314998E-1,9.6498704E-1,8.242103E-1,5.222977E8,-9.610564E-4,7.6197095E0,-5.5655296E-4,1.1303464E0,7.7121225E-3,5.2098177E-2,4.067598E-4,-6.061438E-4,9.721521E0,2.8308193E-4,-4.1954994E-2,7.2919653E-4,5.537484E0,7.4170634E-2,-1.2874714E-3,-2.758816E-3,-4.1935613E-4,-1.4676221E-3,-2.9197923E-4,-2.4087662E-3,-4.0520518E-4,-1.4450776E-3,-2.938484E-3,-4.795459E-4,-2.1523575E-3,-1.8257039E-3,-2.1640414E-3,-3.6419954E-3,-4.8416978E-4,-2.0041692E-3],"split_indices":[4,10,15,17,14,6,13,0,10,17,1,0,0,4,6,0,0,16,4,9,11,0,0,15,9,17,0,0,0,0,15,11,4,0,12,0,13,14,19,0,0,12,0,17,0,12,17,0,0,0,0,0,0,0,0,0,0,0,0,0,0,0,0],"split_type":[0,0,0,0,0,0,0,0,0,0,0,0,0,0,0,0,0,0,0,0,0,0,0,0,0,0,0,0,0,0,0,0,0,0,0,0,0,0,0,0,0,0,0,0,0,0,0,0,0,0,0,0,0,0,0,0,0,0,0,0,0,0,0],"sum_hessian":[1.178E3,1.125E3,5.3E1,9E0,1.116E3,1.4E1,3.9E1,1E0,8E0,4.9E1,1.067E3,1.2E1,2E0,6E0,3.3E1,2E0,6E0,4.2E1,7E0,3.6E1,1.031E3,2E0,4E0,2.2E1,1.1E1,4E1,2E0,6E0,1E0,2E0,3.4E1,8.83E2,1.48E2,4E0,1.8E1,2E0,9E0,3.2E1,8E0,1E0,1E0,3.3E1,1E0,8.81E2,2E0,9.8E1,5E1,4E0,1.4E1,1E0,8E0,1E0,3.1E1,2E0,6E0,3.2E1,1E0,2.39E2,6.42E2,7.7E1,2.1E1,1E1,4E1],"tree_param":{"num_deleted":"0","num_feature":"20","num_nodes":"63","size_leaf_vector":"0"}},{"base_weights":[-3.9275806E-2,-3.8243786E-2,-4.7983512E-2,-3.8369507E-2,1.880029E-2,-1.2247587E-1,-4.6342112E-2,-3.7952036E-2,-6.1676648E-2,2.8267466E-3,2.537369E-2,-7.60555E-2,-4.354066E-2,-3.985398E-2,-3.4274478E-2,-7.822703E-2,-2.6857952E-2,-8.412052E-2,-5.7676714E-3,-3.637364E-2,-5.3790282E-2,-3.8702283E-2,-4.9337298E-2,-3.633637E-2,-1.8133083E-2,-2.2822E-2,-8.800348E-2,-3.2035153E-2,-9.276629E-3,-3.8451556E-2,2.2157634E-2,-7.706593E-3,-5.4682773E-2,-3.9024252E-2,2.669577E-4,-5.6060724E-2,-3.0979745E-2,-1.3738255E-2,-3.8204893E-2,3.9884236E-2,-2.0464074E-2,-3.3486176E-2,-5.650112E-2,6.6082627E-3,2.6628189E-2,-5.698302E-2,-2.5804305E-2,1.3078359E-2,-3.9218433E-2,5.1510567E-3,-1.2076768E-2,-2.431317E-2,-5.9837364E-2,-2.0888895E-2,-5.9092686E-2,-3.922436E-2,1.4765107E-2,-4.200786E-2,-2.7459327E-2,2.311099E-2,-2.32206E-2,7.931817E-3,-3.440006E-2,-6.6202015E-2,-1.8123604E-2,-5.8762018E-2,-2.6726285E-2],"categories":[],"categories_nodes":[],"categories_segments":[],"categories_sizes":[],"default_left":[1,1,1,1,1,0,1,1,1,0,0,1,1,1,1,1,1,0,0,1,1,1,1,1,1,0,0,0,0,1,1,0,1,1,1,1,1,1,1,0,1,1,1,0,0,1,0,0,0,0,0,0,0,0,0,0,0,0,0,0,0,0,0,0,0,0,0],"id":50,"left_children":[1,3,5,7,9,-1,11,13,15,-1,-1,17,19,21,23,25,27,-1,-1,29,31,33,35,37,39,-1,-1,-1,-1,41,43,-1,45,47,49,51,53,55,57,-1,59,61,63,-1,-1,65,-1,-1,-1,-1,-1,-1,-1,-1,-1,-1,-1,-1,-1,-1,-1,-1,-1,-1,-1,-1,-1],"loss_changes":[8.759975E-3,8.316278E-3,9.119153E-3,7.943988E-3,2.4327647E-4,0E0,6.6773593E-3,5.9154034E-3,7.6954514E-3,0E0,0E0,4.616674E-3,6.2709004E-3,5.5173635E-3,1.1389136E-2,3.9498955E-3,3.3997558E-4,0E0,0E0,9.243973E-3,1.3882667E-3,7.676542E-3,6.9030523E-3,1.2987167E-2,6.631417E-3,0E0,0E0,0E0,0E0,4.1127354E-3,3.257685E-5,0E0,1.3859719E-3,6.6440105E-3,4.23936E-4,4.5401305E-3,4.7229715E-3,1.9466583E-2,1.09016895E-2,0E0,5.5815186E-3,2.354674E-3,3.6400333E-3,0E0,0E0,5.287379E-4,0E0,0E0,0E0,0E0,0E0,0E0,0E0,0E0,0E0,0E0,0E0,0E0,0E0,0E0,0E0,0E0,0E0,0E0,0E0,0E0,0E0],"parents":[2147483647,0,0,1,1,2,2,3,3,4,4,6,6,7,7,8,8,11,11,12,12,13,13,14,14,15,15,16,16,19,19,20,20,21,21,22,22,23,23,24,24,29,29,30,30,32,32,33,33,34,34,35,35,36,36,37,37,38,38,40,40,41,41,42,42,45,45],"right_children":[2,4,6,8,10,-1,12,14,16,-1,-1,18,20,22,24,26,28,-1,-1,30,32,34,36,38,40,-1,-1,-1,-1,42,44,-1,46,48,50,52,54,56,58,-1,60,62,64,-1,-1,66,-1,-1,-1,-1,-1,-1,-1,-1,-1,-1,-1,-1,-1,-1,-1,-1,-1,-1,-1,-1,-1],"split_conditions":[1.6657267E0,1.6508374E0,-1.1572191E-1,8.5575424E1,5.054E-1,-6.123794E-3,3.51228E-1,5.9465003E-1,1.0337551E0,1.4133732E-4,1.2686845E-3,1.3759445E-1,5.8895004E-1,3.0151978E-2,1.2695405E0,-1.261008E-2,1.0405427E0,-4.206026E-3,-2.8838357E-4,6.50218E-1,-2.1905959E-1,6.819095E8,5.1751114E-2,6.083214E-1,3.7513208E-1,-1.1411001E-3,-4.400174E-3,-1.6017577E-3,-4.6383147E-4,2.6559625E0,5.2674997E-1,-3.8532965E-4,2.555457E0,-7.4733585E-2,6.3015E-1,7.0632614E-2,6.543418E8,6.0155E-1,1.2659527E-2,1.994212E-3,2.6629402E8,3.166E-1,1.4549224E-2,3.3041314E-4,1.3314094E-3,1.0136311E-1,